svm_type c_svc
kernel_type rbf
gamma 1.0
nr_class 2
total_sv 8
rho 4.1906232038923066E-4
label 0 1
nr_sv 4 4
SV
0.9985718119055559 0:1.0 1:1.0 
0.7062746491581003 0:1.0 1:3.0 
0.4750805568287751 0:2.0 1:3.0 
0.7488761245780672 0:2.0 1:4.0 
-0.755089417008374 0:3.0 1:1.0 
-0.4599477169454791 0:4.0 1:1.0 
-0.7137660085166454 0:4.0 1:2.0 
-1.0 0:4.0 1:4.0 
