svm_type c_svc
kernel_type rbf
gamma 0.09090909090909091
nr_class 2
total_sv 165
rho 0.9285300722908606
label 1 0
nr_sv 11 154
SV
1.0 0:2577.0 1:609.0 2:-921.0 3:936.0 4:-669.0 5:32.0 6:-269.0 7:337.0 8:-505.0 9:190.0 10:126.0 11:88.0 
1.0 0:1554.0 1:-328.0 2:-1303.0 3:182.0 4:-877.0 5:19.0 6:-352.0 7:-67.0 8:-129.0 9:110.0 10:46.0 11:214.0 
1.0 0:1832.0 1:414.0 2:-1160.0 3:887.0 4:-972.0 5:391.0 6:-98.0 7:301.0 8:-254.0 9:290.0 10:-130.0 11:102.0 
1.0 0:1710.0 1:577.0 2:-899.0 3:880.0 4:-847.0 5:550.0 6:-172.0 7:303.0 8:-105.0 9:68.0 10:-94.0 11:116.0 
1.0 0:2253.0 1:660.0 2:-717.0 3:540.0 4:-681.0 5:419.0 6:-236.0 7:106.0 8:-86.0 9:37.0 10:-59.0 11:41.0 
1.0 0:2207.0 1:1090.0 2:-918.0 3:684.0 4:-701.0 5:409.0 6:-390.0 7:341.0 8:-189.0 9:252.0 10:-215.0 11:199.0 
1.0 0:1691.0 1:824.0 2:-789.0 3:614.0 4:-732.0 5:510.0 6:-258.0 7:214.0 8:-149.0 9:41.0 10:-136.0 11:246.0 
1.0 0:2569.0 1:1703.0 2:-307.0 3:-120.0 4:-662.0 5:304.0 6:-140.0 7:280.0 8:-427.0 9:46.0 10:-307.0 11:249.0 
1.0 0:2152.0 1:896.0 2:-907.0 3:795.0 4:-666.0 5:409.0 6:-217.0 7:212.0 8:-374.0 9:177.0 10:-177.0 11:54.0 
0.927734375 0:0.0 1:0.0 2:0.0 3:0.0 4:0.0 5:0.0 6:0.0 7:0.0 8:0.0 9:0.0 10:0.0 11:0.0 
1.0 0:0.0 1:0.0 2:0.0 3:0.0 4:0.0 5:0.0 6:0.0 7:0.0 8:0.0 9:0.0 10:0.0 11:0.0 
-0.0712890625 0:2135.0 1:416.0 2:-731.0 3:983.0 4:-727.0 5:302.0 6:-46.0 7:-54.0 8:-449.0 9:136.0 10:-63.0 11:-67.0 
-0.0712890625 0:1825.0 1:-288.0 2:-1744.0 3:1451.0 4:-811.0 5:-53.0 6:-517.0 7:539.0 8:-433.0 9:211.0 10:-24.0 11:30.0 
-0.0712890625 0:1787.0 1:-256.0 2:-1742.0 3:1303.0 4:-832.0 5:-107.0 6:-565.0 7:521.0 8:-381.0 9:280.0 10:26.0 11:66.0 
-0.0712890625 0:1838.0 1:-186.0 2:-1744.0 3:1202.0 4:-845.0 5:-117.0 6:-621.0 7:474.0 8:-366.0 9:355.0 10:43.0 11:92.0 
-0.0712890625 0:1899.0 1:-102.0 2:-1771.0 3:1118.0 4:-832.0 5:-71.0 6:-641.0 7:464.0 8:-358.0 9:369.0 10:19.0 11:122.0 
-0.0712890625 0:1449.0 1:198.0 2:-766.0 3:1190.0 4:-1298.0 5:579.0 6:-51.0 7:-316.0 8:-41.0 9:-238.0 10:-132.0 11:90.0 
-0.0712890625 0:1384.0 1:190.0 2:-733.0 3:1187.0 4:-1264.0 5:634.0 6:-44.0 7:-342.0 8:-17.0 9:-222.0 10:-112.0 11:79.0 
-0.0712890625 0:1367.0 1:180.0 2:-717.0 3:1238.0 4:-1306.0 5:619.0 6:-29.0 7:-383.0 8:-27.0 9:-271.0 10:-134.0 11:81.0 
-0.0712890625 0:1392.0 1:109.0 2:-822.0 3:1267.0 4:-1290.0 5:539.0 6:-58.0 7:-330.0 8:-63.0 9:-271.0 10:-127.0 11:79.0 
-0.0712890625 0:718.0 1:-231.0 2:-1026.0 3:929.0 4:-1059.0 5:657.0 6:-23.0 7:-29.0 8:495.0 9:-189.0 10:270.0 11:-45.0 
-0.0712890625 0:828.0 1:-155.0 2:-982.0 3:976.0 4:-1046.0 5:661.0 6:-15.0 7:-16.0 8:456.0 9:-197.0 10:277.0 11:-37.0 
-0.0712890625 0:820.0 1:-174.0 2:-1050.0 3:1036.0 4:-981.0 5:660.0 6:10.0 7:-7.0 8:342.0 9:-188.0 10:243.0 11:-16.0 
-0.0712890625 0:881.0 1:-58.0 2:-1045.0 3:1009.0 4:-930.0 5:611.0 6:29.0 7:7.0 8:234.0 9:-131.0 10:199.0 11:19.0 
-0.0712890625 0:1861.0 1:321.0 2:-568.0 3:1134.0 4:-610.0 5:336.0 6:-310.0 7:-222.0 8:-106.0 9:-196.0 10:111.0 11:298.0 
-0.0712890625 0:1810.0 1:197.0 2:-596.0 3:1191.0 4:-719.0 5:357.0 6:-270.0 7:-236.0 8:25.0 9:-185.0 10:116.0 11:229.0 
-0.0712890625 0:1844.0 1:165.0 2:-642.0 3:1152.0 4:-762.0 5:444.0 6:-158.0 7:-191.0 8:86.0 9:-143.0 10:84.0 11:162.0 
-0.0712890625 0:1879.0 1:128.0 2:-685.0 3:1134.0 4:-834.0 5:501.0 6:-100.0 7:-184.0 8:143.0 9:-134.0 10:58.0 11:122.0 
-0.0712890625 0:1757.0 1:914.0 2:-467.0 3:1077.0 4:-504.0 5:526.0 6:-164.0 7:288.0 8:-35.0 9:168.0 10:9.0 11:182.0 
-0.0712890625 0:1907.0 1:992.0 2:-613.0 3:1153.0 4:-549.0 5:546.0 6:-201.0 7:308.0 8:-51.0 9:187.0 10:-13.0 11:166.0 
-0.0712890625 0:1866.0 1:1137.0 2:-518.0 3:1131.0 4:-509.0 5:565.0 6:-165.0 7:338.0 8:-29.0 9:190.0 10:-30.0 11:146.0 
-0.0712890625 0:1854.0 1:1202.0 2:-477.0 3:1172.0 4:-495.0 5:588.0 6:-144.0 7:360.0 8:3.0 9:185.0 10:-32.0 11:128.0 
-0.0712890625 0:2004.0 1:-116.0 2:-2017.0 3:1160.0 4:-228.0 5:95.0 6:-848.0 7:584.0 8:-54.0 9:-64.0 10:-118.0 11:280.0 
-0.0712890625 0:2097.0 1:5.0 2:-1926.0 3:1087.0 4:-271.0 5:38.0 6:-864.0 7:567.0 8:-58.0 9:-27.0 10:-98.0 11:293.0 
-0.0712890625 0:2263.0 1:132.0 2:-1898.0 3:1002.0 4:-330.0 5:12.0 6:-871.0 7:572.0 8:-42.0 9:4.0 10:-94.0 11:309.0 
-0.0712890625 0:2250.0 1:129.0 2:-1907.0 3:1000.0 4:-315.0 5:8.0 6:-893.0 7:564.0 8:-40.0 9:0.0 10:-101.0 11:321.0 
-0.0712890625 0:1053.0 1:-324.0 2:-1130.0 3:1331.0 4:-1416.0 5:690.0 6:-22.0 7:-321.0 8:83.0 9:-181.0 10:8.0 11:32.0 
-0.0712890625 0:989.0 1:-495.0 2:-1189.0 3:1346.0 4:-1520.0 5:664.0 6:-32.0 7:-396.0 8:95.0 9:-258.0 10:31.0 11:30.0 
-0.0712890625 0:1021.0 1:-397.0 2:-1197.0 3:1280.0 4:-1482.0 5:673.0 6:-44.0 7:-367.0 8:46.0 9:-248.0 10:23.0 11:26.0 
-0.0712890625 0:1048.0 1:-340.0 2:-1227.0 3:1246.0 4:-1469.0 5:662.0 6:-50.0 7:-350.0 8:27.0 9:-218.0 10:1.0 11:24.0 
-0.0712890625 0:1615.0 1:1153.0 2:-887.0 3:480.0 4:-856.0 5:380.0 6:-443.0 7:251.0 8:-155.0 9:19.0 10:-184.0 11:99.0 
-0.0712890625 0:1820.0 1:1285.0 2:-1080.0 3:456.0 4:-985.0 5:411.0 6:-516.0 7:290.0 8:-158.0 9:75.0 10:-231.0 11:111.0 
-0.0712890625 0:1595.0 1:1199.0 2:-922.0 3:562.0 4:-979.0 5:484.0 6:-431.0 7:303.0 8:-61.0 9:34.0 10:-152.0 11:138.0 
-0.0712890625 0:1547.0 1:1195.0 2:-841.0 3:629.0 4:-963.0 5:524.0 6:-408.0 7:281.0 8:-33.0 9:28.0 10:-137.0 11:143.0 
-0.0712890625 0:1164.0 1:246.0 2:-250.0 3:710.0 4:-517.0 5:264.0 6:-101.0 7:-112.0 8:166.0 9:-108.0 10:-68.0 11:52.0 
-0.0712890625 0:1344.0 1:227.0 2:-306.0 3:904.0 4:-711.0 5:237.0 6:-33.0 7:-67.0 8:105.0 9:-176.0 10:-41.0 11:17.0 
-0.0712890625 0:815.0 1:133.0 2:-185.0 3:654.0 4:-441.0 5:120.0 6:32.0 7:41.0 8:45.0 9:-127.0 10:-2.0 11:8.0 
-0.0712890625 0:913.0 1:114.0 2:-214.0 3:743.0 4:-575.0 5:111.0 6:82.0 7:33.0 8:-12.0 9:-159.0 10:43.0 11:-17.0 
-0.0712890625 0:1531.0 1:210.0 2:-928.0 3:1279.0 4:-646.0 5:566.0 6:-137.0 7:162.0 8:-64.0 9:56.0 10:-119.0 11:124.0 
-0.0712890625 0:1561.0 1:31.0 2:-920.0 3:1455.0 4:-764.0 5:571.0 6:-125.0 7:90.0 8:11.0 9:3.0 10:-61.0 11:132.0 
-0.0712890625 0:977.0 1:-29.0 2:-843.0 3:1201.0 4:-670.0 5:455.0 6:-91.0 7:83.0 8:-7.0 9:-10.0 10:-52.0 11:106.0 
-0.0712890625 0:761.0 1:-70.0 2:-829.0 3:1100.0 4:-632.0 5:402.0 6:-107.0 7:56.0 8:-2.0 9:-36.0 10:-45.0 11:82.0 
-0.0712890625 0:56.0 1:-1078.0 2:-817.0 3:1007.0 4:-1272.0 5:556.0 6:6.0 7:-399.0 8:766.0 9:-628.0 10:27.0 11:5.0 
-0.0712890625 0:42.0 1:-1068.0 2:-859.0 3:1040.0 4:-1272.0 5:565.0 6:-56.0 7:-407.0 8:785.0 9:-555.0 10:-36.0 11:-17.0 
-0.0712890625 0:8.0 1:-1028.0 2:-849.0 3:972.0 4:-1226.0 5:544.0 6:-53.0 7:-376.0 8:758.0 9:-584.0 10:-5.0 11:15.0 
-0.0712890625 0:10.0 1:-1007.0 2:-864.0 3:971.0 4:-1209.0 5:538.0 6:-79.0 7:-353.0 8:743.0 9:-561.0 10:-27.0 11:18.0 
-0.0712890625 0:2083.0 1:269.0 2:-1345.0 3:851.0 4:-309.0 5:94.0 6:-464.0 7:501.0 8:-199.0 9:-183.0 10:-106.0 11:264.0 
-0.0712890625 0:2127.0 1:232.0 2:-1440.0 3:839.0 4:-355.0 5:43.0 6:-556.0 7:475.0 8:-178.0 9:-133.0 10:-79.0 11:271.0 
-0.0712890625 0:2289.0 1:413.0 2:-1326.0 3:920.0 4:-218.0 5:70.0 6:-547.0 7:555.0 8:-139.0 9:-76.0 10:-64.0 11:268.0 
-0.0712890625 0:2312.0 1:377.0 2:-1359.0 3:1063.0 4:-122.0 5:110.0 6:-526.0 7:638.0 8:-90.0 9:-49.0 10:-23.0 11:278.0 
-0.0712890625 0:1747.0 1:682.0 2:-170.0 3:603.0 4:-360.0 5:562.0 6:40.0 7:90.0 8:117.0 9:60.0 10:123.0 11:174.0 
-0.0712890625 0:1684.0 1:730.0 2:-81.0 3:562.0 4:-322.0 5:567.0 6:59.0 7:87.0 8:136.0 9:54.0 10:146.0 11:182.0 
-0.0712890625 0:1562.0 1:854.0 2:85.0 3:484.0 4:-176.0 5:494.0 6:77.0 7:139.0 8:119.0 9:76.0 10:108.0 11:183.0 
-0.0712890625 0:1463.0 1:895.0 2:181.0 3:465.0 4:-79.0 5:459.0 6:105.0 7:168.0 8:105.0 9:90.0 10:91.0 11:187.0 
-0.0712890625 0:1874.0 1:998.0 2:-807.0 3:733.0 4:-852.0 5:578.0 6:-102.0 7:221.0 8:-86.0 9:199.0 10:-100.0 11:169.0 
-0.0712890625 0:1873.0 1:1013.0 2:-786.0 3:744.0 4:-827.0 5:606.0 6:-79.0 7:255.0 8:-64.0 9:204.0 10:-118.0 11:139.0 
-0.0712890625 0:1854.0 1:985.0 2:-798.0 3:764.0 4:-865.0 5:602.0 6:-84.0 7:235.0 8:-36.0 9:222.0 10:-85.0 11:164.0 
-0.0712890625 0:1938.0 1:1031.0 2:-819.0 3:749.0 4:-755.0 5:685.0 6:-27.0 7:306.0 8:-76.0 9:225.0 10:-138.0 11:134.0 
-0.0712890625 0:2453.0 1:987.0 2:-695.0 3:529.0 4:-568.0 5:555.0 6:-294.0 7:158.0 8:-194.0 9:12.0 10:-156.0 11:217.0 
-0.07144358046519927 0:2590.0 1:1083.0 2:-722.0 3:476.0 4:-491.0 5:539.0 6:-321.0 7:168.0 8:-250.0 9:29.0 10:-204.0 11:210.0 
-0.07144358046519927 0:2646.0 1:1130.0 2:-710.0 3:435.0 4:-460.0 5:524.0 6:-351.0 7:151.0 8:-248.0 9:38.0 10:-234.0 11:187.0 
-0.07216448992983371 0:2483.0 1:1080.0 2:-541.0 3:530.0 4:-488.0 5:491.0 6:-320.0 7:142.0 8:-144.0 9:21.0 10:-206.0 11:135.0 
-0.07216448992983371 0:48.0 1:-2350.0 2:447.0 3:-335.0 4:282.0 5:495.0 6:358.0 7:-240.0 8:232.0 9:14.0 10:-132.0 11:379.0 
-0.07216448992983371 0:199.0 1:-1719.0 2:446.0 3:-18.0 4:97.0 5:-159.0 6:360.0 7:-149.0 8:130.0 9:-65.0 10:242.0 11:40.0 
-0.07145739260742762 0:1310.0 1:89.0 2:-660.0 3:1555.0 4:-1088.0 5:416.0 6:-114.0 7:137.0 8:-37.0 9:-116.0 10:94.0 11:182.0 
-0.07216448992983376 0:1405.0 1:57.0 2:-753.0 3:1519.0 4:-1119.0 5:412.0 6:-126.0 7:198.0 8:-4.0 9:-143.0 10:84.0 11:157.0 
-0.072265625 0:1420.0 1:39.0 2:-783.0 3:1482.0 4:-1155.0 5:367.0 6:-100.0 7:235.0 8:-12.0 9:-167.0 10:89.0 11:146.0 
-0.072265625 0:1385.0 1:62.0 2:-729.0 3:1521.0 4:-1092.0 5:402.0 6:-96.0 7:222.0 8:-22.0 9:-178.0 10:71.0 11:129.0 
-0.072265625 0:2243.0 1:224.0 2:-1213.0 3:729.0 4:-609.0 5:476.0 6:-159.0 7:269.0 8:-53.0 9:117.0 10:-107.0 11:-24.0 
-0.072265625 0:2256.0 1:261.0 2:-1166.0 3:710.0 4:-643.0 5:460.0 6:-182.0 7:232.0 8:-57.0 9:124.0 10:-73.0 11:2.0 
-0.072265625 0:2234.0 1:308.0 2:-1067.0 3:694.0 4:-669.0 5:432.0 6:-262.0 7:168.0 8:-18.0 9:88.0 10:-50.0 11:25.0 
-0.072265625 0:2230.0 1:359.0 2:-868.0 3:783.0 4:-691.0 5:415.0 6:-346.0 7:13.0 8:13.0 9:39.0 10:36.0 11:97.0 
-0.072265625 0:2618.0 1:517.0 2:-1130.0 3:883.0 4:-553.0 5:201.0 6:-260.0 7:279.0 8:-646.0 9:47.0 10:-41.0 11:-23.0 
-0.072265625 0:2642.0 1:494.0 2:-1092.0 3:1036.0 4:-519.0 5:211.0 6:-195.0 7:375.0 8:-576.0 9:108.0 10:5.0 11:-60.0 
-0.0717150412092451 0:2501.0 1:600.0 2:-893.0 3:912.0 4:-424.0 5:224.0 6:-244.0 7:218.0 8:-568.0 9:152.0 10:51.0 11:-6.0 
-0.0717150412092451 0:2386.0 1:559.0 2:-804.0 3:974.0 4:-393.0 5:189.0 6:-216.0 7:251.0 8:-498.0 9:173.0 10:75.0 11:-38.0 
-0.07152706220793975 0:1484.0 1:726.0 2:-1076.0 3:596.0 4:-1277.0 5:349.0 6:-479.0 7:-89.0 8:-142.0 9:103.0 10:-265.0 11:44.0 
-0.07145739260742756 0:1512.0 1:679.0 2:-1090.0 3:616.0 4:-1266.0 5:323.0 6:-486.0 7:-105.0 8:-129.0 9:73.0 10:-270.0 11:16.0 
-0.0712890625 0:1828.0 1:642.0 2:-1026.0 3:817.0 4:-875.0 5:367.0 6:-471.0 7:21.0 8:-24.0 9:65.0 10:-217.0 11:83.0 
-0.07144358046519933 0:1943.0 1:593.0 2:-961.0 3:889.0 4:-695.0 5:392.0 6:-449.0 7:58.0 8:66.0 9:69.0 10:-152.0 11:126.0 
-0.0717150412092451 0:2556.0 1:706.0 2:-1241.0 3:590.0 4:-310.0 5:197.0 6:-689.0 7:199.0 8:-125.0 9:180.0 10:-203.0 11:218.0 
-0.07216448992983371 0:2573.0 1:789.0 2:-1136.0 3:568.0 4:-299.0 5:188.0 6:-644.0 7:237.0 8:-105.0 9:200.0 10:-204.0 11:210.0 
-0.07223151054531218 0:2538.0 1:851.0 2:-1002.0 3:568.0 4:-226.0 5:209.0 6:-577.0 7:267.0 8:-63.0 9:222.0 10:-202.0 11:185.0 
-0.07223151054531218 0:2475.0 1:853.0 2:-901.0 3:678.0 4:-138.0 5:246.0 6:-489.0 7:336.0 8:15.0 9:201.0 10:-222.0 11:145.0 
-0.0712890625 0:2782.0 1:1210.0 2:-624.0 3:547.0 4:152.0 5:715.0 6:-246.0 7:267.0 8:-81.0 9:343.0 10:-169.0 11:242.0 
-0.0712890625 0:2733.0 1:1199.0 2:-601.0 3:527.0 4:149.0 5:712.0 6:-224.0 7:266.0 8:-80.0 9:344.0 10:-152.0 11:246.0 
-0.07216448992983376 0:2756.0 1:1128.0 2:-637.0 3:657.0 4:257.0 5:751.0 6:-243.0 7:304.0 8:32.0 9:439.0 10:-100.0 11:258.0 
-0.0717150412092451 0:2786.0 1:1106.0 2:-684.0 3:666.0 4:243.0 5:751.0 6:-261.0 7:314.0 8:54.0 9:458.0 10:-92.0 11:264.0 
-0.07223151054531224 0:2811.0 1:1137.0 2:-1172.0 3:-181.0 4:-512.0 5:388.0 6:-455.0 7:164.0 8:-366.0 9:232.0 10:-308.0 11:179.0 
-0.0712890625 0:2786.0 1:1137.0 2:-1181.0 3:-257.0 4:-570.0 5:377.0 6:-443.0 7:140.0 8:-416.0 9:200.0 10:-314.0 11:189.0 
-0.0712890625 0:2813.0 1:1211.0 2:-1067.0 3:-165.0 4:-498.0 5:398.0 6:-416.0 7:167.0 8:-368.0 9:226.0 10:-309.0 11:158.0 
-0.0712890625 0:2784.0 1:1310.0 2:-929.0 3:-196.0 4:-568.0 5:343.0 6:-396.0 7:152.0 8:-403.0 9:186.0 10:-314.0 11:149.0 
-0.0712890625 0:1124.0 1:97.0 2:-1147.0 3:1179.0 4:-1248.0 5:585.0 6:-375.0 7:-231.0 8:33.0 9:-108.0 10:-6.0 11:2.0 
-0.0712890625 0:980.0 1:31.0 2:-1100.0 3:1064.0 4:-1259.0 5:617.0 6:-401.0 7:-234.0 8:81.0 9:-187.0 10:39.0 11:-16.0 
-0.0712890625 0:813.0 1:-197.0 2:-972.0 3:1045.0 4:-1309.0 5:751.0 6:-401.0 7:-278.0 8:246.0 9:-371.0 10:158.0 11:-56.0 
-0.0712890625 0:628.0 1:-457.0 2:-837.0 3:1136.0 4:-1316.0 5:898.0 6:-340.0 7:-326.0 8:426.0 9:-517.0 10:297.0 11:-83.0 
-0.0712890625 0:1938.0 1:1105.0 2:-818.0 3:936.0 4:-215.0 5:380.0 6:-388.0 7:533.0 8:-337.0 9:76.0 10:-268.0 11:299.0 
-0.0712890625 0:1793.0 1:1081.0 2:-857.0 3:1023.0 4:-207.0 5:404.0 6:-374.0 7:581.0 8:-359.0 9:55.0 10:-266.0 11:345.0 
-0.0712890625 0:1950.0 1:1294.0 2:-752.0 3:873.0 4:-247.0 5:453.0 6:-344.0 7:546.0 8:-382.0 9:64.0 10:-305.0 11:336.0 
-0.0712890625 0:1885.0 1:1429.0 2:-624.0 3:820.0 4:-252.0 5:499.0 6:-318.0 7:524.0 8:-414.0 9:77.0 10:-327.0 11:343.0 
-0.0712890625 0:1871.0 1:851.0 2:-849.0 3:1129.0 4:-931.0 5:562.0 6:-307.0 7:-105.0 8:-195.0 9:57.0 10:19.0 11:74.0 
-0.0712890625 0:1763.0 1:770.0 2:-825.0 3:1160.0 4:-956.0 5:592.0 6:-299.0 7:-96.0 8:-137.0 9:26.0 10:58.0 11:66.0 
-0.0712890625 0:1483.0 1:509.0 2:-1001.0 3:1205.0 4:-984.0 5:463.0 6:-267.0 7:99.0 8:-114.0 9:64.0 10:101.0 11:44.0 
-0.0712890625 0:1295.0 1:392.0 2:-1029.0 3:1192.0 4:-966.0 5:420.0 6:-221.0 7:223.0 8:-87.0 9:49.0 10:113.0 11:32.0 
-0.0712890625 0:2598.0 1:-750.0 2:-1200.0 3:123.0 4:222.0 5:-332.0 6:-153.0 7:307.0 8:11.0 9:-318.0 10:-93.0 11:225.0 
-0.0712890625 0:210.0 1:-905.0 2:-1486.0 3:582.0 4:-777.0 5:814.0 6:365.0 7:329.0 8:36.0 9:-368.0 10:-387.0 11:91.0 
-0.0712890625 0:200.0 1:-1025.0 2:-1510.0 3:612.0 4:-823.0 5:716.0 6:350.0 7:384.0 8:42.0 9:-352.0 10:-378.0 11:40.0 
-0.0712890625 0:235.0 1:-907.0 2:-1461.0 3:580.0 4:-767.0 5:794.0 6:367.0 7:336.0 8:40.0 9:-377.0 10:-336.0 11:126.0 
-0.0712890625 0:212.0 1:-831.0 2:-1386.0 3:540.0 4:-724.0 5:803.0 6:375.0 7:321.0 8:41.0 9:-361.0 10:-335.0 11:135.0 
-0.0712890625 0:1601.0 1:63.0 2:-454.0 3:945.0 4:-809.0 5:720.0 6:-148.0 7:-165.0 8:282.0 9:-296.0 10:194.0 11:0.0 
-0.0712890625 0:1696.0 1:141.0 2:-446.0 3:913.0 4:-824.0 5:671.0 6:-200.0 7:-189.0 8:224.0 9:-288.0 10:169.0 11:11.0 
-0.0712890625 0:1640.0 1:50.0 2:-493.0 3:903.0 4:-878.0 5:705.0 6:-182.0 7:-173.0 8:287.0 9:-303.0 10:192.0 11:0.0 
-0.0712890625 0:1675.0 1:82.0 2:-503.0 3:878.0 4:-885.0 5:684.0 6:-196.0 7:-180.0 8:261.0 9:-294.0 10:183.0 11:9.0 
-0.0712890625 0:2708.0 1:701.0 2:-1361.0 3:456.0 4:-316.0 5:227.0 6:-610.0 7:233.0 8:-459.0 9:-15.0 10:-226.0 11:254.0 
-0.0712890625 0:2739.0 1:705.0 2:-1374.0 3:466.0 4:-378.0 5:187.0 6:-622.0 7:257.0 8:-430.0 9:32.0 10:-176.0 11:262.0 
-0.0712890625 0:2691.0 1:682.0 2:-1373.0 3:490.0 4:-370.0 5:163.0 6:-637.0 7:266.0 8:-403.0 9:49.0 10:-130.0 11:303.0 
-0.0712890625 0:2651.0 1:703.0 2:-1331.0 3:475.0 4:-359.0 5:170.0 6:-628.0 7:247.0 8:-407.0 9:61.0 10:-90.0 11:345.0 
-0.0712890625 0:2151.0 1:1156.0 2:-529.0 3:900.0 4:-477.0 5:269.0 6:-331.0 7:333.0 8:-483.0 9:261.0 10:-84.0 11:130.0 
-0.0712890625 0:2127.0 1:1345.0 2:-311.0 3:618.0 4:-537.0 5:141.0 6:-428.0 7:171.0 8:-476.0 9:214.0 10:-120.0 11:155.0 
-0.0712890625 0:2229.0 1:1285.0 2:-504.0 3:665.0 4:-567.0 5:168.0 6:-419.0 7:238.0 8:-481.0 9:222.0 10:-139.0 11:125.0 
-0.0712890625 0:2139.0 1:1057.0 2:-715.0 3:870.0 4:-532.0 5:208.0 6:-373.0 7:384.0 8:-439.0 9:250.0 10:-142.0 11:55.0 
-0.0712890625 0:2003.0 1:862.0 2:-1330.0 3:495.0 4:-496.0 5:228.0 6:-729.0 7:202.0 8:-514.0 9:134.0 10:-444.0 11:11.0 
-0.0712890625 0:1909.0 1:870.0 2:-1264.0 3:471.0 4:-493.0 5:199.0 6:-780.0 7:99.0 8:-603.0 9:28.0 10:-575.0 11:-103.0 
-0.0712890625 0:2034.0 1:901.0 2:-1269.0 3:535.0 4:-452.0 5:277.0 6:-681.0 7:242.0 8:-500.0 9:125.0 10:-475.0 11:-17.0 
-0.0712890625 0:2219.0 1:984.0 2:-1216.0 3:674.0 4:-361.0 5:408.0 6:-531.0 7:411.0 8:-382.0 9:212.0 10:-439.0 11:-65.0 
-0.07216448992983371 0:1697.0 1:335.0 2:-532.0 3:1366.0 4:-878.0 5:386.0 6:64.0 7:-62.0 8:-189.0 9:242.0 10:20.0 11:-115.0 
-0.07216448992983371 0:1768.0 1:330.0 2:-588.0 3:1386.0 4:-889.0 5:405.0 6:62.0 7:-62.0 8:-190.0 9:238.0 10:11.0 11:-125.0 
-0.07223151054531218 0:1728.0 1:355.0 2:-522.0 3:1349.0 4:-833.0 5:413.0 6:55.0 7:-62.0 8:-161.0 9:236.0 10:16.0 11:-106.0 
-0.0712890625 0:1777.0 1:337.0 2:-619.0 3:1261.0 4:-825.0 5:412.0 6:24.0 7:-49.0 8:-179.0 9:218.0 10:-1.0 11:-86.0 
-0.0712890625 0:336.0 1:271.0 2:-757.0 3:926.0 4:-828.0 5:769.0 6:-277.0 7:-91.0 8:116.0 9:-228.0 10:82.0 11:74.0 
-0.0712890625 0:126.0 1:269.0 2:-686.0 3:892.0 4:-784.0 5:630.0 6:-170.0 7:-63.0 8:5.0 9:-126.0 10:49.0 11:41.0 
-0.0712890625 0:-63.0 1:152.0 2:-748.0 3:996.0 4:-563.0 5:636.0 6:46.0 7:13.0 8:-94.0 9:72.0 10:19.0 11:-3.0 
-0.0712890625 0:-28.0 1:162.0 2:-781.0 3:973.0 4:-537.0 5:635.0 6:42.0 7:23.0 8:-106.0 9:106.0 10:31.0 11:-27.0 
-0.0712890625 0:1884.0 1:482.0 2:-1091.0 3:808.0 4:-1127.0 5:-40.0 6:-527.0 7:202.0 8:-268.0 9:270.0 10:30.0 11:311.0 
-0.0712890625 0:1912.0 1:453.0 2:-1154.0 3:781.0 4:-1108.0 5:-71.0 6:-546.0 7:242.0 8:-280.0 9:240.0 10:15.0 11:312.0 
-0.0712890625 0:1953.0 1:506.0 2:-1148.0 3:743.0 4:-1110.0 5:-38.0 6:-547.0 7:220.0 8:-269.0 9:269.0 10:0.0 11:302.0 
-0.0712890625 0:1956.0 1:491.0 2:-1185.0 3:734.0 4:-1098.0 5:-33.0 6:-547.0 7:230.0 8:-259.0 9:262.0 10:-6.0 11:302.0 
-0.0712890625 0:879.0 1:619.0 2:-570.0 3:1051.0 4:-902.0 5:904.0 6:-408.0 7:0.0 8:366.0 9:-416.0 10:52.0 11:216.0 
-0.0712890625 0:828.0 1:603.0 2:-557.0 3:1008.0 4:-928.0 5:943.0 6:-384.0 7:-2.0 8:402.0 9:-443.0 10:71.0 11:221.0 
-0.0712890625 0:759.0 1:574.0 2:-545.0 3:988.0 4:-941.0 5:957.0 6:-377.0 7:-18.0 8:432.0 9:-482.0 10:108.0 11:225.0 
-0.0712890625 0:709.0 1:503.0 2:-546.0 3:999.0 4:-964.0 5:995.0 6:-377.0 7:-56.0 8:471.0 9:-520.0 10:130.0 11:206.0 
-0.0712890625 0:1703.0 1:-103.0 2:-1384.0 3:1126.0 4:-903.0 5:761.0 6:158.0 7:-205.0 8:-29.0 9:63.0 10:45.0 11:-113.0 
-0.0712890625 0:1780.0 1:-12.0 2:-1348.0 3:1077.0 4:-929.0 5:740.0 6:236.0 7:-93.0 8:-90.0 9:16.0 10:0.0 11:-83.0 
-0.0712890625 0:1779.0 1:60.0 2:-1169.0 3:1196.0 4:-945.0 5:646.0 6:207.0 7:-65.0 8:-36.0 9:47.0 10:16.0 11:-95.0 
-0.0712890625 0:1778.0 1:92.0 2:-1093.0 3:1247.0 4:-1006.0 5:590.0 6:219.0 7:-36.0 8:-12.0 9:44.0 10:21.0 11:-96.0 
-0.0712890625 0:1480.0 1:-238.0 2:-1384.0 3:1276.0 4:-657.0 5:779.0 6:14.0 7:-337.0 8:-53.0 9:215.0 10:128.0 11:-80.0 
-0.0712890625 0:1550.0 1:-85.0 2:-1249.0 3:1269.0 4:-456.0 5:786.0 6:5.0 7:-245.0 8:-112.0 9:281.0 10:142.0 11:-70.0 
-0.072265625 0:1695.0 1:31.0 2:-1161.0 3:1295.0 4:-397.0 5:775.0 6:16.0 7:-194.0 8:-152.0 9:254.0 10:102.0 11:-90.0 
-0.072265625 0:1779.0 1:101.0 2:-1102.0 3:1340.0 4:-329.0 5:776.0 6:2.0 7:-175.0 8:-162.0 9:257.0 10:59.0 11:-118.0 
-0.04604610577383106 0:1240.0 1:1139.0 2:6.0 3:181.0 4:-687.0 5:-395.0 6:-985.0 7:-566.0 8:-899.0 9:-300.0 10:-416.0 11:196.0 
-0.023909920346475044 0:1240.0 1:1139.0 2:6.0 3:180.0 4:-687.0 5:-395.0 6:-985.0 7:-566.0 8:-899.0 9:-300.0 10:-416.0 11:196.0 
-0.06691925860440212 0:1237.0 1:1138.0 2:6.0 3:178.0 4:-686.0 5:-394.0 6:-983.0 7:-564.0 8:-898.0 9:-300.0 10:-415.0 11:197.0 
-0.072265625 0:2049.0 1:-112.0 2:-1358.0 3:908.0 4:-901.0 5:304.0 6:-75.0 7:32.0 8:-400.0 9:285.0 10:15.0 11:-81.0 
-0.072265625 0:2132.0 1:123.0 2:-1109.0 3:935.0 4:-857.0 5:289.0 6:-77.0 7:-7.0 8:-412.0 9:238.0 10:-11.0 11:-68.0 
-0.072265625 0:2128.0 1:228.0 2:-954.0 3:984.0 4:-779.0 5:305.0 6:-58.0 7:-17.0 8:-422.0 9:192.0 10:-27.0 11:-70.0 
