svm_type c_svc
kernel_type rbf
gamma 0.09090909090909091
nr_class 2
total_sv 14268
rho 0.460170211002627
label 1 0
nr_sv 4912 9356
SV
1.0 0:2242.0 1:430.0 2:-919.0 3:690.0 4:-805.0 5:351.0 6:-338.0 7:-133.0 8:-106.0 9:49.0 10:-44.0 11:178.0 
1.0 0:2211.0 1:439.0 2:-904.0 3:660.0 4:-775.0 5:333.0 6:-336.0 7:-124.0 8:-119.0 9:58.0 10:-49.0 11:180.0 
1.0 0:2372.0 1:533.0 2:-927.0 3:635.0 4:-766.0 5:368.0 6:-337.0 7:-95.0 8:-130.0 9:61.0 10:-89.0 11:163.0 
1.0 0:2364.0 1:532.0 2:-924.0 3:632.0 4:-763.0 5:366.0 6:-336.0 7:-95.0 8:-130.0 9:61.0 10:-89.0 11:162.0 
0.5698254695861492 0:2371.0 1:533.0 2:-927.0 3:635.0 4:-765.0 5:368.0 6:-337.0 7:-95.0 8:-130.0 9:62.0 10:-90.0 11:163.0 
1.0 0:2073.0 1:482.0 2:-809.0 3:544.0 4:-677.0 5:299.0 6:-304.0 7:-93.0 8:-126.0 9:51.0 10:-73.0 11:143.0 
1.0 0:2369.0 1:534.0 2:-926.0 3:633.0 4:-763.0 5:367.0 6:-337.0 7:-94.0 8:-131.0 9:63.0 10:-90.0 11:163.0 
1.0 0:2364.0 1:535.0 2:-924.0 3:628.0 4:-758.0 5:363.0 6:-336.0 7:-93.0 8:-133.0 9:65.0 10:-91.0 11:164.0 
1.0 0:2342.0 1:542.0 2:-913.0 3:607.0 4:-737.0 5:351.0 6:-334.0 7:-87.0 8:-141.0 9:71.0 10:-94.0 11:165.0 
1.0 0:2387.0 1:531.0 2:-920.0 3:670.0 4:-771.0 5:394.0 6:-312.0 7:-101.0 8:-126.0 9:56.0 10:-98.0 11:140.0 
1.0 0:2377.0 1:530.0 2:-915.0 3:665.0 4:-768.0 5:391.0 6:-311.0 7:-100.0 8:-127.0 9:56.0 10:-97.0 11:139.0 
0.5704821817820498 0:2386.0 1:531.0 2:-920.0 3:669.0 4:-771.0 5:393.0 6:-312.0 7:-101.0 8:-127.0 9:56.0 10:-98.0 11:140.0 
1.0 0:2029.0 1:478.0 2:-775.0 3:552.0 4:-658.0 5:308.0 6:-273.0 7:-94.0 8:-126.0 9:43.0 10:-76.0 11:118.0 
1.0 0:2384.0 1:532.0 2:-919.0 3:667.0 4:-769.0 5:392.0 6:-312.0 7:-100.0 8:-128.0 9:57.0 10:-98.0 11:140.0 
1.0 0:2378.0 1:534.0 2:-916.0 3:662.0 4:-763.0 5:388.0 6:-311.0 7:-98.0 8:-130.0 9:60.0 10:-100.0 11:141.0 
1.0 0:2358.0 1:540.0 2:-907.0 3:643.0 4:-744.0 5:377.0 6:-309.0 7:-93.0 8:-138.0 9:66.0 10:-103.0 11:142.0 
1.0 0:2396.0 1:559.0 2:-885.0 3:654.0 4:-771.0 5:416.0 6:-291.0 7:-107.0 8:-110.0 9:26.0 10:-93.0 11:150.0 
1.0 0:2391.0 1:558.0 2:-882.0 3:652.0 4:-770.0 5:414.0 6:-291.0 7:-107.0 8:-110.0 9:26.0 10:-93.0 11:150.0 
0.5421580895406188 0:2395.0 1:559.0 2:-885.0 3:654.0 4:-771.0 5:415.0 6:-291.0 7:-107.0 8:-110.0 9:27.0 10:-93.0 11:151.0 
1.0 0:2088.0 1:507.0 2:-762.0 3:556.0 4:-671.0 5:341.0 6:-260.0 7:-99.0 8:-109.0 9:15.0 10:-74.0 11:130.0 
1.0 0:2393.0 1:560.0 2:-884.0 3:652.0 4:-769.0 5:414.0 6:-291.0 7:-106.0 8:-111.0 9:28.0 10:-94.0 11:151.0 
1.0 0:2387.0 1:562.0 2:-881.0 3:646.0 4:-763.0 5:410.0 6:-290.0 7:-104.0 8:-114.0 9:30.0 10:-95.0 11:151.0 
1.0 0:2363.0 1:569.0 2:-870.0 3:624.0 4:-740.0 5:396.0 6:-288.0 7:-98.0 8:-123.0 9:37.0 10:-99.0 11:153.0 
0.022619155308805677 0:1459.0 1:319.0 2:-851.0 3:1051.0 4:-997.0 5:567.0 6:-376.0 7:4.0 8:33.0 9:-51.0 10:72.0 11:155.0 
1.0 0:1432.0 1:319.0 2:-843.0 3:1037.0 4:-985.0 5:559.0 6:-372.0 7:4.0 8:29.0 9:-47.0 10:72.0 11:156.0 
0.9961669909328339 0:1459.0 1:319.0 2:-851.0 3:1051.0 4:-997.0 5:567.0 6:-376.0 7:4.0 8:33.0 9:-51.0 10:72.0 11:155.0 
1.0 0:1381.0 1:319.0 2:-828.0 3:1015.0 4:-961.0 5:546.0 6:-364.0 7:2.0 8:27.0 9:-43.0 10:71.0 11:156.0 
1.0 0:1458.0 1:320.0 2:-851.0 3:1050.0 4:-996.0 5:566.0 6:-376.0 7:4.0 8:32.0 9:-50.0 10:71.0 11:156.0 
1.0 0:1454.0 1:321.0 2:-849.0 3:1046.0 4:-992.0 5:563.0 6:-375.0 7:5.0 8:30.0 9:-48.0 10:70.0 11:156.0 
1.0 0:1432.0 1:329.0 2:-842.0 3:1028.0 4:-971.0 5:547.0 6:-369.0 7:8.0 8:21.0 9:-39.0 10:63.0 11:159.0 
0.7632621157325596 0:1455.0 1:354.0 2:-857.0 3:968.0 4:-1014.0 5:563.0 6:-399.0 7:-16.0 8:61.0 9:-75.0 10:73.0 11:155.0 
1.0 0:1430.0 1:354.0 2:-849.0 3:955.0 4:-1003.0 5:556.0 6:-395.0 7:-16.0 8:58.0 9:-72.0 10:74.0 11:155.0 
0.20222836700746077 0:1455.0 1:355.0 2:-857.0 3:968.0 4:-1014.0 5:563.0 6:-399.0 7:-16.0 8:61.0 9:-75.0 10:73.0 11:155.0 
1.0 0:1378.0 1:354.0 2:-834.0 3:933.0 4:-979.0 5:542.0 6:-386.0 7:-19.0 8:56.0 9:-68.0 10:72.0 11:155.0 
0.8829662813987393 0:1454.0 1:355.0 2:-856.0 3:967.0 4:-1013.0 5:563.0 6:-398.0 7:-16.0 8:61.0 9:-75.0 10:73.0 11:155.0 
1.0 0:1451.0 1:356.0 2:-855.0 3:964.0 4:-1009.0 5:560.0 6:-398.0 7:-15.0 8:59.0 9:-73.0 10:72.0 11:155.0 
1.0 0:1432.0 1:363.0 2:-848.0 3:947.0 4:-990.0 5:546.0 6:-392.0 7:-11.0 8:50.0 9:-64.0 10:65.0 11:158.0 
1.0 0:1422.0 1:411.0 2:-866.0 3:876.0 4:-983.0 5:568.0 6:-397.0 7:-17.0 8:63.0 9:-81.0 10:88.0 11:168.0 
0.985219592927829 0:1455.0 1:412.0 2:-876.0 3:892.0 4:-997.0 5:578.0 6:-401.0 7:-17.0 8:66.0 9:-85.0 10:88.0 11:166.0 
1.0 0:1354.0 1:411.0 2:-845.0 3:844.0 4:-951.0 5:547.0 6:-388.0 7:-21.0 8:58.0 9:-73.0 10:87.0 11:167.0 
0.9821063958478972 0:1454.0 1:413.0 2:-875.0 3:891.0 4:-996.0 5:577.0 6:-401.0 7:-17.0 8:66.0 9:-84.0 10:88.0 11:167.0 
1.0 0:1450.0 1:414.0 2:-874.0 3:888.0 4:-992.0 5:574.0 6:-400.0 7:-16.0 8:64.0 9:-82.0 10:86.0 11:167.0 
1.0 0:1433.0 1:421.0 2:-868.0 3:873.0 4:-975.0 5:561.0 6:-394.0 7:-13.0 8:56.0 9:-74.0 10:80.0 11:170.0 
0.7626667820764254 0:1506.0 1:486.0 2:-899.0 3:840.0 4:-1010.0 5:584.0 6:-385.0 7:-8.0 8:31.0 9:-90.0 10:60.0 11:189.0 
1.0 0:1431.0 1:477.0 2:-878.0 3:815.0 4:-977.0 5:563.0 6:-381.0 7:-14.0 8:28.0 9:-82.0 10:64.0 11:187.0 
0.20647663910799485 0:1506.0 1:486.0 2:-899.0 3:840.0 4:-1010.0 5:584.0 6:-385.0 7:-8.0 8:31.0 9:-90.0 10:60.0 11:190.0 
1.0 0:1344.0 1:470.0 2:-849.0 3:779.0 4:-941.0 5:540.0 6:-375.0 7:-18.0 8:29.0 9:-76.0 10:68.0 11:187.0 
0.8768311263025513 0:1505.0 1:486.0 2:-899.0 3:839.0 4:-1009.0 5:584.0 6:-385.0 7:-8.0 8:30.0 9:-89.0 10:60.0 11:190.0 
1.0 0:1502.0 1:487.0 2:-898.0 3:836.0 4:-1005.0 5:581.0 6:-384.0 7:-7.0 8:29.0 9:-88.0 10:59.0 11:190.0 
1.0 0:1485.0 1:494.0 2:-892.0 3:822.0 4:-989.0 5:568.0 6:-379.0 7:-4.0 8:21.0 9:-80.0 10:53.0 11:193.0 
0.7830852390588668 0:1490.0 1:517.0 2:-887.0 3:799.0 4:-974.0 5:604.0 6:-384.0 7:-8.0 8:1.0 9:-98.0 10:29.0 11:230.0 
1.0 0:1420.0 1:507.0 2:-867.0 3:777.0 4:-945.0 5:584.0 6:-380.0 7:-15.0 8:0.0 9:-91.0 10:32.0 11:227.0 
0.1950148023083543 0:1490.0 1:517.0 2:-887.0 3:799.0 4:-974.0 5:603.0 6:-384.0 7:-8.0 8:1.0 9:-98.0 10:29.0 11:230.0 
1.0 0:1329.0 1:497.0 2:-843.0 3:743.0 4:-910.0 5:557.0 6:-378.0 7:-19.0 8:1.0 9:-86.0 10:39.0 11:224.0 
0.772958714021223 0:1489.0 1:517.0 2:-887.0 3:799.0 4:-973.0 5:603.0 6:-384.0 7:-8.0 8:1.0 9:-97.0 10:28.0 11:230.0 
1.0 0:1487.0 1:518.0 2:-886.0 3:796.0 4:-970.0 5:601.0 6:-383.0 7:-7.0 8:0.0 9:-96.0 10:28.0 11:230.0 
1.0 0:1472.0 1:523.0 2:-880.0 3:783.0 4:-956.0 5:590.0 6:-379.0 7:-4.0 8:-6.0 9:-90.0 10:23.0 11:232.0 
1.0 0:2413.0 1:976.0 2:-1028.0 3:-126.0 4:-629.0 5:531.0 6:-156.0 7:139.0 8:-527.0 9:49.0 10:-58.0 11:495.0 
1.0 0:2410.0 1:976.0 2:-1027.0 3:-127.0 4:-627.0 5:531.0 6:-155.0 7:139.0 8:-527.0 9:50.0 10:-58.0 11:495.0 
0.5373331618861983 0:2408.0 1:976.0 2:-1026.0 3:-129.0 4:-626.0 5:529.0 6:-155.0 7:139.0 8:-527.0 9:50.0 10:-58.0 11:495.0 
1.0 0:2406.0 1:976.0 2:-1025.0 3:-129.0 4:-626.0 5:529.0 6:-155.0 7:139.0 8:-527.0 9:50.0 10:-58.0 11:495.0 
1.0 0:2391.0 1:976.0 2:-1017.0 3:-138.0 4:-618.0 5:524.0 6:-153.0 7:138.0 8:-528.0 9:51.0 10:-58.0 11:494.0 
1.0 0:2355.0 1:973.0 2:-1000.0 3:-151.0 4:-607.0 5:515.0 6:-148.0 7:136.0 8:-526.0 9:52.0 10:-58.0 11:491.0 
1.0 0:2273.0 1:957.0 2:-960.0 3:-175.0 4:-583.0 5:492.0 6:-138.0 7:129.0 8:-518.0 9:52.0 10:-57.0 11:483.0 
1.0 0:2386.0 1:974.0 2:-1019.0 3:-139.0 4:-625.0 5:530.0 6:-147.0 7:140.0 8:-531.0 9:46.0 10:-59.0 11:492.0 
0.9908935255670227 0:2383.0 1:974.0 2:-1018.0 3:-141.0 4:-624.0 5:530.0 6:-147.0 7:140.0 8:-531.0 9:47.0 10:-59.0 11:492.0 
0.42144298913388545 0:2381.0 1:974.0 2:-1016.0 3:-142.0 4:-623.0 5:529.0 6:-146.0 7:140.0 8:-531.0 9:47.0 10:-59.0 11:492.0 
1.0 0:2380.0 1:974.0 2:-1016.0 3:-143.0 4:-622.0 5:528.0 6:-146.0 7:140.0 8:-531.0 9:47.0 10:-59.0 11:492.0 
1.0 0:2364.0 1:974.0 2:-1008.0 3:-151.0 4:-616.0 5:524.0 6:-144.0 7:139.0 8:-532.0 9:48.0 10:-59.0 11:491.0 
1.0 0:2329.0 1:971.0 2:-990.0 3:-165.0 4:-604.0 5:514.0 6:-139.0 7:136.0 8:-531.0 9:49.0 10:-59.0 11:489.0 
1.0 0:2243.0 1:956.0 2:-949.0 3:-191.0 4:-578.0 5:490.0 6:-129.0 7:130.0 8:-524.0 9:49.0 10:-58.0 11:481.0 
1.0 0:2468.0 1:1024.0 2:-1031.0 3:-141.0 4:-640.0 5:568.0 6:-125.0 7:157.0 8:-548.0 9:33.0 10:-74.0 11:496.0 
1.0 0:2465.0 1:1025.0 2:-1029.0 3:-143.0 4:-638.0 5:567.0 6:-125.0 7:157.0 8:-548.0 9:33.0 10:-74.0 11:496.0 
0.7204037875828142 0:2463.0 1:1025.0 2:-1028.0 3:-144.0 4:-637.0 5:566.0 6:-124.0 7:157.0 8:-549.0 9:34.0 10:-74.0 11:496.0 
1.0 0:2461.0 1:1025.0 2:-1027.0 3:-146.0 4:-636.0 5:566.0 6:-124.0 7:157.0 8:-549.0 9:34.0 10:-75.0 11:496.0 
1.0 0:2445.0 1:1025.0 2:-1019.0 3:-154.0 4:-628.0 5:560.0 6:-122.0 7:157.0 8:-550.0 9:35.0 10:-75.0 11:495.0 
1.0 0:2407.0 1:1022.0 2:-1000.0 3:-170.0 4:-615.0 5:550.0 6:-117.0 7:154.0 8:-549.0 9:37.0 10:-75.0 11:493.0 
1.0 0:2317.0 1:1007.0 2:-956.0 3:-199.0 4:-586.0 5:525.0 6:-106.0 7:147.0 8:-542.0 9:38.0 10:-74.0 11:485.0 
1.0 0:2531.0 1:1105.0 2:-1023.0 3:-178.0 4:-612.0 5:610.0 6:-82.0 7:200.0 8:-574.0 9:34.0 10:-91.0 11:508.0 
1.0 0:2528.0 1:1106.0 2:-1022.0 3:-180.0 4:-610.0 5:609.0 6:-82.0 7:200.0 8:-574.0 9:35.0 10:-92.0 11:508.0 
0.6158871547876886 0:2525.0 1:1106.0 2:-1020.0 3:-182.0 4:-609.0 5:608.0 6:-81.0 7:200.0 8:-575.0 9:35.0 10:-92.0 11:508.0 
1.0 0:2524.0 1:1106.0 2:-1020.0 3:-183.0 4:-608.0 5:607.0 6:-81.0 7:200.0 8:-575.0 9:35.0 10:-92.0 11:508.0 
1.0 0:2506.0 1:1107.0 2:-1010.0 3:-193.0 4:-600.0 5:602.0 6:-79.0 7:199.0 8:-575.0 9:37.0 10:-92.0 11:507.0 
1.0 0:2463.0 1:1104.0 2:-989.0 3:-212.0 4:-584.0 5:591.0 6:-73.0 7:196.0 8:-574.0 9:38.0 10:-93.0 11:505.0 
1.0 0:2357.0 1:1088.0 2:-935.0 3:-247.0 4:-554.0 5:565.0 6:-60.0 7:186.0 8:-564.0 9:37.0 10:-91.0 11:495.0 
1.0 0:2578.0 1:1152.0 2:-1003.0 3:-167.0 4:-578.0 5:652.0 6:-52.0 7:214.0 8:-585.0 9:40.0 10:-79.0 11:522.0 
1.0 0:2575.0 1:1152.0 2:-1002.0 3:-169.0 4:-576.0 5:651.0 6:-52.0 7:214.0 8:-586.0 9:41.0 10:-79.0 11:522.0 
0.782391942587757 0:2573.0 1:1152.0 2:-1001.0 3:-171.0 4:-575.0 5:650.0 6:-51.0 7:215.0 8:-586.0 9:41.0 10:-79.0 11:522.0 
1.0 0:2571.0 1:1153.0 2:-1000.0 3:-172.0 4:-574.0 5:649.0 6:-51.0 7:214.0 8:-586.0 9:41.0 10:-80.0 11:522.0 
1.0 0:2556.0 1:1153.0 2:-992.0 3:-180.0 4:-567.0 5:644.0 6:-49.0 7:214.0 8:-587.0 9:43.0 10:-80.0 11:522.0 
1.0 0:2520.0 1:1151.0 2:-974.0 3:-197.0 4:-553.0 5:634.0 6:-44.0 7:212.0 8:-586.0 9:45.0 10:-80.0 11:520.0 
1.0 0:2429.0 1:1139.0 2:-929.0 3:-230.0 4:-524.0 5:611.0 6:-34.0 7:203.0 8:-579.0 9:45.0 10:-79.0 11:512.0 
1.0 0:1672.0 1:422.0 2:-843.0 3:790.0 4:-934.0 5:328.0 6:-264.0 7:17.0 8:-152.0 9:123.0 10:82.0 11:292.0 
0.9384575846802063 0:1670.0 1:422.0 2:-842.0 3:789.0 4:-932.0 5:327.0 6:-263.0 7:17.0 8:-153.0 9:123.0 10:81.0 11:292.0 
0.4231446251968745 0:1669.0 1:423.0 2:-842.0 3:787.0 4:-930.0 5:326.0 6:-263.0 7:18.0 8:-154.0 9:124.0 10:81.0 11:292.0 
1.0 0:1668.0 1:423.0 2:-841.0 3:786.0 4:-930.0 5:326.0 6:-263.0 7:18.0 8:-154.0 9:124.0 10:81.0 11:292.0 
1.0 0:1658.0 1:427.0 2:-837.0 3:777.0 4:-920.0 5:319.0 6:-261.0 7:20.0 8:-158.0 9:128.0 10:78.0 11:293.0 
1.0 0:1634.0 1:434.0 2:-827.0 3:755.0 4:-897.0 5:305.0 6:-258.0 7:26.0 8:-167.0 9:135.0 10:74.0 11:296.0 
1.0 0:1564.0 1:455.0 2:-795.0 3:692.0 4:-834.0 5:266.0 6:-252.0 7:42.0 8:-189.0 9:152.0 10:66.0 11:301.0 
1.0 0:1650.0 1:464.0 2:-914.0 3:791.0 4:-957.0 5:360.0 6:-288.0 7:50.0 8:-179.0 9:171.0 10:79.0 11:324.0 
0.12836663330202405 0:1649.0 1:465.0 2:-914.0 3:790.0 4:-956.0 5:360.0 6:-288.0 7:50.0 8:-180.0 9:171.0 10:79.0 11:324.0 
0.32913220848265773 0:1648.0 1:465.0 2:-913.0 3:790.0 4:-955.0 5:359.0 6:-288.0 7:50.0 8:-180.0 9:172.0 10:79.0 11:324.0 
0.9228034926213433 0:1648.0 1:465.0 2:-913.0 3:789.0 4:-955.0 5:359.0 6:-288.0 7:50.0 8:-180.0 9:172.0 10:78.0 11:324.0 
1.0 0:1642.0 1:467.0 2:-911.0 3:784.0 4:-950.0 5:355.0 6:-287.0 7:52.0 8:-183.0 9:174.0 10:77.0 11:325.0 
1.0 0:1626.0 1:472.0 2:-904.0 3:770.0 4:-934.0 5:345.0 6:-284.0 7:55.0 8:-189.0 9:179.0 10:74.0 11:327.0 
1.0 0:1567.0 1:490.0 2:-879.0 3:718.0 4:-882.0 5:312.0 6:-278.0 7:67.0 8:-207.0 9:194.0 10:66.0 11:332.0 
1.0 0:1650.0 1:503.0 2:-861.0 3:924.0 4:-967.0 5:392.0 6:-314.0 7:38.0 8:-129.0 9:154.0 10:28.0 11:259.0 
0.4897937376347077 0:1648.0 1:503.0 2:-860.0 3:923.0 4:-965.0 5:391.0 6:-314.0 7:38.0 8:-129.0 9:155.0 10:28.0 11:259.0 
1.0 0:1648.0 1:504.0 2:-860.0 3:922.0 4:-965.0 5:390.0 6:-314.0 7:38.0 8:-129.0 9:155.0 10:27.0 11:260.0 
1.0 0:1643.0 1:505.0 2:-858.0 3:917.0 4:-960.0 5:387.0 6:-312.0 7:39.0 8:-132.0 9:158.0 10:26.0 11:260.0 
1.0 0:1627.0 1:511.0 2:-851.0 3:903.0 4:-944.0 5:376.0 6:-310.0 7:43.0 8:-138.0 9:163.0 10:22.0 11:262.0 
1.0 0:1569.0 1:529.0 2:-827.0 3:852.0 4:-892.0 5:343.0 6:-302.0 7:54.0 8:-156.0 9:178.0 10:14.0 11:268.0 
0.8303868921493329 0:1617.0 1:527.0 2:-891.0 3:965.0 4:-962.0 5:405.0 6:-340.0 7:60.0 8:-139.0 9:189.0 10:-9.0 11:257.0 
0.20526387315206693 0:1617.0 1:528.0 2:-891.0 3:965.0 4:-961.0 5:405.0 6:-339.0 7:60.0 8:-139.0 9:189.0 10:-9.0 11:257.0 
0.7469631847402827 0:1616.0 1:528.0 2:-891.0 3:964.0 4:-961.0 5:405.0 6:-339.0 7:60.0 8:-140.0 9:190.0 10:-9.0 11:257.0 
0.1337574672745511 0:1616.0 1:528.0 2:-891.0 3:964.0 4:-961.0 5:405.0 6:-339.0 7:60.0 8:-140.0 9:189.0 10:-9.0 11:257.0 
1.0 0:1613.0 1:529.0 2:-889.0 3:961.0 4:-957.0 5:402.0 6:-339.0 7:60.0 8:-141.0 9:191.0 10:-10.0 11:258.0 
1.0 0:1600.0 1:533.0 2:-884.0 3:950.0 4:-946.0 5:395.0 6:-337.0 7:63.0 8:-145.0 9:194.0 10:-12.0 11:259.0 
1.0 0:1550.0 1:548.0 2:-862.0 3:905.0 4:-901.0 5:367.0 6:-332.0 7:73.0 8:-160.0 9:206.0 10:-18.0 11:264.0 
0.8191214969674425 0:1665.0 1:509.0 2:-955.0 3:972.0 4:-1026.0 5:424.0 6:-337.0 7:71.0 8:-124.0 9:201.0 10:11.0 11:276.0 
0.16740645576922622 0:1665.0 1:509.0 2:-955.0 3:971.0 4:-1026.0 5:424.0 6:-337.0 7:72.0 8:-124.0 9:201.0 10:11.0 11:276.0 
0.09322658800705719 0:1664.0 1:509.0 2:-955.0 3:971.0 4:-1026.0 5:424.0 6:-337.0 7:72.0 8:-124.0 9:201.0 10:11.0 11:276.0 
0.7262050153976716 0:1664.0 1:509.0 2:-955.0 3:971.0 4:-1025.0 5:424.0 6:-336.0 7:72.0 8:-124.0 9:202.0 10:11.0 11:276.0 
1.0 0:1661.0 1:510.0 2:-954.0 3:968.0 4:-1023.0 5:422.0 6:-336.0 7:72.0 8:-125.0 9:202.0 10:11.0 11:276.0 
1.0 0:1650.0 1:514.0 2:-948.0 3:958.0 4:-1012.0 5:416.0 6:-335.0 7:75.0 8:-129.0 9:206.0 10:9.0 11:277.0 
1.0 0:1599.0 1:529.0 2:-925.0 3:912.0 4:-966.0 5:388.0 6:-330.0 7:86.0 8:-144.0 9:217.0 10:3.0 11:282.0 
0.7639206644986338 0:1600.0 1:973.0 2:-737.0 3:976.0 4:-787.0 5:382.0 6:-423.0 7:130.0 8:-371.0 9:123.0 10:-157.0 11:262.0 
0.5067221752939465 0:1600.0 1:973.0 2:-737.0 3:976.0 4:-787.0 5:382.0 6:-423.0 7:130.0 8:-372.0 9:123.0 10:-157.0 11:262.0 
1.0 0:1598.0 1:973.0 2:-736.0 3:974.0 4:-785.0 5:381.0 6:-423.0 7:131.0 8:-372.0 9:123.0 10:-157.0 11:262.0 
1.0 0:1591.0 1:975.0 2:-733.0 3:968.0 4:-779.0 5:377.0 6:-422.0 7:132.0 8:-374.0 9:125.0 10:-157.0 11:262.0 
1.0 0:1554.0 1:985.0 2:-716.0 3:936.0 4:-750.0 5:361.0 6:-420.0 7:139.0 8:-381.0 9:129.0 10:-159.0 11:265.0 
0.27140711178497645 0:1608.0 1:904.0 2:-744.0 3:981.0 4:-814.0 5:389.0 6:-409.0 7:119.0 8:-335.0 9:141.0 10:-151.0 11:263.0 
0.9943240491772651 0:1608.0 1:904.0 2:-744.0 3:981.0 4:-814.0 5:389.0 6:-409.0 7:119.0 8:-335.0 9:141.0 10:-151.0 11:263.0 
1.0 0:1605.0 1:905.0 2:-743.0 3:979.0 4:-813.0 5:388.0 6:-409.0 7:120.0 8:-335.0 9:141.0 10:-151.0 11:263.0 
1.0 0:1598.0 1:906.0 2:-739.0 3:973.0 4:-806.0 5:385.0 6:-409.0 7:122.0 8:-337.0 9:142.0 10:-151.0 11:264.0 
1.0 0:1564.0 1:916.0 2:-722.0 3:942.0 4:-778.0 5:369.0 6:-408.0 7:129.0 8:-345.0 9:147.0 10:-153.0 11:266.0 
0.028971662536528137 0:1599.0 1:899.0 2:-717.0 3:986.0 4:-822.0 5:407.0 6:-381.0 7:143.0 8:-303.0 9:178.0 10:-165.0 11:273.0 
0.9902758621597743 0:1599.0 1:899.0 2:-717.0 3:986.0 4:-822.0 5:407.0 6:-381.0 7:143.0 8:-303.0 9:178.0 10:-165.0 11:273.0 
0.2492434751272651 0:1599.0 1:899.0 2:-717.0 3:986.0 4:-821.0 5:407.0 6:-381.0 7:143.0 8:-303.0 9:178.0 10:-165.0 11:273.0 
1.0 0:1597.0 1:899.0 2:-716.0 3:984.0 4:-820.0 5:406.0 6:-381.0 7:143.0 8:-304.0 9:179.0 10:-165.0 11:274.0 
1.0 0:1590.0 1:901.0 2:-713.0 3:978.0 4:-814.0 5:403.0 6:-381.0 7:145.0 8:-305.0 9:179.0 10:-165.0 11:274.0 
1.0 0:1554.0 1:911.0 2:-695.0 3:946.0 4:-785.0 5:387.0 6:-380.0 7:152.0 8:-312.0 9:183.0 10:-167.0 11:276.0 
0.9912849794103932 0:1633.0 1:893.0 2:-695.0 3:969.0 4:-827.0 5:397.0 6:-384.0 7:115.0 8:-300.0 9:194.0 10:-168.0 11:273.0 
0.12272050692271551 0:1632.0 1:893.0 2:-695.0 3:969.0 4:-827.0 5:397.0 6:-384.0 7:115.0 8:-301.0 9:194.0 10:-168.0 11:273.0 
0.33241064299329676 0:1632.0 1:893.0 2:-694.0 3:969.0 4:-826.0 5:397.0 6:-384.0 7:115.0 8:-301.0 9:194.0 10:-168.0 11:273.0 
1.0 0:1630.0 1:894.0 2:-694.0 3:967.0 4:-825.0 5:396.0 6:-384.0 7:115.0 8:-301.0 9:195.0 10:-168.0 11:273.0 
1.0 0:1623.0 1:895.0 2:-690.0 3:961.0 4:-819.0 5:393.0 6:-384.0 7:117.0 8:-303.0 9:196.0 10:-168.0 11:273.0 
1.0 0:1589.0 1:904.0 2:-673.0 3:930.0 4:-791.0 5:379.0 6:-384.0 7:125.0 8:-311.0 9:199.0 10:-169.0 11:275.0 
0.7613383019839927 0:1631.0 1:897.0 2:-655.0 3:981.0 4:-823.0 5:437.0 6:-331.0 7:133.0 8:-295.0 9:200.0 10:-185.0 11:270.0 
0.4044011849945072 0:1631.0 1:897.0 2:-655.0 3:981.0 4:-823.0 5:437.0 6:-331.0 7:133.0 8:-296.0 9:200.0 10:-185.0 11:270.0 
0.08837965150276582 0:1630.0 1:897.0 2:-655.0 3:981.0 4:-823.0 5:437.0 6:-331.0 7:133.0 8:-296.0 9:200.0 10:-185.0 11:270.0 
1.0 0:1629.0 1:897.0 2:-654.0 3:979.0 4:-821.0 5:436.0 6:-331.0 7:133.0 8:-296.0 9:200.0 10:-185.0 11:270.0 
1.0 0:1622.0 1:899.0 2:-651.0 3:974.0 4:-816.0 5:433.0 6:-331.0 7:135.0 8:-298.0 9:201.0 10:-185.0 11:270.0 
1.0 0:1589.0 1:908.0 2:-636.0 3:945.0 4:-789.0 5:419.0 6:-330.0 7:142.0 8:-305.0 9:205.0 10:-186.0 11:271.0 
1.0 0:2493.0 1:1017.0 2:-1075.0 3:35.0 4:-170.0 5:718.0 6:-240.0 7:322.0 8:-111.0 9:587.0 10:-93.0 11:237.0 
0.8365740103593915 0:2491.0 1:1017.0 2:-1074.0 3:34.0 4:-169.0 5:717.0 6:-239.0 7:322.0 8:-111.0 9:586.0 10:-93.0 11:236.0 
1.0 0:2488.0 1:1017.0 2:-1074.0 3:33.0 4:-168.0 5:716.0 6:-238.0 7:322.0 8:-112.0 9:586.0 10:-92.0 11:236.0 
1.0 0:2327.0 1:974.0 2:-1007.0 3:30.0 4:-168.0 5:679.0 6:-214.0 7:308.0 8:-95.0 9:555.0 10:-76.0 11:226.0 
1.0 0:2472.0 1:1020.0 2:-1069.0 3:28.0 4:-164.0 5:712.0 6:-235.0 7:320.0 8:-111.0 9:584.0 10:-90.0 11:235.0 
1.0 0:2435.0 1:1025.0 2:-1058.0 3:19.0 4:-157.0 5:702.0 6:-226.0 7:316.0 8:-108.0 9:579.0 10:-85.0 11:232.0 
1.0 0:2338.0 1:1035.0 2:-1028.0 3:-3.0 4:-141.0 5:680.0 6:-204.0 7:303.0 8:-97.0 9:564.0 10:-72.0 11:224.0 
1.0 0:2386.0 1:947.0 2:-1106.0 3:50.0 4:-151.0 5:765.0 6:-204.0 7:344.0 8:-100.0 9:615.0 10:-59.0 11:228.0 
0.8466308098413983 0:2383.0 1:948.0 2:-1106.0 3:49.0 4:-150.0 5:765.0 6:-203.0 7:344.0 8:-100.0 9:615.0 10:-59.0 11:228.0 
1.0 0:2380.0 1:948.0 2:-1105.0 3:48.0 4:-149.0 5:764.0 6:-203.0 7:344.0 8:-100.0 9:615.0 10:-59.0 11:228.0 
1.0 0:2162.0 1:892.0 2:-1014.0 3:38.0 4:-140.0 5:707.0 6:-174.0 7:318.0 8:-85.0 9:568.0 10:-47.0 11:214.0 
1.0 0:2362.0 1:952.0 2:-1100.0 3:42.0 4:-144.0 5:758.0 6:-198.0 7:342.0 8:-99.0 9:613.0 10:-56.0 11:226.0 
1.0 0:2320.0 1:958.0 2:-1087.0 3:31.0 4:-136.0 5:748.0 6:-189.0 7:336.0 8:-95.0 9:608.0 10:-51.0 11:223.0 
1.0 0:2214.0 1:967.0 2:-1053.0 3:6.0 4:-119.0 5:724.0 6:-165.0 7:323.0 8:-84.0 9:592.0 10:-37.0 11:214.0 
1.0 0:2335.0 1:899.0 2:-1171.0 3:14.0 4:-183.0 5:736.0 6:-259.0 7:289.0 8:-135.0 9:611.0 10:-57.0 11:215.0 
1.0 0:2325.0 1:899.0 2:-1167.0 3:11.0 4:-180.0 5:733.0 6:-257.0 7:289.0 8:-134.0 9:610.0 10:-56.0 11:214.0 
1.0 0:2323.0 1:901.0 2:-1166.0 3:10.0 4:-179.0 5:732.0 6:-256.0 7:289.0 8:-136.0 9:611.0 10:-56.0 11:214.0 
1.0 0:2042.0 1:819.0 2:-1048.0 3:-4.0 4:-161.0 5:664.0 6:-216.0 7:260.0 8:-108.0 9:553.0 10:-41.0 11:197.0 
1.0 0:2287.0 1:903.0 2:-1154.0 3:1.0 4:-172.0 5:722.0 6:-248.0 7:287.0 8:-133.0 9:606.0 10:-52.0 11:211.0 
1.0 0:2226.0 1:905.0 2:-1133.0 3:-11.0 4:-163.0 5:707.0 6:-235.0 7:280.0 8:-128.0 9:598.0 10:-44.0 11:207.0 
1.0 0:2097.0 1:907.0 2:-1088.0 3:-34.0 4:-148.0 5:678.0 6:-208.0 7:267.0 8:-114.0 9:578.0 10:-29.0 11:197.0 
1.0 0:2214.0 1:809.0 2:-1251.0 3:-74.0 4:-222.0 5:694.0 6:-275.0 7:262.0 8:-126.0 9:620.0 10:-42.0 11:218.0 
1.0 0:2165.0 1:802.0 2:-1224.0 3:-78.0 4:-215.0 5:681.0 6:-266.0 7:259.0 8:-123.0 9:609.0 10:-38.0 11:214.0 
1.0 0:2193.0 1:810.0 2:-1244.0 3:-80.0 4:-216.0 5:687.0 6:-272.0 7:262.0 8:-126.0 9:618.0 10:-40.0 11:217.0 
1.0 0:1753.0 1:698.0 2:-1012.0 3:-70.0 4:-180.0 5:578.0 6:-196.0 7:221.0 8:-82.0 9:516.0 10:-15.0 11:185.0 
1.0 0:2141.0 1:809.0 2:-1223.0 3:-91.0 4:-208.0 5:673.0 6:-261.0 7:260.0 8:-123.0 9:610.0 10:-34.0 11:214.0 
1.0 0:2064.0 1:802.0 2:-1193.0 3:-101.0 4:-201.0 5:654.0 6:-246.0 7:255.0 8:-117.0 9:598.0 10:-25.0 11:209.0 
1.0 0:1926.0 1:790.0 2:-1142.0 3:-117.0 4:-190.0 5:622.0 6:-219.0 7:246.0 8:-103.0 9:576.0 10:-11.0 11:201.0 
1.0 0:2277.0 1:853.0 2:-1233.0 3:-68.0 4:-225.0 5:703.0 6:-269.0 7:274.0 8:-124.0 9:620.0 10:-53.0 11:214.0 
1.0 0:2220.0 1:845.0 2:-1202.0 3:-73.0 4:-217.0 5:688.0 6:-258.0 7:271.0 8:-120.0 9:609.0 10:-50.0 11:210.0 
1.0 0:2258.0 1:853.0 2:-1226.0 3:-74.0 4:-219.0 5:696.0 6:-266.0 7:275.0 8:-124.0 9:618.0 10:-52.0 11:214.0 
1.0 0:1683.0 1:705.0 2:-937.0 3:-47.0 4:-177.0 5:552.0 6:-171.0 7:224.0 8:-67.0 9:486.0 10:-20.0 11:173.0 
1.0 0:2212.0 1:851.0 2:-1208.0 3:-83.0 4:-212.0 5:684.0 6:-257.0 7:273.0 8:-122.0 9:612.0 10:-47.0 11:211.0 
1.0 0:2145.0 1:845.0 2:-1181.0 3:-92.0 4:-205.0 5:667.0 6:-244.0 7:270.0 8:-116.0 9:601.0 10:-40.0 11:208.0 
1.0 0:2025.0 1:836.0 2:-1138.0 3:-107.0 4:-194.0 5:638.0 6:-221.0 7:262.0 8:-104.0 9:582.0 10:-28.0 11:201.0 
1.0 0:1797.0 1:1034.0 2:-846.0 3:966.0 4:-725.0 5:399.0 6:-317.0 7:260.0 8:-345.0 9:247.0 10:-71.0 11:178.0 
1.0 0:1642.0 1:998.0 2:-803.0 3:901.0 4:-669.0 5:376.0 6:-301.0 7:251.0 8:-331.0 9:232.0 10:-71.0 11:171.0 
0.08824872132844486 0:1796.0 1:1034.0 2:-846.0 3:965.0 4:-725.0 5:399.0 6:-316.0 7:260.0 8:-345.0 9:247.0 10:-71.0 11:178.0 
1.0 0:1391.0 1:945.0 2:-724.0 3:804.0 4:-605.0 5:341.0 6:-274.0 7:229.0 8:-301.0 9:209.0 10:-68.0 11:157.0 
0.7470885201655658 0:1795.0 1:1034.0 2:-845.0 3:965.0 4:-724.0 5:399.0 6:-316.0 7:260.0 8:-345.0 9:247.0 10:-71.0 11:178.0 
1.0 0:1792.0 1:1034.0 2:-844.0 3:963.0 4:-722.0 5:398.0 6:-316.0 7:261.0 8:-345.0 9:247.0 10:-71.0 11:178.0 
1.0 0:1781.0 1:1035.0 2:-839.0 3:954.0 4:-715.0 5:394.0 6:-316.0 7:261.0 8:-346.0 9:247.0 10:-71.0 11:179.0 
0.17997370345286834 0:1891.0 1:1066.0 2:-886.0 3:1038.0 4:-801.0 5:413.0 6:-321.0 7:251.0 8:-355.0 9:270.0 10:-58.0 11:162.0 
1.0 0:1734.0 1:1028.0 2:-841.0 3:973.0 4:-746.0 5:390.0 6:-306.0 7:242.0 8:-340.0 9:255.0 10:-57.0 11:154.0 
1.0 0:1891.0 1:1066.0 2:-886.0 3:1038.0 4:-801.0 5:413.0 6:-321.0 7:251.0 8:-355.0 9:270.0 10:-58.0 11:162.0 
1.0 0:1497.0 1:978.0 2:-768.0 3:882.0 4:-687.0 5:356.0 6:-279.0 7:220.0 8:-310.0 9:234.0 10:-55.0 11:143.0 
1.0 0:1889.0 1:1066.0 2:-885.0 3:1036.0 4:-799.0 5:412.0 6:-321.0 7:251.0 8:-355.0 9:270.0 10:-58.0 11:162.0 
1.0 0:1878.0 1:1069.0 2:-879.0 3:1027.0 4:-791.0 5:409.0 6:-321.0 7:253.0 8:-356.0 9:270.0 10:-58.0 11:163.0 
0.02542190647152524 0:1854.0 1:1081.0 2:-844.0 3:1080.0 4:-825.0 5:395.0 6:-338.0 7:239.0 8:-335.0 9:273.0 10:-48.0 11:171.0 
1.0 0:1649.0 1:1022.0 2:-798.0 3:979.0 4:-751.0 5:367.0 6:-308.0 7:230.0 8:-322.0 9:258.0 10:-49.0 11:156.0 
1.0 0:1854.0 1:1081.0 2:-844.0 3:1080.0 4:-825.0 5:395.0 6:-338.0 7:239.0 8:-335.0 9:273.0 10:-48.0 11:171.0 
1.0 0:1440.0 1:966.0 2:-741.0 3:899.0 4:-700.0 5:336.0 6:-278.0 7:206.0 8:-297.0 9:234.0 10:-48.0 11:140.0 
0.4424148807078821 0:1853.0 1:1081.0 2:-844.0 3:1080.0 4:-824.0 5:395.0 6:-338.0 7:239.0 8:-335.0 9:273.0 10:-48.0 11:171.0 
1.0 0:1851.0 1:1082.0 2:-842.0 3:1078.0 4:-822.0 5:394.0 6:-337.0 7:240.0 8:-335.0 9:273.0 10:-48.0 11:171.0 
1.0 0:1839.0 1:1085.0 2:-836.0 3:1067.0 4:-813.0 5:390.0 6:-337.0 7:241.0 8:-337.0 9:274.0 10:-49.0 11:173.0 
1.0 0:1519.0 1:1036.0 2:-722.0 3:975.0 4:-734.0 5:356.0 6:-318.0 7:209.0 8:-321.0 9:262.0 10:-49.0 11:172.0 
1.0 0:1310.0 1:979.0 2:-667.0 3:887.0 4:-683.0 5:329.0 6:-289.0 7:188.0 8:-293.0 9:233.0 10:-46.0 11:157.0 
0.8930020406921713 0:1716.0 1:1094.0 2:-764.0 3:1076.0 4:-807.0 5:383.0 6:-349.0 7:216.0 8:-332.0 9:275.0 10:-47.0 11:187.0 
0.8930020300792665 0:1715.0 1:1094.0 2:-763.0 3:1075.0 4:-806.0 5:383.0 6:-349.0 7:216.0 8:-332.0 9:275.0 10:-47.0 11:188.0 
1.0 0:1706.0 1:1096.0 2:-759.0 3:1067.0 4:-800.0 5:380.0 6:-349.0 7:217.0 8:-333.0 9:276.0 10:-47.0 11:188.0 
0.156548708122051 0:1672.0 1:1072.0 2:-756.0 3:1133.0 4:-833.0 5:379.0 6:-343.0 7:209.0 8:-330.0 9:272.0 10:-52.0 11:165.0 
1.0 0:1514.0 1:1019.0 2:-726.0 3:1053.0 4:-779.0 5:359.0 6:-317.0 7:199.0 8:-320.0 9:260.0 10:-52.0 11:152.0 
1.0 0:1672.0 1:1072.0 2:-756.0 3:1133.0 4:-833.0 5:379.0 6:-343.0 7:209.0 8:-330.0 9:272.0 10:-52.0 11:165.0 
1.0 0:1345.0 1:967.0 2:-682.0 3:981.0 4:-736.0 5:337.0 6:-294.0 7:181.0 8:-299.0 9:237.0 10:-48.0 11:139.0 
0.28831235420928314 0:1671.0 1:1072.0 2:-756.0 3:1132.0 4:-832.0 5:378.0 6:-343.0 7:209.0 8:-330.0 9:272.0 10:-52.0 11:165.0 
1.0 0:1669.0 1:1073.0 2:-755.0 3:1131.0 4:-831.0 5:377.0 6:-343.0 7:209.0 8:-331.0 9:273.0 10:-52.0 11:165.0 
1.0 0:1656.0 1:1076.0 2:-748.0 3:1119.0 4:-821.0 5:373.0 6:-343.0 7:211.0 8:-332.0 9:273.0 10:-53.0 11:167.0 
1.0 0:1071.0 1:470.0 2:-294.0 3:1065.0 4:-924.0 5:514.0 6:-221.0 7:-96.0 8:67.0 9:-101.0 10:22.0 11:8.0 
0.35698798981088503 0:1391.0 1:462.0 2:-346.0 3:1247.0 4:-1104.0 5:611.0 6:-265.0 7:-130.0 8:98.0 9:-117.0 10:40.0 11:4.0 
1.0 0:858.0 1:466.0 2:-270.0 3:940.0 4:-806.0 5:450.0 6:-186.0 7:-66.0 8:42.0 9:-82.0 10:9.0 11:13.0 
1.0 0:1391.0 1:462.0 2:-346.0 3:1247.0 4:-1104.0 5:611.0 6:-265.0 7:-130.0 8:98.0 9:-117.0 10:40.0 11:4.0 
1.0 0:1389.0 1:463.0 2:-345.0 3:1245.0 4:-1102.0 5:609.0 6:-264.0 7:-130.0 8:97.0 9:-115.0 10:39.0 11:4.0 
1.0 0:1379.0 1:467.0 2:-342.0 3:1237.0 4:-1092.0 5:601.0 6:-261.0 7:-128.0 8:92.0 9:-110.0 10:35.0 11:6.0 
0.006431890343223264 0:1405.0 1:501.0 2:-390.0 3:1233.0 4:-1097.0 5:595.0 6:-309.0 7:-150.0 8:84.0 9:-102.0 10:55.0 11:19.0 
1.0 0:959.0 1:493.0 2:-315.0 3:971.0 4:-842.0 5:464.0 6:-239.0 7:-103.0 8:37.0 9:-80.0 10:24.0 11:27.0 
1.0 0:1405.0 1:501.0 2:-390.0 3:1233.0 4:-1097.0 5:595.0 6:-309.0 7:-150.0 8:84.0 9:-102.0 10:55.0 11:19.0 
1.0 0:696.0 1:472.0 2:-278.0 3:823.0 4:-704.0 5:396.0 6:-191.0 7:-61.0 8:8.0 9:-67.0 10:2.0 11:31.0 
0.46041284057950516 0:1405.0 1:501.0 2:-390.0 3:1232.0 4:-1097.0 5:594.0 6:-309.0 7:-150.0 8:84.0 9:-101.0 10:55.0 11:19.0 
1.0 0:1403.0 1:501.0 2:-389.0 3:1231.0 4:-1095.0 5:593.0 6:-309.0 7:-149.0 8:83.0 9:-100.0 10:54.0 11:20.0 
1.0 0:1395.0 1:505.0 2:-387.0 3:1224.0 4:-1087.0 5:587.0 6:-306.0 7:-148.0 8:79.0 9:-96.0 10:51.0 11:21.0 
1.0 0:1368.0 1:476.0 2:-463.0 3:1186.0 4:-1138.0 5:565.0 6:-339.0 7:-166.0 8:72.0 9:-93.0 10:66.0 11:46.0 
1.0 0:872.0 1:464.0 2:-380.0 3:895.0 4:-853.0 5:420.0 6:-261.0 7:-115.0 8:20.0 9:-68.0 10:31.0 11:54.0 
0.21101347352225636 0:1368.0 1:476.0 2:-463.0 3:1186.0 4:-1137.0 5:565.0 6:-339.0 7:-166.0 8:72.0 9:-93.0 10:66.0 11:46.0 
1.0 0:604.0 1:432.0 2:-350.0 3:744.0 4:-717.0 5:362.0 6:-208.0 7:-69.0 8:-4.0 9:-57.0 10:9.0 11:55.0 
1.0 0:1366.0 1:477.0 2:-463.0 3:1185.0 4:-1136.0 5:564.0 6:-338.0 7:-166.0 8:71.0 9:-92.0 10:65.0 11:46.0 
1.0 0:1359.0 1:480.0 2:-460.0 3:1178.0 4:-1128.0 5:558.0 6:-336.0 7:-164.0 8:68.0 9:-88.0 10:62.0 11:47.0 
0.028876208283668714 0:1352.0 1:444.0 2:-558.0 3:1131.0 4:-1211.0 5:552.0 6:-359.0 7:-152.0 8:99.0 9:-68.0 10:101.0 11:77.0 
1.0 0:844.0 1:435.0 2:-470.0 3:831.0 4:-917.0 5:403.0 6:-280.0 7:-100.0 8:44.0 9:-42.0 10:66.0 11:86.0 
0.9927333338744242 0:1352.0 1:444.0 2:-558.0 3:1131.0 4:-1211.0 5:552.0 6:-359.0 7:-152.0 8:99.0 9:-68.0 10:101.0 11:77.0 
1.0 0:555.0 1:406.0 2:-435.0 3:671.0 4:-763.0 5:336.0 6:-222.0 7:-51.0 8:14.0 9:-27.0 10:40.0 11:86.0 
0.247106560796423 0:1352.0 1:444.0 2:-558.0 3:1130.0 4:-1211.0 5:552.0 6:-359.0 7:-152.0 8:99.0 9:-68.0 10:101.0 11:77.0 
1.0 0:1350.0 1:444.0 2:-558.0 3:1129.0 4:-1209.0 5:551.0 6:-358.0 7:-152.0 8:98.0 9:-67.0 10:100.0 11:77.0 
1.0 0:1342.0 1:447.0 2:-555.0 3:1122.0 4:-1201.0 5:545.0 6:-356.0 7:-150.0 8:95.0 9:-63.0 10:97.0 11:78.0 
0.09898717687343678 0:1227.0 1:383.0 2:-623.0 3:1122.0 4:-1243.0 5:593.0 6:-361.0 7:-141.0 8:168.0 9:-79.0 10:160.0 11:93.0 
1.0 0:715.0 1:376.0 2:-533.0 3:819.0 4:-944.0 5:441.0 6:-282.0 7:-88.0 8:110.0 9:-51.0 10:123.0 11:102.0 
0.9932332613463538 0:1227.0 1:383.0 2:-623.0 3:1122.0 4:-1243.0 5:593.0 6:-361.0 7:-141.0 8:168.0 9:-79.0 10:160.0 11:93.0 
1.0 0:436.0 1:348.0 2:-498.0 3:664.0 4:-795.0 5:378.0 6:-225.0 7:-41.0 8:82.0 9:-37.0 10:97.0 11:103.0 
1.0 0:1225.0 1:383.0 2:-622.0 3:1121.0 4:-1242.0 5:592.0 6:-361.0 7:-141.0 8:168.0 9:-78.0 10:159.0 11:94.0 
1.0 0:1218.0 1:386.0 2:-620.0 3:1115.0 4:-1234.0 5:586.0 6:-359.0 7:-140.0 8:164.0 9:-74.0 10:156.0 11:95.0 
0.9988032433213774 0:1497.0 1:1035.0 2:-757.0 3:900.0 4:-635.0 5:403.0 6:-347.0 7:355.0 8:-281.0 9:354.0 10:-46.0 11:323.0 
1.0 0:873.0 1:904.0 2:-607.0 3:708.0 4:-482.0 5:324.0 6:-272.0 7:320.0 8:-187.0 9:285.0 10:-32.0 11:292.0 
0.25208424406884 0:1497.0 1:1035.0 2:-757.0 3:899.0 4:-635.0 5:403.0 6:-347.0 7:355.0 8:-281.0 9:354.0 10:-46.0 11:323.0 
1.0 0:628.0 1:841.0 2:-546.0 3:649.0 4:-430.0 5:297.0 6:-242.0 7:300.0 8:-163.0 9:255.0 10:-30.0 11:266.0 
0.048338184359167174 0:1496.0 1:1035.0 2:-757.0 3:899.0 4:-634.0 5:403.0 6:-347.0 7:355.0 8:-281.0 9:354.0 10:-46.0 11:323.0 
1.0 0:1495.0 1:1036.0 2:-756.0 3:898.0 4:-633.0 5:402.0 6:-346.0 7:355.0 8:-281.0 9:355.0 10:-46.0 11:324.0 
1.0 0:1486.0 1:1037.0 2:-751.0 3:890.0 4:-627.0 5:399.0 6:-346.0 7:356.0 8:-282.0 9:355.0 10:-47.0 11:324.0 
1.0 0:959.0 1:841.0 2:-620.0 3:678.0 4:-494.0 5:317.0 6:-262.0 7:246.0 8:-200.0 9:268.0 10:-26.0 11:241.0 
0.9885749678274957 0:1649.0 1:988.0 2:-782.0 3:896.0 4:-658.0 5:414.0 6:-340.0 7:281.0 8:-301.0 9:336.0 10:-45.0 11:270.0 
1.0 0:685.0 1:772.0 2:-554.0 3:607.0 4:-438.0 5:287.0 6:-231.0 7:224.0 8:-171.0 9:232.0 10:-24.0 11:220.0 
0.17876053652453047 0:1649.0 1:988.0 2:-782.0 3:896.0 4:-657.0 5:413.0 6:-340.0 7:281.0 8:-301.0 9:336.0 10:-46.0 11:270.0 
1.0 0:1648.0 1:988.0 2:-781.0 3:895.0 4:-656.0 5:413.0 6:-340.0 7:282.0 8:-302.0 9:337.0 10:-46.0 11:270.0 
1.0 0:1639.0 1:990.0 2:-777.0 3:888.0 4:-650.0 5:409.0 6:-339.0 7:283.0 8:-303.0 9:338.0 10:-47.0 11:271.0 
0.022865791122478385 0:1831.0 1:945.0 2:-815.0 3:811.0 4:-682.0 5:402.0 6:-329.0 7:231.0 8:-301.0 9:344.0 10:-37.0 11:215.0 
1.0 0:1084.0 1:786.0 2:-639.0 3:585.0 4:-503.0 5:300.0 6:-248.0 7:190.0 8:-197.0 9:267.0 10:-21.0 11:190.0 
0.9960207080812699 0:1831.0 1:945.0 2:-815.0 3:811.0 4:-682.0 5:402.0 6:-329.0 7:231.0 8:-301.0 9:344.0 10:-37.0 11:215.0 
1.0 0:766.0 1:705.0 2:-566.0 3:508.0 4:-435.0 5:267.0 6:-208.0 7:166.0 8:-164.0 9:226.0 10:-19.0 11:170.0 
1.0 0:1830.0 1:945.0 2:-814.0 3:810.0 4:-680.0 5:401.0 6:-329.0 7:231.0 8:-302.0 9:344.0 10:-37.0 11:215.0 
1.0 0:1822.0 1:947.0 2:-811.0 3:803.0 4:-674.0 5:398.0 6:-328.0 7:232.0 8:-303.0 9:346.0 10:-38.0 11:216.0 
1.0 0:1153.0 1:796.0 2:-562.0 3:573.0 4:-471.0 5:276.0 6:-224.0 7:181.0 8:-170.0 9:246.0 10:-46.0 11:130.0 
0.7587435716776958 0:1905.0 1:960.0 2:-712.0 3:817.0 4:-647.0 5:376.0 6:-314.0 7:220.0 8:-259.0 9:324.0 10:-72.0 11:135.0 
1.0 0:854.0 1:708.0 2:-518.0 3:500.0 4:-409.0 5:251.0 6:-186.0 7:163.0 8:-143.0 9:207.0 10:-39.0 11:120.0 
0.23226655401292373 0:1905.0 1:960.0 2:-711.0 3:817.0 4:-647.0 5:376.0 6:-314.0 7:220.0 8:-259.0 9:324.0 10:-72.0 11:135.0 
0.9238830190299405 0:1904.0 1:961.0 2:-711.0 3:816.0 4:-646.0 5:375.0 6:-314.0 7:220.0 8:-260.0 9:324.0 10:-72.0 11:135.0 
1.0 0:1897.0 1:963.0 2:-708.0 3:810.0 4:-640.0 5:372.0 6:-313.0 7:221.0 8:-261.0 9:325.0 10:-73.0 11:136.0 
0.058119508352648765 0:2040.0 1:927.0 2:-738.0 3:786.0 4:-624.0 5:369.0 6:-318.0 7:201.0 8:-211.0 9:306.0 10:-76.0 11:101.0 
1.0 0:1276.0 1:751.0 2:-578.0 3:541.0 4:-457.0 5:267.0 6:-219.0 7:163.0 8:-140.0 9:229.0 10:-46.0 11:103.0 
1.0 0:2040.0 1:927.0 2:-738.0 3:786.0 4:-624.0 5:369.0 6:-318.0 7:201.0 8:-211.0 9:306.0 10:-76.0 11:101.0 
1.0 0:899.0 1:650.0 2:-516.0 3:449.0 4:-380.0 5:226.0 6:-172.0 7:137.0 8:-115.0 9:186.0 10:-34.0 11:101.0 
0.6332942778219027 0:2039.0 1:928.0 2:-737.0 3:785.0 4:-623.0 5:368.0 6:-318.0 7:201.0 8:-211.0 9:306.0 10:-76.0 11:101.0 
1.0 0:2037.0 1:928.0 2:-737.0 3:783.0 4:-621.0 5:367.0 6:-318.0 7:202.0 8:-212.0 9:307.0 10:-77.0 11:101.0 
1.0 0:2028.0 1:931.0 2:-733.0 3:775.0 4:-613.0 5:362.0 6:-316.0 7:203.0 8:-214.0 9:310.0 10:-78.0 11:103.0 
0.8867590743642294 0:1272.0 1:715.0 2:-1088.0 3:1386.0 4:-461.0 5:460.0 6:-322.0 7:551.0 8:-159.0 9:163.0 10:-38.0 11:222.0 
0.30832107153315846 0:1272.0 1:715.0 2:-1087.0 3:1386.0 4:-461.0 5:460.0 6:-322.0 7:551.0 8:-159.0 9:163.0 10:-38.0 11:222.0 
0.2479504999779464 0:1271.0 1:715.0 2:-1087.0 3:1386.0 4:-460.0 5:460.0 6:-322.0 7:551.0 8:-159.0 9:163.0 10:-38.0 11:222.0 
1.0 0:1269.0 1:716.0 2:-1086.0 3:1384.0 4:-459.0 5:459.0 6:-322.0 7:552.0 8:-160.0 9:163.0 10:-38.0 11:222.0 
1.0 0:1260.0 1:718.0 2:-1081.0 3:1376.0 4:-451.0 5:456.0 6:-322.0 7:554.0 8:-162.0 9:165.0 10:-39.0 11:222.0 
1.0 0:1216.0 1:728.0 2:-1059.0 3:1338.0 4:-418.0 5:438.0 6:-319.0 7:560.0 8:-170.0 9:170.0 10:-42.0 11:225.0 
0.7558443157072551 0:1359.0 1:779.0 2:-1166.0 3:1313.0 4:-524.0 5:401.0 6:-401.0 7:522.0 8:-198.0 9:143.0 10:-92.0 11:216.0 
1.0 0:1353.0 1:776.0 2:-1164.0 3:1312.0 4:-523.0 5:400.0 6:-400.0 7:521.0 8:-199.0 9:144.0 10:-90.0 11:215.0 
0.604250640256546 0:1359.0 1:779.0 2:-1166.0 3:1313.0 4:-524.0 5:401.0 6:-401.0 7:523.0 8:-198.0 9:143.0 10:-92.0 11:216.0 
1.0 0:1321.0 1:761.0 2:-1153.0 3:1304.0 4:-515.0 5:401.0 6:-392.0 7:513.0 8:-196.0 9:142.0 10:-84.0 11:212.0 
1.0 0:1357.0 1:780.0 2:-1164.0 3:1311.0 4:-522.0 5:400.0 6:-401.0 7:523.0 8:-199.0 9:144.0 10:-92.0 11:216.0 
1.0 0:1348.0 1:782.0 2:-1160.0 3:1303.0 4:-515.0 5:396.0 6:-401.0 7:525.0 8:-201.0 9:145.0 10:-93.0 11:217.0 
1.0 0:1306.0 1:791.0 2:-1138.0 3:1267.0 4:-483.0 5:380.0 6:-399.0 7:531.0 8:-208.0 9:150.0 10:-96.0 11:220.0 
1.0 0:1432.0 1:804.0 2:-1229.0 3:1278.0 4:-527.0 5:424.0 6:-443.0 7:478.0 8:-220.0 9:149.0 10:-100.0 11:218.0 
1.0 0:1426.0 1:801.0 2:-1227.0 3:1277.0 4:-526.0 5:424.0 6:-442.0 7:477.0 8:-220.0 9:150.0 10:-99.0 11:217.0 
0.2966281858945442 0:1431.0 1:804.0 2:-1229.0 3:1278.0 4:-527.0 5:424.0 6:-443.0 7:478.0 8:-220.0 9:149.0 10:-100.0 11:218.0 
1.0 0:1391.0 1:786.0 2:-1214.0 3:1267.0 4:-518.0 5:424.0 6:-434.0 7:468.0 8:-217.0 9:149.0 10:-93.0 11:214.0 
1.0 0:1429.0 1:804.0 2:-1228.0 3:1276.0 4:-525.0 5:423.0 6:-443.0 7:478.0 8:-220.0 9:150.0 10:-101.0 11:218.0 
1.0 0:1420.0 1:806.0 2:-1223.0 3:1267.0 4:-517.0 5:419.0 6:-443.0 7:480.0 8:-222.0 9:152.0 10:-102.0 11:219.0 
1.0 0:1377.0 1:816.0 2:-1200.0 3:1230.0 4:-485.0 5:402.0 6:-441.0 7:487.0 8:-231.0 9:158.0 10:-105.0 11:222.0 
1.0 0:1436.0 1:825.0 2:-1248.0 3:1233.0 4:-483.0 5:457.0 6:-456.0 7:452.0 8:-247.0 9:162.0 10:-97.0 11:235.0 
1.0 0:1431.0 1:822.0 2:-1246.0 3:1231.0 4:-482.0 5:456.0 6:-454.0 7:451.0 8:-248.0 9:163.0 10:-96.0 11:234.0 
0.48997313549018695 0:1435.0 1:825.0 2:-1247.0 3:1232.0 4:-483.0 5:457.0 6:-456.0 7:452.0 8:-247.0 9:162.0 10:-97.0 11:235.0 
1.0 0:1398.0 1:807.0 2:-1235.0 3:1223.0 4:-475.0 5:457.0 6:-446.0 7:442.0 8:-244.0 9:162.0 10:-90.0 11:231.0 
1.0 0:1433.0 1:826.0 2:-1246.0 3:1230.0 4:-481.0 5:456.0 6:-455.0 7:452.0 8:-248.0 9:163.0 10:-98.0 11:235.0 
1.0 0:1426.0 1:827.0 2:-1243.0 3:1224.0 4:-475.0 5:452.0 6:-455.0 7:453.0 8:-250.0 9:164.0 10:-99.0 11:236.0 
1.0 0:1393.0 1:834.0 2:-1225.0 3:1196.0 4:-451.0 5:440.0 6:-453.0 7:458.0 8:-256.0 9:169.0 10:-101.0 11:237.0 
0.9986668380977936 0:1393.0 1:865.0 2:-1185.0 3:1197.0 4:-492.0 5:477.0 6:-431.0 7:449.0 8:-231.0 9:161.0 10:-109.0 11:225.0 
1.0 0:1386.0 1:862.0 2:-1182.0 3:1194.0 4:-491.0 5:476.0 6:-429.0 7:447.0 8:-231.0 9:163.0 10:-108.0 11:224.0 
0.18524637073750744 0:1392.0 1:865.0 2:-1185.0 3:1197.0 4:-492.0 5:476.0 6:-431.0 7:449.0 8:-231.0 9:161.0 10:-109.0 11:225.0 
1.0 0:1352.0 1:846.0 2:-1170.0 3:1186.0 4:-484.0 5:477.0 6:-422.0 7:439.0 8:-228.0 9:160.0 10:-101.0 11:221.0 
1.0 0:1391.0 1:865.0 2:-1184.0 3:1195.0 4:-491.0 5:476.0 6:-431.0 7:449.0 8:-231.0 9:162.0 10:-110.0 11:225.0 
1.0 0:1385.0 1:867.0 2:-1181.0 3:1190.0 4:-486.0 5:473.0 6:-431.0 7:450.0 8:-233.0 9:163.0 10:-110.0 11:226.0 
1.0 0:1359.0 1:872.0 2:-1167.0 3:1167.0 4:-466.0 5:462.0 6:-429.0 7:454.0 8:-239.0 9:168.0 10:-113.0 11:227.0 
0.984552090072147 0:1913.0 1:568.0 2:-1660.0 3:1100.0 4:-797.0 5:428.0 6:-405.0 7:502.0 8:-418.0 9:405.0 10:-12.0 11:112.0 
0.9843085817164516 0:1911.0 1:568.0 2:-1659.0 3:1099.0 4:-796.0 5:427.0 6:-405.0 7:502.0 8:-418.0 9:405.0 10:-12.0 11:112.0 
1.0 0:1904.0 1:570.0 2:-1656.0 3:1094.0 4:-792.0 5:426.0 6:-405.0 7:502.0 8:-417.0 9:404.0 10:-12.0 11:113.0 
1.0 0:1877.0 1:576.0 2:-1643.0 3:1074.0 4:-777.0 5:419.0 6:-403.0 7:499.0 8:-412.0 9:399.0 10:-11.0 11:115.0 
1.0 0:1765.0 1:601.0 2:-1590.0 3:994.0 4:-718.0 5:394.0 6:-395.0 7:487.0 8:-392.0 9:383.0 10:-8.0 11:125.0 
0.9637230850635504 0:1951.0 1:524.0 2:-1694.0 3:1133.0 4:-819.0 5:420.0 6:-410.0 7:503.0 8:-436.0 9:389.0 10:-1.0 11:117.0 
0.4459706675815754 0:1951.0 1:525.0 2:-1693.0 3:1133.0 4:-818.0 5:420.0 6:-410.0 7:502.0 8:-435.0 9:389.0 10:-1.0 11:117.0 
1.0 0:1949.0 1:525.0 2:-1693.0 3:1131.0 4:-817.0 5:419.0 6:-410.0 7:502.0 8:-435.0 9:389.0 10:-1.0 11:117.0 
1.0 0:1940.0 1:527.0 2:-1689.0 3:1125.0 4:-812.0 5:417.0 6:-409.0 7:501.0 8:-433.0 9:387.0 10:-1.0 11:119.0 
1.0 0:1908.0 1:535.0 2:-1675.0 3:1102.0 4:-794.0 5:409.0 6:-407.0 7:498.0 8:-428.0 9:382.0 10:0.0 11:122.0 
1.0 0:1784.0 1:564.0 2:-1617.0 3:1014.0 4:-728.0 5:380.0 6:-397.0 7:485.0 8:-405.0 9:363.0 10:2.0 11:134.0 
1.0 0:1908.0 1:490.0 2:-1661.0 3:1127.0 4:-858.0 5:401.0 6:-377.0 7:523.0 8:-414.0 9:403.0 10:16.0 11:117.0 
0.23626189956445715 0:1908.0 1:490.0 2:-1660.0 3:1126.0 4:-857.0 5:400.0 6:-377.0 7:523.0 8:-414.0 9:403.0 10:16.0 11:117.0 
1.0 0:1906.0 1:491.0 2:-1660.0 3:1125.0 4:-856.0 5:400.0 6:-377.0 7:523.0 8:-414.0 9:403.0 10:16.0 11:117.0 
1.0 0:1898.0 1:493.0 2:-1657.0 3:1120.0 4:-852.0 5:398.0 6:-376.0 7:522.0 8:-413.0 9:402.0 10:17.0 11:118.0 
1.0 0:1870.0 1:501.0 2:-1644.0 3:1099.0 4:-835.0 5:390.0 6:-374.0 7:520.0 8:-408.0 9:398.0 10:18.0 11:120.0 
1.0 0:1750.0 1:529.0 2:-1590.0 3:1014.0 4:-770.0 5:361.0 6:-364.0 7:507.0 8:-387.0 9:379.0 10:22.0 11:131.0 
1.0 0:1894.0 1:511.0 2:-1579.0 3:1200.0 4:-853.0 5:390.0 6:-367.0 7:507.0 8:-419.0 9:391.0 10:-11.0 11:67.0 
0.09757426740942382 0:1892.0 1:511.0 2:-1578.0 3:1199.0 4:-852.0 5:390.0 6:-367.0 7:507.0 8:-419.0 9:391.0 10:-11.0 11:67.0 
1.0 0:1892.0 1:511.0 2:-1578.0 3:1198.0 4:-852.0 5:390.0 6:-367.0 7:507.0 8:-418.0 9:391.0 10:-11.0 11:67.0 
1.0 0:1884.0 1:513.0 2:-1574.0 3:1192.0 4:-847.0 5:388.0 6:-367.0 7:507.0 8:-417.0 9:390.0 10:-10.0 11:68.0 
1.0 0:1854.0 1:521.0 2:-1561.0 3:1171.0 4:-831.0 5:380.0 6:-365.0 7:504.0 8:-413.0 9:385.0 10:-9.0 11:70.0 
1.0 0:1732.0 1:550.0 2:-1506.0 3:1084.0 4:-764.0 5:351.0 6:-355.0 7:492.0 8:-392.0 9:367.0 10:-6.0 11:81.0 
1.0 0:1936.0 1:580.0 2:-1491.0 3:1297.0 4:-863.0 5:400.0 6:-348.0 7:486.0 8:-456.0 9:375.0 10:-41.0 11:44.0 
0.3288614169761279 0:1935.0 1:580.0 2:-1490.0 3:1296.0 4:-862.0 5:399.0 6:-348.0 7:486.0 8:-455.0 9:375.0 10:-41.0 11:45.0 
0.10478443267788379 0:1934.0 1:581.0 2:-1490.0 3:1295.0 4:-861.0 5:399.0 6:-348.0 7:486.0 8:-455.0 9:375.0 10:-41.0 11:45.0 
1.0 0:1933.0 1:581.0 2:-1490.0 3:1295.0 4:-861.0 5:399.0 6:-348.0 7:486.0 8:-455.0 9:375.0 10:-41.0 11:45.0 
1.0 0:1924.0 1:583.0 2:-1485.0 3:1288.0 4:-855.0 5:396.0 6:-347.0 7:486.0 8:-454.0 9:374.0 10:-41.0 11:46.0 
1.0 0:1891.0 1:591.0 2:-1470.0 3:1264.0 4:-836.0 5:388.0 6:-345.0 7:483.0 8:-448.0 9:368.0 10:-40.0 11:50.0 
1.0 0:1761.0 1:621.0 2:-1409.0 3:1169.0 4:-766.0 5:359.0 6:-338.0 7:472.0 8:-426.0 9:347.0 10:-36.0 11:62.0 
0.829120587751671 0:2172.0 1:989.0 2:-888.0 3:808.0 4:-486.0 5:515.0 6:-421.0 7:224.0 8:-230.0 9:229.0 10:-165.0 11:240.0 
0.16456769716809833 0:2172.0 1:989.0 2:-888.0 3:807.0 4:-485.0 5:514.0 6:-421.0 7:224.0 8:-230.0 9:229.0 10:-165.0 11:240.0 
0.7965182526235757 0:2171.0 1:989.0 2:-887.0 3:807.0 4:-485.0 5:514.0 6:-421.0 7:224.0 8:-230.0 9:229.0 10:-165.0 11:240.0 
1.0 0:2166.0 1:991.0 2:-885.0 3:802.0 4:-481.0 5:512.0 6:-421.0 7:225.0 8:-231.0 9:230.0 10:-166.0 11:240.0 
1.0 0:2149.0 1:996.0 2:-877.0 3:788.0 4:-467.0 5:503.0 6:-419.0 7:228.0 8:-235.0 9:233.0 10:-167.0 11:241.0 
1.0 0:2077.0 1:1017.0 2:-847.0 3:731.0 4:-412.0 5:470.0 6:-410.0 7:234.0 8:-245.0 9:240.0 10:-170.0 11:244.0 
1.0 0:2226.0 1:1014.0 2:-923.0 3:767.0 4:-530.0 5:475.0 6:-446.0 7:230.0 8:-247.0 9:231.0 10:-176.0 11:229.0 
0.19083349578595557 0:2225.0 1:1014.0 2:-922.0 3:766.0 4:-529.0 5:475.0 6:-446.0 7:230.0 8:-247.0 9:231.0 10:-176.0 11:230.0 
1.0 0:2224.0 1:1014.0 2:-922.0 3:765.0 4:-529.0 5:474.0 6:-446.0 7:230.0 8:-247.0 9:232.0 10:-177.0 11:230.0 
1.0 0:2219.0 1:1016.0 2:-920.0 3:761.0 4:-524.0 5:471.0 6:-445.0 7:231.0 8:-249.0 9:233.0 10:-177.0 11:230.0 
1.0 0:2202.0 1:1021.0 2:-912.0 3:746.0 4:-510.0 5:463.0 6:-444.0 7:234.0 8:-252.0 9:235.0 10:-178.0 11:231.0 
1.0 0:2132.0 1:1041.0 2:-882.0 3:691.0 4:-458.0 5:432.0 6:-436.0 7:240.0 8:-261.0 9:240.0 10:-180.0 11:234.0 
0.7630683768895519 0:2246.0 1:1071.0 2:-930.0 3:724.0 4:-588.0 5:434.0 6:-449.0 7:266.0 8:-239.0 9:252.0 10:-192.0 11:221.0 
0.13537177779080106 0:2246.0 1:1071.0 2:-930.0 3:724.0 4:-588.0 5:434.0 6:-449.0 7:267.0 8:-239.0 9:252.0 10:-192.0 11:221.0 
0.8243115041439898 0:2245.0 1:1071.0 2:-930.0 3:723.0 4:-587.0 5:434.0 6:-449.0 7:267.0 8:-239.0 9:252.0 10:-192.0 11:221.0 
1.0 0:2240.0 1:1072.0 2:-928.0 3:719.0 4:-583.0 5:432.0 6:-449.0 7:267.0 8:-240.0 9:253.0 10:-192.0 11:221.0 
1.0 0:2224.0 1:1077.0 2:-921.0 3:705.0 4:-571.0 5:424.0 6:-448.0 7:270.0 8:-243.0 9:255.0 10:-193.0 11:222.0 
1.0 0:2156.0 1:1096.0 2:-892.0 3:652.0 4:-521.0 5:395.0 6:-440.0 7:275.0 8:-250.0 9:258.0 10:-193.0 11:224.0 
0.9581106215513047 0:2246.0 1:1091.0 2:-941.0 3:683.0 4:-637.0 5:410.0 6:-438.0 7:308.0 8:-222.0 9:262.0 10:-202.0 11:213.0 
0.9494390807926721 0:2244.0 1:1091.0 2:-941.0 3:682.0 4:-636.0 5:409.0 6:-438.0 7:308.0 8:-222.0 9:262.0 10:-202.0 11:213.0 
1.0 0:2240.0 1:1093.0 2:-939.0 3:678.0 4:-632.0 5:407.0 6:-438.0 7:309.0 8:-223.0 9:262.0 10:-202.0 11:213.0 
1.0 0:2223.0 1:1097.0 2:-931.0 3:664.0 4:-619.0 5:400.0 6:-436.0 7:311.0 8:-226.0 9:264.0 10:-203.0 11:214.0 
1.0 0:2156.0 1:1116.0 2:-902.0 3:612.0 4:-571.0 5:372.0 6:-430.0 7:316.0 8:-233.0 9:267.0 10:-203.0 11:216.0 
0.7617564857381853 0:2232.0 1:1132.0 2:-927.0 3:659.0 4:-677.0 5:408.0 6:-397.0 7:364.0 8:-209.0 9:259.0 10:-221.0 11:204.0 
0.10655187910087706 0:2232.0 1:1132.0 2:-927.0 3:658.0 4:-677.0 5:408.0 6:-397.0 7:364.0 8:-209.0 9:259.0 10:-221.0 11:204.0 
0.13085115334189293 0:2231.0 1:1132.0 2:-927.0 3:658.0 4:-676.0 5:408.0 6:-397.0 7:364.0 8:-209.0 9:259.0 10:-221.0 11:204.0 
0.7896662964343343 0:2231.0 1:1132.0 2:-927.0 3:658.0 4:-676.0 5:407.0 6:-397.0 7:364.0 8:-209.0 9:259.0 10:-222.0 11:204.0 
1.0 0:2227.0 1:1133.0 2:-925.0 3:654.0 4:-672.0 5:405.0 6:-396.0 7:364.0 8:-210.0 9:259.0 10:-222.0 11:205.0 
1.0 0:2211.0 1:1138.0 2:-918.0 3:641.0 4:-660.0 5:398.0 6:-395.0 7:367.0 8:-213.0 9:261.0 10:-223.0 11:206.0 
1.0 0:2144.0 1:1157.0 2:-889.0 3:589.0 4:-612.0 5:370.0 6:-387.0 7:371.0 8:-219.0 9:264.0 10:-223.0 11:208.0 
1.0 0:1882.0 1:397.0 2:-750.0 3:647.0 4:-905.0 5:375.0 6:-252.0 7:-60.0 8:-74.0 9:31.0 10:92.0 11:144.0 
0.11986604420463726 0:1881.0 1:398.0 2:-750.0 3:647.0 4:-904.0 5:375.0 6:-252.0 7:-60.0 8:-74.0 9:32.0 10:92.0 11:144.0 
0.21311713486550896 0:1880.0 1:398.0 2:-750.0 3:646.0 4:-904.0 5:374.0 6:-251.0 7:-60.0 8:-74.0 9:32.0 10:91.0 11:144.0 
0.9630228113937258 0:1880.0 1:398.0 2:-750.0 3:646.0 4:-903.0 5:374.0 6:-251.0 7:-59.0 8:-74.0 9:32.0 10:91.0 11:144.0 
1.0 0:1874.0 1:400.0 2:-748.0 3:641.0 4:-897.0 5:369.0 6:-249.0 7:-59.0 8:-77.0 9:35.0 10:89.0 11:146.0 
1.0 0:1858.0 1:406.0 2:-743.0 3:627.0 4:-882.0 5:357.0 6:-244.0 7:-57.0 8:-83.0 9:42.0 10:83.0 11:149.0 
1.0 0:1808.0 1:425.0 2:-725.0 3:586.0 4:-835.0 5:323.0 6:-231.0 7:-51.0 8:-100.0 9:61.0 10:69.0 11:157.0 
1.0 0:1996.0 1:414.0 2:-810.0 3:656.0 4:-929.0 5:379.0 6:-272.0 7:-65.0 8:-107.0 9:21.0 10:64.0 11:135.0 
0.5940327566496075 0:1995.0 1:415.0 2:-809.0 3:655.0 4:-928.0 5:378.0 6:-272.0 7:-65.0 8:-108.0 9:21.0 10:63.0 11:135.0 
0.21897739411054754 0:1994.0 1:415.0 2:-809.0 3:654.0 4:-927.0 5:377.0 6:-271.0 7:-65.0 8:-108.0 9:22.0 10:63.0 11:135.0 
1.0 0:1993.0 1:415.0 2:-809.0 3:653.0 4:-926.0 5:377.0 6:-271.0 7:-65.0 8:-108.0 9:22.0 10:63.0 11:135.0 
1.0 0:1985.0 1:418.0 2:-806.0 3:647.0 4:-918.0 5:370.0 6:-269.0 7:-63.0 8:-112.0 9:26.0 10:60.0 11:137.0 
1.0 0:1965.0 1:426.0 2:-800.0 3:630.0 4:-898.0 5:355.0 6:-263.0 7:-60.0 8:-121.0 9:36.0 10:52.0 11:140.0 
1.0 0:1907.0 1:447.0 2:-779.0 3:581.0 4:-844.0 5:315.0 6:-248.0 7:-52.0 8:-142.0 9:58.0 10:37.0 11:149.0 
1.0 0:1921.0 1:464.0 2:-780.0 3:683.0 4:-869.0 5:414.0 6:-206.0 7:-20.0 8:-105.0 9:15.0 10:25.0 11:113.0 
0.7632502496974756 0:1920.0 1:464.0 2:-780.0 3:681.0 4:-868.0 5:413.0 6:-206.0 7:-20.0 8:-106.0 9:15.0 10:25.0 11:114.0 
0.6325860639706378 0:1918.0 1:465.0 2:-779.0 3:680.0 4:-866.0 5:412.0 6:-206.0 7:-19.0 8:-106.0 9:16.0 10:25.0 11:114.0 
1.0 0:1917.0 1:465.0 2:-779.0 3:679.0 4:-866.0 5:411.0 6:-205.0 7:-19.0 8:-107.0 9:16.0 10:24.0 11:114.0 
1.0 0:1907.0 1:468.0 2:-775.0 3:671.0 4:-856.0 5:404.0 6:-203.0 7:-17.0 8:-110.0 9:20.0 10:22.0 11:115.0 
1.0 0:1882.0 1:476.0 2:-765.0 3:650.0 4:-833.0 5:387.0 6:-198.0 7:-14.0 8:-119.0 9:29.0 10:15.0 11:119.0 
1.0 0:1814.0 1:498.0 2:-740.0 3:594.0 4:-773.0 5:345.0 6:-184.0 7:-4.0 8:-141.0 9:50.0 10:1.0 11:127.0 
1.0 0:1914.0 1:544.0 2:-894.0 3:771.0 4:-865.0 5:455.0 6:-223.0 7:-18.0 8:-105.0 9:13.0 10:8.0 11:104.0 
1.0 0:1912.0 1:544.0 2:-893.0 3:769.0 4:-863.0 5:454.0 6:-223.0 7:-18.0 8:-106.0 9:14.0 10:8.0 11:105.0 
0.6891648265071602 0:1910.0 1:545.0 2:-892.0 3:767.0 4:-861.0 5:452.0 6:-222.0 7:-17.0 8:-107.0 9:14.0 10:7.0 11:105.0 
0.9988755031138041 0:1909.0 1:545.0 2:-891.0 3:766.0 4:-860.0 5:452.0 6:-222.0 7:-17.0 8:-107.0 9:15.0 10:7.0 11:105.0 
1.0 0:1893.0 1:550.0 2:-884.0 3:752.0 4:-846.0 5:443.0 6:-220.0 7:-13.0 8:-112.0 9:19.0 10:4.0 11:107.0 
1.0 0:1855.0 1:561.0 2:-868.0 3:719.0 4:-812.0 5:421.0 6:-215.0 7:-6.0 8:-124.0 9:30.0 10:-2.0 11:111.0 
1.0 0:1758.0 1:588.0 2:-824.0 3:635.0 4:-728.0 5:369.0 6:-204.0 7:10.0 8:-151.0 9:53.0 10:-17.0 11:122.0 
1.0 0:1862.0 1:643.0 2:-938.0 3:846.0 4:-827.0 5:495.0 6:-214.0 7:-3.0 8:-85.0 9:31.0 10:-1.0 11:87.0 
1.0 0:1843.0 1:643.0 2:-932.0 3:836.0 4:-818.0 5:489.0 6:-213.0 7:-2.0 8:-87.0 9:33.0 10:-2.0 11:89.0 
1.0 0:1855.0 1:645.0 2:-935.0 3:840.0 4:-821.0 5:491.0 6:-213.0 7:-1.0 8:-87.0 9:33.0 10:-2.0 11:88.0 
1.0 0:1838.0 1:644.0 2:-929.0 3:832.0 4:-812.0 5:486.0 6:-212.0 7:-1.0 8:-89.0 9:34.0 10:-3.0 11:89.0 
1.0 0:1833.0 1:651.0 2:-924.0 3:820.0 4:-801.0 5:479.0 6:-211.0 7:3.0 8:-94.0 9:39.0 10:-6.0 11:91.0 
1.0 0:1782.0 1:665.0 2:-901.0 3:775.0 4:-757.0 5:452.0 6:-207.0 7:13.0 8:-109.0 9:51.0 10:-13.0 11:97.0 
1.0 0:1661.0 1:695.0 2:-841.0 3:667.0 4:-655.0 5:394.0 6:-199.0 7:37.0 8:-140.0 9:74.0 10:-28.0 11:110.0 
1.0 0:1624.0 1:388.0 2:-1608.0 3:1456.0 4:-540.0 5:264.0 6:-356.0 7:672.0 8:-505.0 9:149.0 10:76.0 11:101.0 
1.0 0:1546.0 1:396.0 2:-1562.0 3:1402.0 4:-510.0 5:256.0 6:-350.0 7:657.0 8:-491.0 9:145.0 10:70.0 11:108.0 
1.0 0:1481.0 1:403.0 2:-1524.0 3:1358.0 4:-487.0 5:250.0 6:-343.0 7:642.0 8:-476.0 9:140.0 10:66.0 11:112.0 
1.0 0:1447.0 1:405.0 2:-1503.0 3:1334.0 4:-474.0 5:247.0 6:-341.0 7:636.0 8:-470.0 9:139.0 10:63.0 11:115.0 
1.0 0:1180.0 1:426.0 2:-1339.0 3:1156.0 4:-387.0 5:228.0 6:-314.0 7:574.0 8:-411.0 9:122.0 10:44.0 11:134.0 
1.0 0:833.0 1:441.0 2:-1119.0 3:931.0 4:-290.0 5:213.0 6:-275.0 7:487.0 8:-333.0 9:106.0 10:19.0 11:151.0 
1.0 0:382.0 1:446.0 2:-830.0 3:659.0 4:-188.0 5:199.0 6:-213.0 7:366.0 8:-240.0 9:92.0 10:-6.0 11:159.0 
1.0 0:1620.0 1:355.0 2:-1606.0 3:1473.0 4:-566.0 5:260.0 6:-336.0 7:665.0 8:-524.0 9:160.0 10:82.0 11:77.0 
1.0 0:1546.0 1:363.0 2:-1562.0 3:1422.0 4:-537.0 5:252.0 6:-329.0 7:651.0 8:-510.0 9:155.0 10:77.0 11:82.0 
1.0 0:1481.0 1:370.0 2:-1525.0 3:1378.0 4:-513.0 5:246.0 6:-323.0 7:637.0 8:-495.0 9:150.0 10:72.0 11:89.0 
1.0 0:1448.0 1:373.0 2:-1505.0 3:1355.0 4:-500.0 5:242.0 6:-320.0 7:631.0 8:-489.0 9:149.0 10:70.0 11:90.0 
1.0 0:1184.0 1:396.0 2:-1344.0 3:1176.0 4:-411.0 5:223.0 6:-296.0 7:570.0 8:-428.0 9:130.0 10:50.0 11:112.0 
1.0 0:838.0 1:415.0 2:-1128.0 3:950.0 4:-310.0 5:207.0 6:-260.0 7:484.0 8:-349.0 9:110.0 10:25.0 11:134.0 
1.0 0:388.0 1:425.0 2:-842.0 3:673.0 4:-201.0 5:193.0 6:-203.0 7:366.0 8:-251.0 9:91.0 10:-2.0 11:148.0 
1.0 0:1601.0 1:294.0 2:-1596.0 3:1510.0 4:-594.0 5:244.0 6:-318.0 7:649.0 8:-544.0 9:163.0 10:101.0 11:47.0 
1.0 0:1531.0 1:303.0 2:-1556.0 3:1461.0 4:-566.0 5:235.0 6:-312.0 7:635.0 8:-530.0 9:160.0 10:95.0 11:53.0 
1.0 0:1471.0 1:310.0 2:-1522.0 3:1421.0 4:-544.0 5:229.0 6:-305.0 7:621.0 8:-515.0 9:154.0 10:91.0 11:59.0 
1.0 0:1440.0 1:312.0 2:-1503.0 3:1399.0 4:-532.0 5:226.0 6:-303.0 7:616.0 8:-510.0 9:153.0 10:89.0 11:60.0 
1.0 0:1196.0 1:334.0 2:-1357.0 3:1235.0 4:-449.0 5:207.0 6:-279.0 7:559.0 8:-454.0 9:136.0 10:70.0 11:81.0 
1.0 0:876.0 1:353.0 2:-1156.0 3:1024.0 4:-352.0 5:192.0 6:-247.0 7:481.0 8:-380.0 9:117.0 10:46.0 11:103.0 
1.0 0:448.0 1:366.0 2:-887.0 3:758.0 4:-243.0 5:176.0 6:-196.0 7:371.0 8:-287.0 9:97.0 10:19.0 11:120.0 
1.0 0:1617.0 1:229.0 2:-1654.0 3:1400.0 4:-735.0 5:190.0 6:-341.0 7:575.0 8:-592.0 9:201.0 10:123.0 11:45.0 
1.0 0:1554.0 1:236.0 2:-1618.0 3:1355.0 4:-711.0 5:183.0 6:-337.0 7:563.0 8:-580.0 9:196.0 10:119.0 11:50.0 
1.0 0:1501.0 1:242.0 2:-1586.0 3:1319.0 4:-692.0 5:179.0 6:-332.0 7:550.0 8:-566.0 9:192.0 10:113.0 11:57.0 
1.0 0:1474.0 1:244.0 2:-1570.0 3:1300.0 4:-680.0 5:176.0 6:-331.0 7:547.0 8:-561.0 9:190.0 10:112.0 11:59.0 
1.0 0:1262.0 1:263.0 2:-1441.0 3:1155.0 4:-608.0 5:163.0 6:-313.0 7:498.0 8:-509.0 9:173.0 10:94.0 11:81.0 
1.0 0:985.0 1:282.0 2:-1269.0 3:969.0 4:-520.0 5:149.0 6:-289.0 7:432.0 8:-443.0 9:154.0 10:72.0 11:103.0 
1.0 0:609.0 1:303.0 2:-1037.0 3:729.0 4:-413.0 5:131.0 6:-248.0 7:339.0 8:-357.0 9:131.0 10:47.0 11:123.0 
1.0 0:1599.0 1:140.0 2:-1713.0 3:1266.0 4:-856.0 5:182.0 6:-329.0 7:513.0 8:-605.0 9:248.0 10:135.0 11:49.0 
1.0 0:1552.0 1:146.0 2:-1685.0 3:1232.0 4:-837.0 5:177.0 6:-326.0 7:504.0 8:-595.0 9:243.0 10:131.0 11:54.0 
1.0 0:1512.0 1:150.0 2:-1662.0 3:1205.0 4:-821.0 5:174.0 6:-323.0 7:495.0 8:-585.0 9:240.0 10:127.0 11:59.0 
1.0 0:1491.0 1:153.0 2:-1650.0 3:1190.0 4:-813.0 5:172.0 6:-323.0 7:492.0 8:-580.0 9:238.0 10:126.0 11:61.0 
1.0 0:1326.0 1:170.0 2:-1551.0 3:1075.0 4:-753.0 5:160.0 6:-311.0 7:456.0 8:-539.0 9:222.0 10:112.0 11:79.0 
1.0 0:1101.0 1:190.0 2:-1415.0 3:921.0 4:-675.0 5:146.0 6:-294.0 7:406.0 8:-485.0 9:203.0 10:95.0 11:100.0 
1.0 0:769.0 1:220.0 2:-1219.0 3:701.0 4:-564.0 5:121.0 6:-263.0 7:331.0 8:-408.0 9:176.0 10:76.0 11:124.0 
0.2107388350878974 0:2546.0 1:725.0 2:-898.0 3:961.0 4:-608.0 5:157.0 6:-304.0 7:349.0 8:-521.0 9:150.0 10:-28.0 11:129.0 
1.0 0:2442.0 1:711.0 2:-861.0 3:917.0 4:-581.0 5:152.0 6:-295.0 7:330.0 8:-502.0 9:144.0 10:-30.0 11:128.0 
0.993697569883705 0:2546.0 1:725.0 2:-898.0 3:961.0 4:-608.0 5:157.0 6:-304.0 7:349.0 8:-521.0 9:150.0 10:-28.0 11:129.0 
1.0 0:2215.0 1:682.0 2:-795.0 3:828.0 4:-529.0 5:140.0 6:-271.0 7:292.0 8:-461.0 9:126.0 10:-26.0 11:123.0 
1.0 0:2544.0 1:726.0 2:-897.0 3:959.0 4:-606.0 5:156.0 6:-304.0 7:349.0 8:-521.0 9:150.0 10:-28.0 11:129.0 
1.0 0:2537.0 1:728.0 2:-894.0 3:954.0 4:-601.0 5:153.0 6:-303.0 7:349.0 8:-521.0 9:150.0 10:-28.0 11:130.0 
1.0 0:2508.0 1:737.0 2:-884.0 3:935.0 4:-585.0 5:144.0 6:-298.0 7:345.0 8:-516.0 9:146.0 10:-27.0 11:132.0 
1.0 0:2483.0 1:718.0 2:-847.0 3:988.0 4:-628.0 5:129.0 6:-288.0 7:348.0 8:-530.0 9:127.0 10:-34.0 11:103.0 
1.0 0:2367.0 1:706.0 2:-806.0 3:937.0 4:-596.0 5:123.0 6:-279.0 7:327.0 8:-507.0 9:120.0 10:-36.0 11:103.0 
0.3969125583759222 0:2482.0 1:719.0 2:-847.0 3:988.0 4:-627.0 5:129.0 6:-288.0 7:348.0 8:-530.0 9:127.0 10:-34.0 11:104.0 
1.0 0:2128.0 1:670.0 2:-738.0 3:837.0 4:-538.0 5:114.0 6:-255.0 7:285.0 8:-461.0 9:102.0 10:-33.0 11:98.0 
1.0 0:2480.0 1:719.0 2:-846.0 3:986.0 4:-626.0 5:128.0 6:-288.0 7:348.0 8:-530.0 9:127.0 10:-34.0 11:104.0 
1.0 0:2474.0 1:721.0 2:-844.0 3:982.0 4:-622.0 5:126.0 6:-287.0 7:347.0 8:-529.0 9:126.0 10:-34.0 11:104.0 
1.0 0:2448.0 1:729.0 2:-835.0 3:965.0 4:-607.0 5:117.0 6:-283.0 7:344.0 8:-525.0 9:123.0 10:-33.0 11:106.0 
1.0 0:2426.0 1:630.0 2:-881.0 3:1058.0 4:-654.0 5:144.0 6:-242.0 7:372.0 8:-547.0 9:113.0 10:-37.0 11:59.0 
1.0 0:2298.0 1:623.0 2:-831.0 3:997.0 4:-618.0 5:137.0 6:-234.0 7:347.0 8:-520.0 9:104.0 10:-39.0 11:59.0 
0.046750447470509854 0:2425.0 1:630.0 2:-881.0 3:1057.0 4:-654.0 5:144.0 6:-242.0 7:372.0 8:-547.0 9:113.0 10:-37.0 11:59.0 
1.0 0:2003.0 1:589.0 2:-734.0 3:863.0 4:-539.0 5:124.0 6:-207.0 7:292.0 8:-461.0 9:82.0 10:-37.0 11:60.0 
1.0 0:2424.0 1:631.0 2:-880.0 3:1056.0 4:-653.0 5:143.0 6:-242.0 7:372.0 8:-547.0 9:113.0 10:-37.0 11:59.0 
1.0 0:2418.0 1:632.0 2:-878.0 3:1052.0 4:-649.0 5:141.0 6:-241.0 7:372.0 8:-547.0 9:113.0 10:-37.0 11:60.0 
1.0 0:2395.0 1:639.0 2:-869.0 3:1036.0 4:-635.0 5:133.0 6:-238.0 7:370.0 8:-544.0 9:110.0 10:-36.0 11:61.0 
0.02274240588176754 0:2427.0 1:575.0 2:-960.0 3:1082.0 4:-669.0 5:165.0 6:-250.0 7:380.0 8:-559.0 9:140.0 10:-23.0 11:71.0 
1.0 0:2347.0 1:571.0 2:-930.0 3:1046.0 4:-648.0 5:160.0 6:-245.0 7:365.0 8:-540.0 9:134.0 10:-23.0 11:72.0 
0.9966123440073138 0:2427.0 1:575.0 2:-960.0 3:1082.0 4:-669.0 5:165.0 6:-250.0 7:380.0 8:-559.0 9:140.0 10:-23.0 11:71.0 
1.0 0:2104.0 1:546.0 2:-846.0 3:932.0 4:-582.0 5:148.0 6:-223.0 7:319.0 8:-490.0 9:115.0 10:-21.0 11:75.0 
1.0 0:2425.0 1:576.0 2:-959.0 3:1081.0 4:-668.0 5:164.0 6:-250.0 7:380.0 8:-559.0 9:140.0 10:-23.0 11:71.0 
1.0 0:2420.0 1:578.0 2:-958.0 3:1078.0 4:-664.0 5:161.0 6:-248.0 7:380.0 8:-558.0 9:140.0 10:-23.0 11:72.0 
1.0 0:2394.0 1:586.0 2:-949.0 3:1060.0 4:-648.0 5:152.0 6:-243.0 7:376.0 8:-555.0 9:137.0 10:-22.0 11:73.0 
0.9112815271781323 0:2360.0 1:467.0 2:-987.0 3:1144.0 4:-706.0 5:154.0 6:-219.0 7:391.0 8:-551.0 9:156.0 10:3.0 11:50.0 
1.0 0:2309.0 1:466.0 2:-968.0 3:1119.0 4:-692.0 5:150.0 6:-215.0 7:382.0 8:-539.0 9:152.0 10:3.0 11:51.0 
0.4654104811777225 0:2360.0 1:467.0 2:-987.0 3:1144.0 4:-705.0 5:154.0 6:-219.0 7:391.0 8:-551.0 9:156.0 10:3.0 11:50.0 
1.0 0:2127.0 1:456.0 2:-899.0 3:1030.0 4:-639.0 5:138.0 6:-202.0 7:349.0 8:-501.0 9:136.0 10:4.0 11:57.0 
1.0 0:2357.0 1:468.0 2:-986.0 3:1142.0 4:-704.0 5:153.0 6:-218.0 7:391.0 8:-551.0 9:156.0 10:2.0 11:51.0 
1.0 0:2350.0 1:470.0 2:-983.0 3:1137.0 4:-699.0 5:150.0 6:-217.0 7:391.0 8:-550.0 9:156.0 10:2.0 11:51.0 
1.0 0:2319.0 1:480.0 2:-972.0 3:1115.0 4:-680.0 5:139.0 6:-212.0 7:387.0 8:-546.0 9:152.0 10:3.0 11:53.0 
1.0 0:2552.0 1:607.0 2:-1097.0 3:837.0 4:-772.0 5:144.0 6:-260.0 7:417.0 8:-464.0 9:236.0 10:-29.0 11:81.0 
1.0 0:2528.0 1:605.0 2:-1089.0 3:828.0 4:-767.0 5:144.0 6:-258.0 7:413.0 8:-460.0 9:233.0 10:-27.0 11:81.0 
0.10577201530237501 0:2551.0 1:607.0 2:-1097.0 3:837.0 4:-772.0 5:144.0 6:-260.0 7:417.0 8:-464.0 9:236.0 10:-29.0 11:81.0 
1.0 0:2442.0 1:597.0 2:-1060.0 3:795.0 4:-744.0 5:139.0 6:-250.0 7:399.0 8:-445.0 9:227.0 10:-26.0 11:79.0 
1.0 0:2549.0 1:608.0 2:-1096.0 3:836.0 4:-771.0 5:144.0 6:-260.0 7:417.0 8:-464.0 9:236.0 10:-28.0 11:81.0 
1.0 0:2543.0 1:610.0 2:-1094.0 3:831.0 4:-766.0 5:141.0 6:-259.0 7:417.0 8:-463.0 9:235.0 10:-28.0 11:81.0 
1.0 0:2510.0 1:620.0 2:-1082.0 3:809.0 4:-747.0 5:130.0 6:-254.0 7:413.0 8:-459.0 9:231.0 10:-27.0 11:84.0 
0.7960402107878596 0:2542.0 1:531.0 2:-1174.0 3:828.0 4:-829.0 5:139.0 6:-247.0 7:438.0 8:-451.0 9:270.0 10:0.0 11:84.0 
1.0 0:2523.0 1:530.0 2:-1168.0 3:821.0 4:-824.0 5:138.0 6:-246.0 7:434.0 8:-449.0 9:268.0 10:0.0 11:84.0 
0.4601292205555503 0:2542.0 1:531.0 2:-1174.0 3:828.0 4:-829.0 5:139.0 6:-248.0 7:438.0 8:-451.0 9:269.0 10:0.0 11:84.0 
1.0 0:2419.0 1:523.0 2:-1130.0 3:782.0 4:-796.0 5:130.0 6:-237.0 7:416.0 8:-431.0 9:259.0 10:0.0 11:83.0 
1.0 0:2540.0 1:532.0 2:-1173.0 3:826.0 4:-828.0 5:138.0 6:-248.0 7:438.0 8:-451.0 9:269.0 10:0.0 11:84.0 
1.0 0:2532.0 1:534.0 2:-1170.0 3:821.0 4:-823.0 5:136.0 6:-247.0 7:438.0 8:-451.0 9:268.0 10:0.0 11:84.0 
1.0 0:2500.0 1:544.0 2:-1158.0 3:799.0 4:-804.0 5:124.0 6:-242.0 7:434.0 8:-446.0 9:264.0 10:0.0 11:86.0 
0.923410419844259 0:2532.0 1:489.0 2:-1214.0 3:838.0 4:-829.0 5:153.0 6:-236.0 7:440.0 8:-452.0 9:303.0 10:39.0 11:90.0 
1.0 0:2511.0 1:486.0 2:-1206.0 3:830.0 4:-824.0 5:153.0 6:-235.0 7:435.0 8:-447.0 9:300.0 10:39.0 11:90.0 
0.40983717211022935 0:2532.0 1:489.0 2:-1214.0 3:837.0 4:-829.0 5:153.0 6:-236.0 7:439.0 8:-452.0 9:303.0 10:39.0 11:90.0 
1.0 0:2412.0 1:482.0 2:-1168.0 3:789.0 4:-793.0 5:144.0 6:-229.0 7:417.0 8:-429.0 9:291.0 10:38.0 11:91.0 
1.0 0:2530.0 1:490.0 2:-1213.0 3:836.0 4:-827.0 5:152.0 6:-236.0 7:439.0 8:-451.0 9:303.0 10:38.0 11:90.0 
1.0 0:2521.0 1:492.0 2:-1210.0 3:830.0 4:-822.0 5:149.0 6:-234.0 7:439.0 8:-451.0 9:303.0 10:38.0 11:91.0 
1.0 0:2486.0 1:503.0 2:-1197.0 3:806.0 4:-800.0 5:136.0 6:-229.0 7:435.0 8:-446.0 9:298.0 10:40.0 11:93.0 
1.0 0:2479.0 1:456.0 2:-1217.0 3:811.0 4:-827.0 5:150.0 6:-235.0 7:427.0 8:-448.0 9:301.0 10:44.0 11:92.0 
1.0 0:2454.0 1:451.0 2:-1208.0 3:802.0 4:-821.0 5:149.0 6:-233.0 7:422.0 8:-442.0 9:298.0 10:44.0 11:92.0 
0.3708535938226139 0:2478.0 1:456.0 2:-1217.0 3:810.0 4:-827.0 5:150.0 6:-235.0 7:427.0 8:-448.0 9:301.0 10:44.0 11:92.0 
1.0 0:2370.0 1:447.0 2:-1178.0 3:767.0 4:-796.0 5:142.0 6:-228.0 7:407.0 8:-426.0 9:289.0 10:44.0 11:93.0 
1.0 0:2476.0 1:457.0 2:-1216.0 3:809.0 4:-825.0 5:149.0 6:-235.0 7:426.0 8:-447.0 9:300.0 10:44.0 11:92.0 
1.0 0:2468.0 1:460.0 2:-1213.0 3:803.0 4:-820.0 5:146.0 6:-233.0 7:426.0 8:-447.0 9:300.0 10:44.0 11:93.0 
1.0 0:2433.0 1:471.0 2:-1201.0 3:780.0 4:-799.0 5:133.0 6:-227.0 7:421.0 8:-442.0 9:296.0 10:45.0 11:95.0 
0.997061360801219 0:2405.0 1:426.0 2:-1180.0 3:816.0 4:-825.0 5:107.0 6:-259.0 7:393.0 8:-458.0 9:255.0 10:33.0 11:81.0 
1.0 0:2381.0 1:421.0 2:-1172.0 3:808.0 4:-819.0 5:106.0 6:-257.0 7:388.0 8:-453.0 9:252.0 10:33.0 11:80.0 
0.7792387996884167 0:2404.0 1:426.0 2:-1179.0 3:815.0 4:-824.0 5:106.0 6:-259.0 7:393.0 8:-458.0 9:255.0 10:32.0 11:81.0 
1.0 0:2300.0 1:417.0 2:-1142.0 3:774.0 4:-794.0 5:99.0 6:-252.0 7:375.0 8:-438.0 9:244.0 10:32.0 11:81.0 
1.0 0:2401.0 1:428.0 2:-1178.0 3:813.0 4:-822.0 5:105.0 6:-258.0 7:393.0 8:-459.0 9:255.0 10:32.0 11:81.0 
1.0 0:2391.0 1:431.0 2:-1174.0 3:806.0 4:-816.0 5:101.0 6:-256.0 7:392.0 8:-458.0 9:255.0 10:32.0 11:82.0 
1.0 0:2353.0 1:442.0 2:-1161.0 3:781.0 4:-793.0 5:88.0 6:-250.0 7:388.0 8:-452.0 9:250.0 10:33.0 11:84.0 
1.0 0:1781.0 1:1194.0 2:-810.0 3:848.0 4:-665.0 5:485.0 6:-270.0 7:172.0 8:-157.0 9:138.0 10:-46.0 11:156.0 
1.0 0:1771.0 1:1192.0 2:-808.0 3:842.0 4:-661.0 5:481.0 6:-269.0 7:173.0 8:-157.0 9:139.0 10:-46.0 11:157.0 
1.0 0:1769.0 1:1197.0 2:-805.0 3:838.0 4:-656.0 5:480.0 6:-268.0 7:174.0 8:-160.0 9:140.0 10:-47.0 11:157.0 
1.0 0:1750.0 1:1188.0 2:-803.0 3:830.0 4:-652.0 5:476.0 6:-267.0 7:174.0 8:-159.0 9:139.0 10:-46.0 11:158.0 
1.0 0:1730.0 1:1206.0 2:-786.0 3:805.0 4:-624.0 5:462.0 6:-266.0 7:180.0 8:-167.0 9:146.0 10:-50.0 11:160.0 
1.0 0:1654.0 1:1222.0 2:-748.0 3:740.0 4:-568.0 5:432.0 6:-262.0 7:190.0 8:-179.0 9:154.0 10:-55.0 11:166.0 
1.0 0:1495.0 1:1246.0 2:-660.0 3:614.0 4:-468.0 5:385.0 6:-255.0 7:202.0 8:-191.0 9:163.0 10:-62.0 11:178.0 
1.0 0:1798.0 1:1170.0 2:-838.0 3:857.0 4:-643.0 5:437.0 6:-303.0 7:200.0 8:-173.0 9:126.0 10:-39.0 11:163.0 
1.0 0:1784.0 1:1169.0 2:-834.0 3:847.0 4:-637.0 5:432.0 6:-302.0 7:201.0 8:-173.0 9:127.0 10:-39.0 11:164.0 
1.0 0:1779.0 1:1174.0 2:-829.0 3:841.0 4:-629.0 5:430.0 6:-301.0 7:200.0 8:-175.0 9:128.0 10:-40.0 11:164.0 
1.0 0:1759.0 1:1167.0 2:-827.0 3:833.0 4:-625.0 5:425.0 6:-299.0 7:201.0 8:-174.0 9:127.0 10:-40.0 11:166.0 
1.0 0:1718.0 1:1187.0 2:-799.0 3:794.0 4:-590.0 5:409.0 6:-295.0 7:202.0 8:-178.0 9:132.0 10:-44.0 11:169.0 
1.0 0:1608.0 1:1207.0 2:-742.0 3:709.0 4:-523.0 5:376.0 6:-286.0 7:202.0 8:-181.0 9:136.0 10:-50.0 11:176.0 
1.0 0:1398.0 1:1231.0 2:-622.0 3:556.0 4:-417.0 5:329.0 6:-270.0 7:196.0 8:-179.0 9:142.0 10:-59.0 11:187.0 
1.0 0:1873.0 1:1178.0 2:-833.0 3:887.0 4:-553.0 5:407.0 6:-334.0 7:274.0 8:-222.0 9:133.0 10:-38.0 11:161.0 
1.0 0:1857.0 1:1177.0 2:-827.0 3:876.0 4:-547.0 5:402.0 6:-332.0 7:274.0 8:-221.0 9:134.0 10:-38.0 11:162.0 
1.0 0:1851.0 1:1182.0 2:-822.0 3:870.0 4:-540.0 5:401.0 6:-331.0 7:272.0 8:-221.0 9:134.0 10:-40.0 11:163.0 
1.0 0:1829.0 1:1175.0 2:-818.0 3:859.0 4:-534.0 5:396.0 6:-329.0 7:272.0 8:-220.0 9:133.0 10:-39.0 11:165.0 
1.0 0:1780.0 1:1195.0 2:-787.0 3:820.0 4:-502.0 5:383.0 6:-322.0 7:265.0 8:-215.0 9:134.0 10:-45.0 11:169.0 
1.0 0:1656.0 1:1215.0 2:-722.0 3:733.0 4:-442.0 5:355.0 6:-307.0 7:249.0 8:-202.0 9:132.0 10:-52.0 11:177.0 
1.0 0:1426.0 1:1235.0 2:-590.0 3:581.0 4:-351.0 5:317.0 6:-280.0 7:218.0 8:-180.0 9:132.0 10:-62.0 11:186.0 
1.0 0:1932.0 1:1246.0 2:-776.0 3:859.0 4:-438.0 5:397.0 6:-370.0 7:325.0 8:-282.0 9:148.0 10:-55.0 11:179.0 
1.0 0:1908.0 1:1238.0 2:-770.0 3:847.0 4:-435.0 5:390.0 6:-367.0 7:322.0 8:-277.0 9:147.0 10:-54.0 11:179.0 
1.0 0:1913.0 1:1249.0 2:-767.0 3:846.0 4:-429.0 5:393.0 6:-367.0 7:321.0 8:-279.0 9:148.0 10:-57.0 11:180.0 
1.0 0:1865.0 1:1229.0 2:-765.0 3:829.0 4:-425.0 5:383.0 6:-361.0 7:316.0 8:-275.0 9:144.0 10:-53.0 11:180.0 
1.0 0:1855.0 1:1259.0 2:-739.0 3:808.0 4:-403.0 5:381.0 6:-358.0 7:309.0 8:-268.0 9:144.0 10:-60.0 11:185.0 
1.0 0:1752.0 1:1273.0 2:-686.0 3:743.0 4:-364.0 5:364.0 6:-342.0 7:286.0 8:-247.0 9:137.0 10:-65.0 11:191.0 
1.0 0:1555.0 1:1287.0 2:-574.0 3:624.0 4:-301.0 5:340.0 6:-312.0 7:242.0 8:-213.0 9:132.0 10:-74.0 11:197.0 
1.0 0:1994.0 1:1276.0 2:-760.0 3:828.0 4:-413.0 5:375.0 6:-413.0 7:345.0 8:-336.0 9:156.0 10:-83.0 11:194.0 
1.0 0:1973.0 1:1271.0 2:-754.0 3:817.0 4:-410.0 5:369.0 6:-411.0 7:342.0 8:-332.0 9:154.0 10:-81.0 11:194.0 
1.0 0:1975.0 1:1279.0 2:-751.0 3:816.0 4:-404.0 5:371.0 6:-410.0 7:341.0 8:-333.0 9:155.0 10:-84.0 11:196.0 
1.0 0:1940.0 1:1268.0 2:-746.0 3:803.0 4:-402.0 5:364.0 6:-405.0 7:337.0 8:-329.0 9:152.0 10:-82.0 11:195.0 
1.0 0:1919.0 1:1289.0 2:-724.0 3:779.0 4:-380.0 5:360.0 6:-401.0 7:329.0 8:-322.0 9:150.0 10:-87.0 11:201.0 
1.0 0:1819.0 1:1302.0 2:-673.0 3:717.0 4:-342.0 5:344.0 6:-386.0 7:306.0 8:-300.0 9:143.0 10:-92.0 11:207.0 
1.0 0:1629.0 1:1315.0 2:-564.0 3:603.0 4:-285.0 5:323.0 6:-356.0 7:260.0 8:-265.0 9:136.0 10:-100.0 11:211.0 
0.022746771781839537 0:1197.0 1:507.0 2:-218.0 3:995.0 4:-977.0 5:640.0 6:-286.0 7:-50.0 8:186.0 9:-78.0 10:114.0 11:188.0 
0.9960181426515649 0:1197.0 1:507.0 2:-218.0 3:995.0 4:-977.0 5:640.0 6:-286.0 7:-50.0 8:186.0 9:-78.0 10:114.0 11:188.0 
1.0 0:1196.0 1:508.0 2:-218.0 3:994.0 4:-976.0 5:639.0 6:-286.0 7:-49.0 8:185.0 9:-77.0 10:113.0 11:188.0 
1.0 0:1192.0 1:509.0 2:-217.0 3:990.0 4:-972.0 5:636.0 6:-284.0 7:-49.0 8:183.0 9:-75.0 10:111.0 11:189.0 
1.0 0:1173.0 1:517.0 2:-211.0 3:974.0 4:-952.0 5:621.0 6:-278.0 7:-46.0 8:174.0 9:-64.0 10:104.0 11:192.0 
0.1533204105042672 0:1226.0 1:475.0 2:-311.0 3:962.0 4:-982.0 5:616.0 6:-317.0 7:-56.0 8:149.0 9:-59.0 10:131.0 11:244.0 
1.0 0:1226.0 1:475.0 2:-311.0 3:962.0 4:-982.0 5:616.0 6:-317.0 7:-56.0 8:149.0 9:-59.0 10:131.0 11:244.0 
1.0 0:1224.0 1:476.0 2:-311.0 3:961.0 4:-980.0 5:615.0 6:-317.0 7:-56.0 8:148.0 9:-58.0 10:131.0 11:244.0 
1.0 0:1220.0 1:478.0 2:-309.0 3:958.0 4:-976.0 5:612.0 6:-315.0 7:-56.0 8:146.0 9:-56.0 10:129.0 11:245.0 
1.0 0:1199.0 1:486.0 2:-303.0 3:940.0 4:-955.0 5:595.0 6:-309.0 7:-52.0 8:136.0 9:-45.0 10:121.0 11:249.0 
0.6225380633469323 0:1204.0 1:396.0 2:-382.0 3:951.0 4:-976.0 5:608.0 6:-313.0 7:-72.0 8:117.0 9:-64.0 10:144.0 11:263.0 
0.15637354262822753 0:1204.0 1:396.0 2:-382.0 3:951.0 4:-976.0 5:608.0 6:-313.0 7:-72.0 8:117.0 9:-64.0 10:144.0 11:264.0 
0.1572207040683574 0:1204.0 1:397.0 2:-382.0 3:951.0 4:-976.0 5:608.0 6:-313.0 7:-72.0 8:117.0 9:-64.0 10:144.0 11:263.0 
0.1637404820404489 0:1204.0 1:397.0 2:-382.0 3:950.0 4:-976.0 5:608.0 6:-313.0 7:-72.0 8:117.0 9:-64.0 10:144.0 11:264.0 
0.8832568472040736 0:1203.0 1:397.0 2:-381.0 3:950.0 4:-975.0 5:608.0 6:-313.0 7:-72.0 8:117.0 9:-63.0 10:143.0 11:264.0 
1.0 0:1200.0 1:398.0 2:-380.0 3:947.0 4:-971.0 5:605.0 6:-312.0 7:-71.0 8:115.0 9:-61.0 10:142.0 11:264.0 
1.0 0:1182.0 1:405.0 2:-374.0 3:931.0 4:-953.0 5:591.0 6:-307.0 7:-68.0 8:106.0 9:-52.0 10:135.0 11:266.0 
0.9287813230341384 0:1192.0 1:351.0 2:-397.0 3:958.0 4:-1032.0 5:609.0 6:-315.0 7:-108.0 8:115.0 9:-79.0 10:161.0 11:257.0 
0.9156751589296984 0:1191.0 1:351.0 2:-397.0 3:958.0 4:-1031.0 5:608.0 6:-315.0 7:-107.0 8:115.0 9:-78.0 10:160.0 11:257.0 
1.0 0:1188.0 1:353.0 2:-396.0 3:955.0 4:-1027.0 5:606.0 6:-313.0 7:-107.0 8:113.0 9:-76.0 10:159.0 11:257.0 
1.0 0:1169.0 1:360.0 2:-390.0 3:939.0 4:-1008.0 5:591.0 6:-307.0 7:-104.0 8:104.0 9:-66.0 10:152.0 11:261.0 
1.0 0:1265.0 1:430.0 2:-358.0 3:990.0 4:-1003.0 5:619.0 6:-314.0 7:-122.0 8:96.0 9:-96.0 10:140.0 11:232.0 
0.2908040640415964 0:1265.0 1:430.0 2:-358.0 3:989.0 4:-1003.0 5:618.0 6:-314.0 7:-122.0 8:96.0 9:-96.0 10:140.0 11:232.0 
1.0 0:1263.0 1:431.0 2:-358.0 3:988.0 4:-1002.0 5:617.0 6:-313.0 7:-121.0 8:96.0 9:-95.0 10:139.0 11:232.0 
1.0 0:1259.0 1:433.0 2:-356.0 3:984.0 4:-997.0 5:614.0 6:-312.0 7:-120.0 8:93.0 9:-93.0 10:138.0 11:233.0 
1.0 0:1236.0 1:441.0 2:-348.0 3:964.0 4:-973.0 5:595.0 6:-305.0 7:-116.0 8:82.0 9:-80.0 10:129.0 11:236.0 
1.0 0:1196.0 1:257.0 2:-717.0 3:1166.0 4:-982.0 5:461.0 6:-182.0 7:134.0 8:113.0 9:150.0 10:167.0 11:142.0 
1.0 0:1192.0 1:259.0 2:-715.0 3:1163.0 4:-978.0 5:459.0 6:-182.0 7:135.0 8:112.0 9:151.0 10:166.0 11:143.0 
1.0 0:1188.0 1:260.0 2:-713.0 3:1159.0 4:-974.0 5:456.0 6:-181.0 7:135.0 8:110.0 9:153.0 10:165.0 11:143.0 
1.0 0:1186.0 1:261.0 2:-712.0 3:1157.0 4:-972.0 5:454.0 6:-181.0 7:136.0 8:109.0 9:154.0 10:165.0 11:144.0 
1.0 0:1156.0 1:271.0 2:-701.0 3:1131.0 4:-944.0 5:435.0 6:-174.0 7:141.0 8:99.0 9:164.0 10:158.0 11:148.0 
1.0 0:1085.0 1:294.0 2:-671.0 3:1069.0 4:-879.0 5:392.0 6:-161.0 7:153.0 8:76.0 9:186.0 10:142.0 11:157.0 
1.0 0:915.0 1:345.0 2:-599.0 3:922.0 4:-731.0 5:300.0 6:-137.0 7:179.0 8:30.0 9:225.0 10:115.0 11:177.0 
1.0 0:1143.0 1:304.0 2:-718.0 3:1136.0 4:-1015.0 5:408.0 6:-172.0 7:164.0 8:143.0 9:226.0 10:191.0 11:115.0 
1.0 0:1138.0 1:305.0 2:-716.0 3:1132.0 4:-1010.0 5:405.0 6:-171.0 7:165.0 8:141.0 9:228.0 10:190.0 11:115.0 
1.0 0:1132.0 1:307.0 2:-713.0 3:1127.0 4:-1005.0 5:402.0 6:-171.0 7:166.0 8:139.0 9:230.0 10:189.0 11:116.0 
1.0 0:1130.0 1:308.0 2:-712.0 3:1124.0 4:-1003.0 5:400.0 6:-170.0 7:167.0 8:138.0 9:231.0 10:188.0 11:116.0 
1.0 0:1094.0 1:319.0 2:-697.0 3:1093.0 4:-971.0 5:380.0 6:-165.0 7:174.0 8:127.0 9:241.0 10:181.0 11:120.0 
1.0 0:1012.0 1:343.0 2:-661.0 3:1020.0 4:-898.0 5:334.0 6:-154.0 7:189.0 8:103.0 9:262.0 10:167.0 11:129.0 
1.0 0:827.0 1:395.0 2:-578.0 3:862.0 4:-746.0 5:245.0 6:-133.0 7:215.0 8:63.0 9:294.0 10:144.0 11:150.0 
1.0 0:1148.0 1:403.0 2:-746.0 3:1096.0 4:-1082.0 5:380.0 6:-173.0 7:203.0 8:179.0 9:319.0 10:184.0 11:83.0 
1.0 0:1143.0 1:405.0 2:-744.0 3:1091.0 4:-1077.0 5:377.0 6:-173.0 7:204.0 8:177.0 9:321.0 10:183.0 11:83.0 
1.0 0:1137.0 1:407.0 2:-741.0 3:1085.0 4:-1072.0 5:373.0 6:-172.0 7:206.0 8:175.0 9:323.0 10:182.0 11:84.0 
1.0 0:1134.0 1:408.0 2:-740.0 3:1083.0 4:-1069.0 5:372.0 6:-171.0 7:206.0 8:174.0 9:324.0 10:181.0 11:84.0 
1.0 0:1093.0 1:420.0 2:-721.0 3:1046.0 4:-1032.0 5:348.0 6:-166.0 7:215.0 8:161.0 9:335.0 10:174.0 11:89.0 
1.0 0:998.0 1:448.0 2:-679.0 3:962.0 4:-950.0 5:298.0 6:-155.0 7:232.0 8:135.0 9:356.0 10:160.0 11:99.0 
1.0 0:788.0 1:503.0 2:-583.0 3:785.0 4:-783.0 5:205.0 6:-137.0 7:261.0 8:95.0 9:385.0 10:141.0 11:118.0 
1.0 0:1152.0 1:490.0 2:-777.0 3:1020.0 4:-1173.0 5:329.0 6:-144.0 7:254.0 8:221.0 9:415.0 10:185.0 11:26.0 
1.0 0:1146.0 1:492.0 2:-774.0 3:1015.0 4:-1168.0 5:326.0 6:-144.0 7:255.0 8:219.0 9:417.0 10:184.0 11:27.0 
1.0 0:1139.0 1:494.0 2:-771.0 3:1009.0 4:-1162.0 5:322.0 6:-143.0 7:257.0 8:217.0 9:418.0 10:183.0 11:28.0 
1.0 0:1136.0 1:495.0 2:-770.0 3:1006.0 4:-1159.0 5:321.0 6:-143.0 7:257.0 8:216.0 9:419.0 10:182.0 11:28.0 
1.0 0:1092.0 1:508.0 2:-750.0 3:966.0 4:-1120.0 5:297.0 6:-138.0 7:267.0 8:202.0 9:430.0 10:176.0 11:32.0 
1.0 0:989.0 1:537.0 2:-702.0 3:875.0 4:-1031.0 5:245.0 6:-129.0 7:286.0 8:176.0 9:450.0 10:164.0 11:41.0 
1.0 0:759.0 1:594.0 2:-595.0 3:682.0 4:-855.0 5:152.0 6:-114.0 7:317.0 8:139.0 9:471.0 10:152.0 11:60.0 
1.0 0:1174.0 1:543.0 2:-774.0 3:1017.0 4:-1217.0 5:306.0 6:-130.0 7:280.0 8:248.0 9:460.0 10:200.0 11:0.0 
1.0 0:1167.0 1:544.0 2:-771.0 3:1011.0 4:-1211.0 5:303.0 6:-129.0 7:282.0 8:245.0 9:462.0 10:199.0 11:0.0 
1.0 0:1160.0 1:547.0 2:-768.0 3:1004.0 4:-1204.0 5:299.0 6:-128.0 7:283.0 8:243.0 9:464.0 10:198.0 11:1.0 
1.0 0:1157.0 1:547.0 2:-766.0 3:1001.0 4:-1201.0 5:297.0 6:-129.0 7:284.0 8:242.0 9:465.0 10:198.0 11:1.0 
1.0 0:1109.0 1:562.0 2:-744.0 3:958.0 4:-1158.0 5:271.0 6:-124.0 7:295.0 8:227.0 9:476.0 10:192.0 11:5.0 
1.0 0:996.0 1:593.0 2:-692.0 3:858.0 4:-1063.0 5:216.0 6:-115.0 7:316.0 8:199.0 9:496.0 10:180.0 11:15.0 
1.0 0:751.0 1:653.0 2:-577.0 3:653.0 4:-878.0 5:119.0 6:-101.0 7:348.0 8:163.0 9:515.0 10:169.0 11:34.0 
1.0 0:1354.0 1:440.0 2:-688.0 3:1151.0 4:-911.0 5:836.0 6:-153.0 7:114.0 8:112.0 9:-135.0 10:59.0 11:38.0 
1.0 0:1351.0 1:441.0 2:-687.0 3:1148.0 4:-907.0 5:834.0 6:-152.0 7:115.0 8:111.0 9:-133.0 10:57.0 11:39.0 
1.0 0:1348.0 1:442.0 2:-686.0 3:1145.0 4:-904.0 5:831.0 6:-150.0 7:115.0 8:109.0 9:-132.0 10:56.0 11:39.0 
1.0 0:1346.0 1:443.0 2:-686.0 3:1144.0 4:-902.0 5:829.0 6:-150.0 7:115.0 8:108.0 9:-131.0 10:55.0 11:40.0 
1.0 0:1322.0 1:453.0 2:-678.0 3:1123.0 4:-877.0 5:810.0 6:-142.0 7:119.0 8:97.0 9:-118.0 10:46.0 11:44.0 
1.0 0:1262.0 1:475.0 2:-657.0 3:1072.0 4:-817.0 5:764.0 6:-124.0 7:129.0 8:70.0 9:-88.0 10:25.0 11:53.0 
1.0 0:1112.0 1:530.0 2:-603.0 3:943.0 4:-671.0 5:658.0 6:-85.0 7:154.0 8:10.0 9:-25.0 10:-18.0 11:73.0 
1.0 0:1424.0 1:511.0 2:-677.0 3:1142.0 4:-901.0 5:841.0 6:-146.0 7:140.0 8:69.0 9:-110.0 10:50.0 11:57.0 
1.0 0:1420.0 1:513.0 2:-676.0 3:1139.0 4:-898.0 5:838.0 6:-145.0 7:141.0 8:67.0 9:-108.0 10:48.0 11:58.0 
1.0 0:1416.0 1:514.0 2:-674.0 3:1136.0 4:-893.0 5:835.0 6:-143.0 7:141.0 8:65.0 9:-106.0 10:46.0 11:59.0 
1.0 0:1414.0 1:515.0 2:-674.0 3:1134.0 4:-891.0 5:833.0 6:-143.0 7:141.0 8:64.0 9:-105.0 10:46.0 11:59.0 
1.0 0:1387.0 1:526.0 2:-665.0 3:1111.0 4:-864.0 5:811.0 6:-134.0 7:145.0 8:52.0 9:-91.0 10:35.0 11:64.0 
1.0 0:1321.0 1:551.0 2:-643.0 3:1055.0 4:-798.0 5:761.0 6:-114.0 7:156.0 8:23.0 9:-59.0 10:12.0 11:74.0 
1.0 0:1163.0 1:608.0 2:-585.0 3:919.0 4:-645.0 5:651.0 6:-74.0 7:182.0 8:-39.0 9:5.0 10:-32.0 11:94.0 
1.0 0:1430.0 1:523.0 2:-674.0 3:1110.0 4:-890.0 5:818.0 6:-161.0 7:151.0 8:63.0 9:-99.0 10:43.0 11:67.0 
1.0 0:1427.0 1:524.0 2:-673.0 3:1107.0 4:-886.0 5:815.0 6:-160.0 7:151.0 8:61.0 9:-97.0 10:42.0 11:68.0 
1.0 0:1423.0 1:525.0 2:-671.0 3:1104.0 4:-882.0 5:812.0 6:-158.0 7:152.0 8:59.0 9:-95.0 10:40.0 11:68.0 
1.0 0:1421.0 1:526.0 2:-671.0 3:1102.0 4:-881.0 5:811.0 6:-158.0 7:152.0 8:59.0 9:-94.0 10:39.0 11:69.0 
1.0 0:1396.0 1:536.0 2:-662.0 3:1080.0 4:-854.0 5:791.0 6:-149.0 7:156.0 8:47.0 9:-81.0 10:30.0 11:73.0 
1.0 0:1334.0 1:560.0 2:-641.0 3:1027.0 4:-792.0 5:743.0 6:-131.0 7:166.0 8:20.0 9:-51.0 10:8.0 11:83.0 
1.0 0:1181.0 1:615.0 2:-587.0 3:897.0 4:-645.0 5:637.0 6:-92.0 7:191.0 8:-39.0 9:11.0 10:-34.0 11:103.0 
1.0 0:1406.0 1:387.0 2:-690.0 3:1127.0 4:-910.0 5:770.0 6:-180.0 7:102.0 8:83.0 9:-118.0 10:65.0 11:52.0 
1.0 0:1402.0 1:388.0 2:-689.0 3:1123.0 4:-906.0 5:768.0 6:-179.0 7:102.0 8:81.0 9:-116.0 10:64.0 11:53.0 
1.0 0:1398.0 1:390.0 2:-688.0 3:1120.0 4:-902.0 5:764.0 6:-178.0 7:103.0 8:79.0 9:-114.0 10:62.0 11:54.0 
1.0 0:1396.0 1:390.0 2:-687.0 3:1118.0 4:-900.0 5:763.0 6:-177.0 7:104.0 8:78.0 9:-113.0 10:62.0 11:54.0 
1.0 0:1371.0 1:400.0 2:-679.0 3:1097.0 4:-875.0 5:743.0 6:-169.0 7:108.0 8:66.0 9:-100.0 10:52.0 11:58.0 
1.0 0:1314.0 1:422.0 2:-659.0 3:1048.0 4:-817.0 5:700.0 6:-152.0 7:117.0 8:41.0 9:-72.0 10:32.0 11:67.0 
1.0 0:1178.0 1:471.0 2:-610.0 3:932.0 4:-686.0 5:605.0 6:-118.0 7:140.0 8:-12.0 9:-16.0 10:-5.0 11:84.0 
1.0 0:1478.0 1:325.0 2:-852.0 3:971.0 4:-936.0 5:670.0 6:-215.0 7:129.0 8:57.0 9:-29.0 10:83.0 11:100.0 
1.0 0:1476.0 1:326.0 2:-851.0 3:969.0 4:-934.0 5:669.0 6:-214.0 7:129.0 8:56.0 9:-28.0 10:82.0 11:100.0 
0.8929101167654397 0:1473.0 1:327.0 2:-850.0 3:967.0 4:-931.0 5:667.0 6:-213.0 7:130.0 8:55.0 9:-27.0 10:81.0 11:101.0 
0.9856659370093556 0:1472.0 1:328.0 2:-850.0 3:966.0 4:-930.0 5:666.0 6:-213.0 7:130.0 8:54.0 9:-26.0 10:81.0 11:101.0 
1.0 0:1456.0 1:334.0 2:-845.0 3:952.0 4:-914.0 5:653.0 6:-207.0 7:132.0 8:47.0 9:-18.0 10:75.0 11:104.0 
1.0 0:1417.0 1:349.0 2:-831.0 3:918.0 4:-874.0 5:623.0 6:-195.0 7:139.0 8:30.0 9:0.0 10:61.0 11:110.0 
1.0 0:1310.0 1:388.0 2:-793.0 3:827.0 4:-771.0 5:548.0 6:-168.0 7:156.0 8:-11.0 9:44.0 10:30.0 11:124.0 
0.05732158224199655 0:1107.0 1:1264.0 2:-468.0 3:888.0 4:-451.0 5:602.0 6:-293.0 7:380.0 8:-199.0 9:435.0 10:-84.0 11:374.0 
1.0 0:1072.0 1:1263.0 2:-456.0 3:874.0 4:-434.0 5:594.0 6:-292.0 7:377.0 8:-198.0 9:435.0 10:-84.0 11:369.0 
1.0 0:1107.0 1:1264.0 2:-468.0 3:888.0 4:-451.0 5:602.0 6:-293.0 7:380.0 8:-199.0 9:435.0 10:-84.0 11:374.0 
1.0 0:962.0 1:1259.0 2:-425.0 3:827.0 4:-386.0 5:575.0 6:-288.0 7:365.0 8:-195.0 9:432.0 10:-84.0 11:357.0 
0.42117473427852187 0:1106.0 1:1264.0 2:-467.0 3:888.0 4:-450.0 5:601.0 6:-293.0 7:380.0 8:-199.0 9:436.0 10:-84.0 11:374.0 
1.0 0:1105.0 1:1265.0 2:-467.0 3:886.0 4:-449.0 5:600.0 6:-292.0 7:380.0 8:-200.0 9:436.0 10:-85.0 11:374.0 
1.0 0:1094.0 1:1267.0 2:-462.0 3:880.0 4:-442.0 5:596.0 6:-290.0 7:381.0 8:-201.0 9:437.0 10:-85.0 11:375.0 
1.0 0:983.0 1:1284.0 2:-365.0 3:906.0 4:-420.0 5:583.0 6:-257.0 7:403.0 8:-215.0 9:401.0 10:-105.0 11:382.0 
0.9238581498734921 0:1016.0 1:1286.0 2:-375.0 3:919.0 4:-435.0 5:590.0 6:-258.0 7:407.0 8:-216.0 9:402.0 10:-105.0 11:387.0 
1.0 0:880.0 1:1280.0 2:-335.0 3:865.0 4:-378.0 5:566.0 6:-254.0 7:389.0 8:-212.0 9:397.0 10:-104.0 11:369.0 
0.9251049545768046 0:1014.0 1:1286.0 2:-375.0 3:918.0 4:-434.0 5:590.0 6:-258.0 7:407.0 8:-216.0 9:402.0 10:-105.0 11:387.0 
1.0 0:1006.0 1:1287.0 2:-371.0 3:912.0 4:-430.0 5:587.0 6:-257.0 7:407.0 8:-217.0 9:403.0 10:-105.0 11:387.0 
0.929951091475721 0:1076.0 1:1190.0 2:-474.0 3:965.0 4:-502.0 5:550.0 6:-279.0 7:367.0 8:-224.0 9:360.0 10:-78.0 11:426.0 
1.0 0:987.0 1:1180.0 2:-444.0 3:918.0 4:-477.0 5:534.0 6:-267.0 7:362.0 8:-216.0 9:352.0 10:-78.0 11:409.0 
1.0 0:801.0 1:1158.0 2:-390.0 3:832.0 4:-419.0 5:500.0 6:-250.0 7:347.0 8:-205.0 9:342.0 10:-76.0 11:386.0 
0.4159324909007497 0:1076.0 1:1190.0 2:-474.0 3:964.0 4:-501.0 5:550.0 6:-280.0 7:367.0 8:-224.0 9:360.0 10:-78.0 11:426.0 
1.0 0:1074.0 1:1191.0 2:-473.0 3:963.0 4:-500.0 5:549.0 6:-279.0 7:368.0 8:-225.0 9:360.0 10:-78.0 11:426.0 
1.0 0:1064.0 1:1193.0 2:-469.0 3:956.0 4:-494.0 5:545.0 6:-278.0 7:369.0 8:-226.0 9:361.0 10:-78.0 11:426.0 
0.015312250518678199 0:1089.0 1:1256.0 2:-474.0 3:973.0 4:-477.0 5:534.0 6:-302.0 7:375.0 8:-243.0 9:347.0 10:-109.0 11:424.0 
1.0 0:1000.0 1:1243.0 2:-444.0 3:926.0 4:-453.0 5:519.0 6:-289.0 7:370.0 8:-234.0 9:339.0 10:-109.0 11:407.0 
1.0 0:1089.0 1:1256.0 2:-474.0 3:973.0 4:-477.0 5:534.0 6:-302.0 7:375.0 8:-243.0 9:347.0 10:-109.0 11:424.0 
1.0 0:856.0 1:1222.0 2:-401.0 3:853.0 4:-414.0 5:494.0 6:-271.0 7:363.0 8:-223.0 9:328.0 10:-108.0 11:387.0 
0.1302901411886119 0:1089.0 1:1256.0 2:-474.0 3:973.0 4:-476.0 5:533.0 6:-302.0 7:375.0 8:-243.0 9:347.0 10:-109.0 11:424.0 
1.0 0:1087.0 1:1256.0 2:-473.0 3:972.0 4:-475.0 5:533.0 6:-301.0 7:375.0 8:-243.0 9:347.0 10:-109.0 11:424.0 
1.0 0:1078.0 1:1258.0 2:-469.0 3:965.0 4:-470.0 5:529.0 6:-300.0 7:376.0 8:-245.0 9:348.0 10:-109.0 11:424.0 
1.0 0:993.0 1:1324.0 2:-432.0 3:936.0 4:-352.0 5:547.0 6:-341.0 7:362.0 8:-258.0 9:355.0 10:-151.0 11:419.0 
0.7626858949303459 0:1070.0 1:1341.0 2:-457.0 3:977.0 4:-367.0 5:559.0 6:-356.0 7:364.0 8:-268.0 9:364.0 10:-153.0 11:433.0 
1.0 0:873.0 1:1296.0 2:-398.0 3:874.0 4:-325.0 5:527.0 6:-320.0 7:358.0 8:-247.0 9:340.0 10:-149.0 11:399.0 
0.28731147589403183 0:1070.0 1:1341.0 2:-457.0 3:977.0 4:-367.0 5:559.0 6:-356.0 7:365.0 8:-268.0 9:364.0 10:-153.0 11:433.0 
0.9852193902420997 0:1068.0 1:1341.0 2:-457.0 3:976.0 4:-366.0 5:558.0 6:-355.0 7:365.0 8:-268.0 9:364.0 10:-153.0 11:433.0 
1.0 0:1059.0 1:1342.0 2:-452.0 3:969.0 4:-361.0 5:555.0 6:-355.0 7:366.0 8:-269.0 9:365.0 10:-153.0 11:433.0 
1.0 0:802.0 1:342.0 2:-886.0 3:942.0 4:-1476.0 5:176.0 6:-233.0 7:311.0 8:361.0 9:462.0 10:306.0 11:-19.0 
1.0 0:791.0 1:346.0 2:-882.0 3:933.0 4:-1466.0 5:169.0 6:-231.0 7:313.0 8:357.0 9:465.0 10:304.0 11:-18.0 
1.0 0:781.0 1:350.0 2:-877.0 3:923.0 4:-1455.0 5:162.0 6:-229.0 7:316.0 8:352.0 9:470.0 10:301.0 11:-16.0 
1.0 0:775.0 1:351.0 2:-875.0 3:918.0 4:-1450.0 5:158.0 6:-229.0 7:317.0 8:350.0 9:471.0 10:300.0 11:-16.0 
1.0 0:707.0 1:373.0 2:-846.0 3:856.0 4:-1385.0 5:116.0 6:-217.0 7:331.0 8:325.0 9:495.0 10:284.0 11:-8.0 
1.0 0:564.0 1:416.0 2:-783.0 3:728.0 4:-1257.0 5:37.0 6:-199.0 7:359.0 8:280.0 9:534.0 10:259.0 11:4.0 
1.0 0:294.0 1:484.0 2:-660.0 3:498.0 4:-1042.0 5:-78.0 6:-178.0 7:395.0 8:230.0 9:570.0 10:236.0 11:24.0 
1.0 0:964.0 1:391.0 2:-861.0 3:1017.0 4:-1417.0 5:249.0 6:-223.0 7:291.0 8:298.0 9:457.0 10:340.0 11:-10.0 
1.0 0:953.0 1:395.0 2:-857.0 3:1007.0 4:-1407.0 5:242.0 6:-221.0 7:293.0 8:293.0 9:462.0 10:337.0 11:-9.0 
1.0 0:943.0 1:399.0 2:-853.0 3:998.0 4:-1396.0 5:235.0 6:-219.0 7:295.0 8:289.0 9:466.0 10:334.0 11:-8.0 
1.0 0:936.0 1:401.0 2:-850.0 3:992.0 4:-1391.0 5:231.0 6:-218.0 7:296.0 8:286.0 9:468.0 10:333.0 11:-7.0 
1.0 0:871.0 1:422.0 2:-823.0 3:933.0 4:-1328.0 5:189.0 6:-206.0 7:310.0 8:261.0 9:493.0 10:317.0 11:0.0 
1.0 0:731.0 1:464.0 2:-762.0 3:810.0 4:-1203.0 5:110.0 6:-187.0 7:336.0 8:217.0 9:532.0 10:291.0 11:13.0 
1.0 0:459.0 1:533.0 2:-638.0 3:582.0 4:-989.0 5:-8.0 6:-165.0 7:371.0 8:168.0 9:570.0 10:266.0 11:31.0 
1.0 0:959.0 1:360.0 2:-825.0 3:1038.0 4:-1388.0 5:310.0 6:-234.0 7:246.0 8:293.0 9:425.0 10:351.0 11:21.0 
1.0 0:950.0 1:363.0 2:-821.0 3:1030.0 4:-1380.0 5:304.0 6:-233.0 7:247.0 8:289.0 9:428.0 10:349.0 11:22.0 
1.0 0:941.0 1:366.0 2:-818.0 3:1022.0 4:-1371.0 5:298.0 6:-231.0 7:249.0 8:285.0 9:432.0 10:346.0 11:23.0 
1.0 0:936.0 1:367.0 2:-816.0 3:1018.0 4:-1367.0 5:295.0 6:-230.0 7:250.0 8:283.0 9:434.0 10:345.0 11:23.0 
1.0 0:878.0 1:387.0 2:-792.0 3:966.0 4:-1311.0 5:257.0 6:-219.0 7:262.0 8:261.0 9:456.0 10:330.0 11:30.0 
1.0 0:749.0 1:427.0 2:-738.0 3:852.0 4:-1194.0 5:182.0 6:-199.0 7:286.0 8:217.0 9:495.0 10:305.0 11:42.0 
1.0 0:491.0 1:496.0 2:-624.0 3:635.0 4:-983.0 5:59.0 6:-173.0 7:323.0 8:162.0 9:541.0 10:276.0 11:60.0 
1.0 0:1066.0 1:318.0 2:-824.0 3:1000.0 4:-1337.0 5:356.0 6:-268.0 7:179.0 8:250.0 9:306.0 10:298.0 11:60.0 
1.0 0:1057.0 1:321.0 2:-821.0 3:992.0 4:-1329.0 5:350.0 6:-266.0 7:181.0 8:247.0 9:309.0 10:296.0 11:60.0 
1.0 0:1049.0 1:324.0 2:-817.0 3:984.0 4:-1320.0 5:344.0 6:-264.0 7:183.0 8:243.0 9:313.0 10:293.0 11:62.0 
1.0 0:1044.0 1:326.0 2:-815.0 3:980.0 4:-1316.0 5:341.0 6:-263.0 7:183.0 8:241.0 9:315.0 10:292.0 11:62.0 
1.0 0:989.0 1:345.0 2:-794.0 3:931.0 4:-1263.0 5:305.0 6:-252.0 7:195.0 8:219.0 9:337.0 10:277.0 11:68.0 
1.0 0:872.0 1:382.0 2:-745.0 3:828.0 4:-1154.0 5:233.0 6:-232.0 7:217.0 8:177.0 9:376.0 10:252.0 11:80.0 
1.0 0:641.0 1:447.0 2:-646.0 3:632.0 4:-960.0 5:115.0 6:-204.0 7:252.0 8:120.0 9:423.0 10:222.0 11:97.0 
1.0 0:1170.0 1:338.0 2:-803.0 3:998.0 4:-1253.0 5:339.0 6:-315.0 7:103.0 8:172.0 9:236.0 10:239.0 11:95.0 
1.0 0:1163.0 1:340.0 2:-800.0 3:992.0 4:-1246.0 5:333.0 6:-313.0 7:105.0 8:169.0 9:239.0 10:237.0 11:96.0 
1.0 0:1156.0 1:343.0 2:-797.0 3:985.0 4:-1238.0 5:328.0 6:-312.0 7:106.0 8:166.0 9:242.0 10:235.0 11:96.0 
1.0 0:1152.0 1:344.0 2:-796.0 3:981.0 4:-1235.0 5:326.0 6:-311.0 7:107.0 8:164.0 9:244.0 10:234.0 11:97.0 
1.0 0:1103.0 1:361.0 2:-776.0 3:937.0 4:-1187.0 5:293.0 6:-301.0 7:118.0 8:144.0 9:263.0 10:221.0 11:103.0 
1.0 0:997.0 1:395.0 2:-731.0 3:843.0 4:-1088.0 5:228.0 6:-285.0 7:140.0 8:107.0 9:297.0 10:199.0 11:113.0 
1.0 0:784.0 1:455.0 2:-640.0 3:662.0 4:-909.0 5:119.0 6:-261.0 7:175.0 8:52.0 9:341.0 10:173.0 11:129.0 
1.0 0:1580.0 1:558.0 2:-638.0 3:734.0 4:-989.0 5:480.0 6:-364.0 7:141.0 8:10.0 9:-38.0 10:-18.0 11:215.0 
1.0 0:1392.0 1:532.0 2:-592.0 3:697.0 4:-936.0 5:447.0 6:-344.0 7:122.0 8:19.0 9:-37.0 10:-8.0 11:200.0 
1.0 0:1563.0 1:565.0 2:-633.0 3:719.0 4:-972.0 5:467.0 6:-359.0 7:144.0 8:2.0 9:-29.0 10:-25.0 11:218.0 
1.0 0:1002.0 1:445.0 2:-506.0 3:634.0 4:-808.0 5:379.0 6:-297.0 7:87.0 8:37.0 9:-30.0 10:5.0 11:165.0 
1.0 0:1519.0 1:581.0 2:-618.0 3:682.0 4:-928.0 5:433.0 6:-346.0 7:151.0 8:-17.0 9:-8.0 10:-39.0 11:224.0 
1.0 0:1449.0 1:606.0 2:-595.0 3:626.0 4:-865.0 5:387.0 6:-328.0 7:160.0 8:-42.0 9:18.0 10:-57.0 11:231.0 
1.0 0:1315.0 1:648.0 2:-552.0 3:534.0 4:-767.0 5:318.0 6:-300.0 7:168.0 8:-72.0 9:49.0 10:-76.0 11:235.0 
1.0 0:1776.0 1:709.0 2:-651.0 3:588.0 4:-952.0 5:423.0 6:-358.0 7:168.0 8:-66.0 9:-30.0 10:-62.0 11:239.0 
1.0 0:1575.0 1:682.0 2:-598.0 3:550.0 4:-897.0 5:388.0 6:-335.0 7:147.0 8:-56.0 9:-28.0 10:-50.0 11:222.0 
1.0 0:1764.0 1:714.0 2:-646.0 3:578.0 4:-939.0 5:413.0 6:-354.0 7:170.0 8:-72.0 9:-23.0 10:-66.0 11:241.0 
1.0 0:1122.0 1:581.0 2:-492.0 3:487.0 4:-761.0 5:312.0 6:-281.0 7:103.0 8:-30.0 9:-25.0 10:-28.0 11:175.0 
1.0 0:1732.0 1:726.0 2:-636.0 3:551.0 4:-908.0 5:390.0 6:-345.0 7:175.0 8:-86.0 9:-8.0 10:-77.0 11:245.0 
1.0 0:1681.0 1:744.0 2:-619.0 3:512.0 4:-864.0 5:358.0 6:-332.0 7:181.0 8:-103.0 9:9.0 10:-89.0 11:249.0 
1.0 0:1581.0 1:775.0 2:-588.0 3:446.0 4:-794.0 5:308.0 6:-312.0 7:185.0 8:-123.0 9:30.0 10:-100.0 11:251.0 
1.0 0:1863.0 1:702.0 2:-734.0 3:433.0 4:-917.0 5:339.0 6:-336.0 7:173.0 8:-111.0 9:27.0 10:-63.0 11:235.0 
1.0 0:1667.0 1:673.0 2:-684.0 3:398.0 4:-865.0 5:308.0 6:-314.0 7:151.0 8:-97.0 9:26.0 10:-49.0 11:217.0 
1.0 0:1856.0 1:705.0 2:-731.0 3:427.0 4:-909.0 5:333.0 6:-334.0 7:174.0 8:-114.0 9:30.0 10:-65.0 11:236.0 
1.0 0:1194.0 1:563.0 2:-571.0 3:338.0 4:-727.0 5:237.0 6:-259.0 7:104.0 8:-64.0 9:26.0 10:-23.0 11:170.0 
1.0 0:1837.0 1:712.0 2:-725.0 3:411.0 4:-891.0 5:319.0 6:-328.0 7:177.0 8:-122.0 9:39.0 10:-71.0 11:239.0 
1.0 0:1808.0 1:722.0 2:-715.0 3:388.0 4:-866.0 5:301.0 6:-321.0 7:181.0 8:-132.0 9:49.0 10:-78.0 11:241.0 
1.0 0:1751.0 1:741.0 2:-698.0 3:350.0 4:-826.0 5:273.0 6:-310.0 7:184.0 8:-143.0 9:61.0 10:-85.0 11:243.0 
1.0 0:2016.0 1:648.0 2:-955.0 3:279.0 4:-926.0 5:258.0 6:-338.0 7:189.0 8:-185.0 9:103.0 10:-46.0 11:263.0 
1.0 0:1827.0 1:615.0 2:-908.0 3:249.0 4:-881.0 5:231.0 6:-317.0 7:166.0 8:-170.0 9:99.0 10:-31.0 11:244.0 
0.37106498804765353 0:2015.0 1:648.0 2:-955.0 3:279.0 4:-926.0 5:257.0 6:-338.0 7:189.0 8:-185.0 9:103.0 10:-46.0 11:263.0 
1.0 0:1355.0 1:506.0 2:-793.0 3:189.0 4:-746.0 5:162.0 6:-262.0 7:120.0 8:-134.0 9:97.0 10:-5.0 11:196.0 
1.0 0:2014.0 1:649.0 2:-954.0 3:277.0 4:-924.0 5:256.0 6:-337.0 7:189.0 8:-186.0 9:104.0 10:-46.0 11:263.0 
1.0 0:2008.0 1:651.0 2:-952.0 3:272.0 4:-919.0 5:252.0 6:-336.0 7:190.0 8:-188.0 9:106.0 10:-48.0 11:263.0 
1.0 0:1988.0 1:658.0 2:-945.0 3:256.0 4:-901.0 5:240.0 6:-331.0 7:193.0 8:-195.0 9:113.0 10:-52.0 11:265.0 
0.27141087325480484 0:2135.0 1:585.0 2:-1196.0 3:140.0 4:-903.0 5:221.0 6:-396.0 7:159.0 8:-283.0 9:162.0 10:-32.0 11:301.0 
1.0 0:1986.0 1:568.0 2:-1150.0 3:111.0 4:-873.0 5:198.0 6:-377.0 7:143.0 8:-269.0 9:157.0 10:-24.0 11:288.0 
0.9943183681029124 0:2135.0 1:585.0 2:-1196.0 3:140.0 4:-903.0 5:221.0 6:-396.0 7:159.0 8:-283.0 9:162.0 10:-32.0 11:301.0 
1.0 0:1606.0 1:490.0 2:-1036.0 3:56.0 4:-766.0 5:136.0 6:-328.0 7:115.0 8:-240.0 9:151.0 10:-11.0 11:249.0 
1.0 0:2133.0 1:585.0 2:-1195.0 3:138.0 4:-901.0 5:220.0 6:-396.0 7:160.0 8:-284.0 9:163.0 10:-33.0 11:301.0 
1.0 0:2128.0 1:587.0 2:-1194.0 3:134.0 4:-897.0 5:217.0 6:-395.0 7:160.0 8:-285.0 9:164.0 10:-34.0 11:302.0 
1.0 0:2106.0 1:594.0 2:-1186.0 3:118.0 4:-880.0 5:205.0 6:-390.0 7:162.0 8:-289.0 9:168.0 10:-36.0 11:303.0 
0.7962204802283928 0:1408.0 1:1313.0 2:-401.0 3:1059.0 4:-402.0 5:654.0 6:-221.0 7:312.0 8:-298.0 9:259.0 10:-240.0 11:236.0 
0.16558512763056585 0:1408.0 1:1313.0 2:-401.0 3:1058.0 4:-402.0 5:654.0 6:-221.0 7:312.0 8:-298.0 9:260.0 10:-240.0 11:236.0 
0.8279243796188023 0:1407.0 1:1313.0 2:-401.0 3:1058.0 4:-401.0 5:653.0 6:-221.0 7:312.0 8:-298.0 9:260.0 10:-240.0 11:236.0 
1.0 0:1402.0 1:1315.0 2:-398.0 3:1053.0 4:-397.0 5:651.0 6:-220.0 7:313.0 8:-299.0 9:260.0 10:-240.0 11:236.0 
1.0 0:1382.0 1:1319.0 2:-389.0 3:1038.0 4:-384.0 5:644.0 6:-219.0 7:315.0 8:-302.0 9:261.0 10:-240.0 11:236.0 
1.0 0:1291.0 1:1339.0 2:-349.0 3:974.0 4:-328.0 5:614.0 6:-213.0 7:321.0 8:-307.0 9:261.0 10:-238.0 11:237.0 
0.8725589332368082 0:1546.0 1:1233.0 2:-511.0 3:890.0 4:-453.0 5:614.0 6:-226.0 7:295.0 8:-298.0 9:269.0 10:-202.0 11:241.0 
1.0 0:1539.0 1:1229.0 2:-510.0 3:890.0 4:-453.0 5:613.0 6:-225.0 7:295.0 8:-297.0 9:268.0 10:-201.0 11:240.0 
0.8410727604968149 0:1545.0 1:1233.0 2:-511.0 3:889.0 4:-453.0 5:613.0 6:-226.0 7:296.0 8:-298.0 9:269.0 10:-202.0 11:241.0 
1.0 0:1523.0 1:1222.0 2:-510.0 3:888.0 4:-448.0 5:611.0 6:-222.0 7:295.0 8:-293.0 9:267.0 10:-200.0 11:239.0 
1.0 0:1541.0 1:1234.0 2:-509.0 3:886.0 4:-449.0 5:611.0 6:-226.0 7:296.0 8:-299.0 9:270.0 10:-202.0 11:242.0 
1.0 0:1524.0 1:1238.0 2:-501.0 3:873.0 4:-437.0 5:604.0 6:-225.0 7:299.0 8:-302.0 9:271.0 10:-202.0 11:242.0 
1.0 0:1447.0 1:1257.0 2:-468.0 3:817.0 4:-389.0 5:578.0 6:-219.0 7:304.0 8:-307.0 9:272.0 10:-201.0 11:243.0 
0.8812176694042946 0:1658.0 1:1127.0 2:-698.0 3:759.0 4:-523.0 5:587.0 6:-218.0 7:311.0 8:-270.0 9:305.0 10:-137.0 11:238.0 
1.0 0:1650.0 1:1123.0 2:-696.0 3:759.0 4:-523.0 5:586.0 6:-216.0 7:310.0 8:-268.0 9:304.0 10:-136.0 11:237.0 
0.8298863454706187 0:1657.0 1:1127.0 2:-697.0 3:758.0 4:-523.0 5:587.0 6:-217.0 7:311.0 8:-270.0 9:305.0 10:-137.0 11:238.0 
1.0 0:1624.0 1:1112.0 2:-693.0 3:757.0 4:-517.0 5:582.0 6:-212.0 7:310.0 8:-264.0 9:302.0 10:-135.0 11:234.0 
1.0 0:1653.0 1:1128.0 2:-695.0 3:755.0 4:-520.0 5:585.0 6:-217.0 7:312.0 8:-271.0 9:305.0 10:-137.0 11:238.0 
1.0 0:1640.0 1:1132.0 2:-689.0 3:743.0 4:-509.0 5:580.0 6:-217.0 7:314.0 8:-273.0 9:306.0 10:-137.0 11:238.0 
1.0 0:1577.0 1:1147.0 2:-661.0 3:696.0 4:-467.0 5:557.0 6:-213.0 7:319.0 8:-278.0 9:307.0 10:-136.0 11:240.0 
0.8595092427346646 0:1781.0 1:1078.0 2:-855.0 3:624.0 4:-584.0 5:561.0 6:-215.0 7:318.0 8:-265.0 9:321.0 10:-85.0 11:242.0 
1.0 0:1772.0 1:1074.0 2:-853.0 3:623.0 4:-584.0 5:559.0 6:-213.0 7:317.0 8:-263.0 9:319.0 10:-84.0 11:241.0 
0.7834365544148615 0:1780.0 1:1078.0 2:-855.0 3:623.0 4:-584.0 5:560.0 6:-215.0 7:318.0 8:-265.0 9:321.0 10:-85.0 11:242.0 
1.0 0:1745.0 1:1063.0 2:-849.0 3:620.0 4:-578.0 5:555.0 6:-209.0 7:317.0 8:-259.0 9:318.0 10:-83.0 11:238.0 
1.0 0:1776.0 1:1079.0 2:-853.0 3:620.0 4:-581.0 5:559.0 6:-214.0 7:318.0 8:-266.0 9:321.0 10:-85.0 11:242.0 
1.0 0:1763.0 1:1082.0 2:-847.0 3:609.0 4:-571.0 5:553.0 6:-214.0 7:320.0 8:-268.0 9:322.0 10:-85.0 11:242.0 
1.0 0:1707.0 1:1096.0 2:-822.0 3:567.0 4:-534.0 5:533.0 6:-210.0 7:325.0 8:-273.0 9:324.0 10:-85.0 11:244.0 
0.8399325084441414 0:1970.0 1:1063.0 2:-1002.0 3:533.0 4:-643.0 5:542.0 6:-241.0 7:293.0 8:-275.0 9:300.0 10:-63.0 11:240.0 
1.0 0:1963.0 1:1060.0 2:-1001.0 3:533.0 4:-643.0 5:542.0 6:-240.0 7:293.0 8:-273.0 9:299.0 10:-62.0 11:239.0 
0.8101879053442645 0:1969.0 1:1063.0 2:-1002.0 3:533.0 4:-642.0 5:542.0 6:-241.0 7:294.0 8:-275.0 9:300.0 10:-63.0 11:240.0 
1.0 0:1934.0 1:1048.0 2:-997.0 3:532.0 4:-637.0 5:537.0 6:-235.0 7:291.0 8:-268.0 9:298.0 10:-61.0 11:237.0 
1.0 0:1964.0 1:1064.0 2:-1000.0 3:529.0 4:-639.0 5:540.0 6:-241.0 7:294.0 8:-276.0 9:301.0 10:-63.0 11:240.0 
1.0 0:1952.0 1:1068.0 2:-994.0 3:518.0 4:-629.0 5:535.0 6:-240.0 7:297.0 8:-278.0 9:302.0 10:-63.0 11:241.0 
1.0 0:1900.0 1:1081.0 2:-971.0 3:479.0 4:-593.0 5:515.0 6:-236.0 7:302.0 8:-283.0 9:304.0 10:-63.0 11:242.0 
0.9487815090074673 0:1815.0 1:879.0 2:-1285.0 3:1010.0 4:-1010.0 5:414.0 6:-325.0 7:233.0 8:-448.0 9:238.0 10:-154.0 11:39.0 
1.0 0:1715.0 1:856.0 2:-1237.0 3:990.0 4:-976.0 5:402.0 6:-313.0 7:221.0 8:-433.0 9:228.0 10:-147.0 11:38.0 
0.3328024415008667 0:1814.0 1:879.0 2:-1285.0 3:1010.0 4:-1010.0 5:414.0 6:-325.0 7:233.0 8:-448.0 9:238.0 10:-154.0 11:40.0 
1.0 0:1631.0 1:837.0 2:-1198.0 3:970.0 4:-952.0 5:393.0 6:-304.0 7:211.0 8:-418.0 9:220.0 10:-141.0 11:36.0 
1.0 0:1813.0 1:880.0 2:-1284.0 3:1008.0 4:-1008.0 5:414.0 6:-325.0 7:234.0 8:-448.0 9:238.0 10:-154.0 11:40.0 
1.0 0:1807.0 1:881.0 2:-1281.0 3:1003.0 4:-1004.0 5:411.0 6:-325.0 7:234.0 8:-449.0 9:238.0 10:-154.0 11:41.0 
1.0 0:1777.0 1:887.0 2:-1264.0 3:977.0 4:-982.0 5:402.0 6:-326.0 7:239.0 8:-451.0 9:238.0 10:-155.0 11:44.0 
1.0 0:1673.0 1:791.0 2:-1301.0 3:948.0 4:-1064.0 5:378.0 6:-353.0 7:199.0 8:-379.0 9:242.0 10:-127.0 11:51.0 
1.0 0:1302.0 1:722.0 2:-1119.0 3:870.0 4:-839.0 5:325.0 6:-303.0 7:203.0 8:-364.0 9:218.0 10:-123.0 11:38.0 
0.36196790424658265 0:1672.0 1:791.0 2:-1301.0 3:947.0 4:-1063.0 5:377.0 6:-353.0 7:199.0 8:-379.0 9:242.0 10:-127.0 11:51.0 
1.0 0:1232.0 1:706.0 2:-1083.0 3:855.0 4:-827.0 5:318.0 6:-289.0 7:192.0 8:-362.0 9:214.0 10:-109.0 11:35.0 
1.0 0:1670.0 1:792.0 2:-1300.0 3:946.0 4:-1062.0 5:377.0 6:-354.0 7:200.0 8:-379.0 9:242.0 10:-127.0 11:51.0 
1.0 0:1665.0 1:793.0 2:-1297.0 3:940.0 4:-1058.0 5:375.0 6:-354.0 7:201.0 8:-380.0 9:242.0 10:-127.0 11:51.0 
1.0 0:1637.0 1:799.0 2:-1282.0 3:916.0 4:-1038.0 5:367.0 6:-355.0 7:205.0 8:-382.0 9:242.0 10:-128.0 11:54.0 
0.7670434281113442 0:1623.0 1:837.0 2:-1317.0 3:813.0 4:-1069.0 5:328.0 6:-400.0 7:208.0 8:-362.0 9:241.0 10:-127.0 11:87.0 
1.0 0:1093.0 1:729.0 2:-1050.0 3:713.0 4:-765.0 5:269.0 6:-322.0 7:204.0 8:-330.0 9:204.0 10:-116.0 11:65.0 
0.1917665439552669 0:1623.0 1:837.0 2:-1316.0 3:813.0 4:-1069.0 5:328.0 6:-400.0 7:208.0 8:-362.0 9:241.0 10:-127.0 11:87.0 
1.0 0:976.0 1:695.0 2:-992.0 3:693.0 4:-742.0 5:259.0 6:-292.0 7:187.0 8:-321.0 9:198.0 10:-98.0 11:59.0 
0.8134447869422581 0:1622.0 1:838.0 2:-1316.0 3:812.0 4:-1068.0 5:328.0 6:-400.0 7:208.0 8:-362.0 9:241.0 10:-127.0 11:87.0 
1.0 0:1618.0 1:838.0 2:-1314.0 3:809.0 4:-1065.0 5:327.0 6:-400.0 7:209.0 8:-362.0 9:241.0 10:-127.0 11:87.0 
1.0 0:1599.0 1:842.0 2:-1303.0 3:792.0 4:-1052.0 5:321.0 6:-401.0 7:211.0 8:-364.0 9:242.0 10:-128.0 11:90.0 
0.8434094371852244 0:1527.0 1:806.0 2:-1359.0 3:704.0 4:-1086.0 5:291.0 6:-436.0 7:219.0 8:-336.0 9:268.0 10:-106.0 11:126.0 
1.0 0:726.0 1:638.0 2:-938.0 3:567.0 4:-647.0 5:209.0 6:-314.0 7:191.0 8:-272.0 9:209.0 10:-88.0 11:78.0 
0.16986767382055784 0:1526.0 1:806.0 2:-1359.0 3:704.0 4:-1086.0 5:291.0 6:-436.0 7:219.0 8:-337.0 9:268.0 10:-106.0 11:126.0 
1.0 0:616.0 1:608.0 2:-879.0 3:551.0 4:-629.0 5:202.0 6:-283.0 7:172.0 8:-266.0 9:196.0 10:-68.0 11:67.0 
0.5976636730346055 0:1526.0 1:806.0 2:-1359.0 3:704.0 4:-1085.0 5:291.0 6:-436.0 7:219.0 8:-337.0 9:268.0 10:-106.0 11:126.0 
1.0 0:1523.0 1:807.0 2:-1357.0 3:701.0 4:-1083.0 5:290.0 6:-436.0 7:220.0 8:-337.0 9:268.0 10:-107.0 11:126.0 
1.0 0:1508.0 1:809.0 2:-1349.0 3:689.0 4:-1073.0 5:286.0 6:-437.0 7:222.0 8:-338.0 9:268.0 10:-107.0 11:128.0 
0.1797856397081419 0:1463.0 1:801.0 2:-1394.0 3:602.0 4:-1108.0 5:247.0 6:-487.0 7:220.0 8:-344.0 9:272.0 10:-105.0 11:167.0 
1.0 0:436.0 1:564.0 2:-860.0 3:439.0 4:-577.0 5:151.0 6:-330.0 7:162.0 8:-240.0 9:202.0 10:-65.0 11:102.0 
1.0 0:1463.0 1:801.0 2:-1394.0 3:602.0 4:-1108.0 5:247.0 6:-487.0 7:220.0 8:-344.0 9:272.0 10:-105.0 11:167.0 
1.0 0:259.0 1:511.0 2:-770.0 3:415.0 4:-539.0 5:140.0 6:-283.0 7:135.0 8:-224.0 9:185.0 10:-34.0 11:85.0 
1.0 0:1461.0 1:801.0 2:-1392.0 3:600.0 4:-1107.0 5:246.0 6:-487.0 7:220.0 8:-344.0 9:272.0 10:-105.0 11:167.0 
1.0 0:1451.0 1:803.0 2:-1387.0 3:591.0 4:-1099.0 5:243.0 6:-487.0 7:221.0 8:-345.0 9:272.0 10:-105.0 11:169.0 
1.0 0:1367.0 1:801.0 2:-1247.0 3:670.0 4:-659.0 5:422.0 6:-389.0 7:223.0 8:-308.0 9:158.0 10:-181.0 11:136.0 
0.8626078444946024 0:1972.0 1:972.0 2:-1529.0 3:790.0 4:-760.0 5:518.0 6:-486.0 7:301.0 8:-383.0 9:199.0 10:-239.0 11:176.0 
1.0 0:1017.0 1:704.0 2:-1081.0 3:597.0 4:-603.0 5:368.0 6:-327.0 7:184.0 8:-267.0 9:139.0 10:-152.0 11:118.0 
0.7035158974691276 0:1971.0 1:972.0 2:-1529.0 3:789.0 4:-760.0 5:518.0 6:-486.0 7:301.0 8:-383.0 9:199.0 10:-239.0 11:176.0 
1.0 0:1968.0 1:973.0 2:-1527.0 3:786.0 4:-757.0 5:517.0 6:-486.0 7:302.0 8:-384.0 9:199.0 10:-239.0 11:177.0 
1.0 0:1950.0 1:976.0 2:-1517.0 3:771.0 4:-745.0 5:511.0 6:-487.0 7:304.0 8:-386.0 9:200.0 10:-240.0 11:178.0 
1.0 0:1894.0 1:956.0 2:-1532.0 3:703.0 4:-781.0 5:490.0 6:-500.0 7:303.0 8:-390.0 9:192.0 10:-229.0 11:185.0 
1.0 0:1013.0 1:729.0 2:-1121.0 3:524.0 4:-555.0 5:355.0 6:-365.0 7:213.0 8:-277.0 9:137.0 10:-156.0 11:138.0 
0.23565599539645074 0:1893.0 1:956.0 2:-1532.0 3:703.0 4:-781.0 5:490.0 6:-500.0 7:303.0 8:-390.0 9:192.0 10:-229.0 11:185.0 
1.0 0:633.0 1:615.0 2:-950.0 3:450.0 4:-498.0 5:297.0 6:-292.0 7:174.0 8:-237.0 9:114.0 10:-120.0 11:119.0 
0.19532355516258884 0:1893.0 1:956.0 2:-1532.0 3:702.0 4:-780.0 5:490.0 6:-500.0 7:303.0 8:-390.0 9:192.0 10:-229.0 11:185.0 
1.0 0:1891.0 1:957.0 2:-1531.0 3:700.0 4:-779.0 5:489.0 6:-500.0 7:304.0 8:-390.0 9:192.0 10:-229.0 11:185.0 
1.0 0:1880.0 1:959.0 2:-1525.0 3:691.0 4:-772.0 5:486.0 6:-500.0 7:305.0 8:-391.0 9:193.0 10:-229.0 11:185.0 
0.7631369079742673 0:1842.0 1:969.0 2:-1487.0 3:667.0 4:-815.0 5:458.0 6:-518.0 7:279.0 8:-407.0 9:178.0 10:-233.0 11:181.0 
1.0 0:684.0 1:672.0 2:-961.0 3:427.0 4:-445.0 5:305.0 6:-349.0 7:175.0 8:-272.0 9:107.0 10:-146.0 11:139.0 
0.0681856237313937 0:1842.0 1:969.0 2:-1487.0 3:666.0 4:-815.0 5:458.0 6:-518.0 7:279.0 8:-407.0 9:178.0 10:-233.0 11:181.0 
1.0 0:308.0 1:558.0 2:-795.0 3:349.0 4:-394.0 5:245.0 6:-274.0 7:140.0 8:-228.0 9:88.0 10:-108.0 11:120.0 
0.10596070888571657 0:1842.0 1:969.0 2:-1487.0 3:666.0 4:-814.0 5:458.0 6:-518.0 7:279.0 8:-407.0 9:178.0 10:-233.0 11:181.0 
0.7855718123883263 0:1841.0 1:969.0 2:-1486.0 3:666.0 4:-814.0 5:458.0 6:-518.0 7:279.0 8:-407.0 9:178.0 10:-233.0 11:181.0 
1.0 0:1836.0 1:969.0 2:-1483.0 3:662.0 4:-811.0 5:457.0 6:-518.0 7:279.0 8:-408.0 9:178.0 10:-233.0 11:181.0 
0.767740166256711 0:1784.0 1:1001.0 2:-1445.0 3:608.0 4:-881.0 5:396.0 6:-521.0 7:283.0 8:-389.0 9:199.0 10:-223.0 11:186.0 
1.0 0:573.0 1:673.0 2:-908.0 3:366.0 4:-457.0 5:251.0 6:-347.0 7:181.0 8:-240.0 9:121.0 10:-134.0 11:144.0 
0.07638944252228635 0:1784.0 1:1001.0 2:-1445.0 3:608.0 4:-880.0 5:396.0 6:-521.0 7:283.0 8:-389.0 9:199.0 10:-223.0 11:186.0 
1.0 0:187.0 1:555.0 2:-738.0 3:292.0 4:-389.0 5:198.0 6:-270.0 7:141.0 8:-195.0 9:101.0 10:-98.0 11:120.0 
0.08548346081626096 0:1784.0 1:1001.0 2:-1445.0 3:607.0 4:-880.0 5:396.0 6:-521.0 7:283.0 8:-389.0 9:199.0 10:-223.0 11:186.0 
0.7223779771001304 0:1783.0 1:1001.0 2:-1445.0 3:607.0 4:-880.0 5:396.0 6:-521.0 7:283.0 8:-389.0 9:199.0 10:-223.0 11:186.0 
1.0 0:1779.0 1:1002.0 2:-1442.0 3:603.0 4:-878.0 5:395.0 6:-520.0 7:283.0 8:-389.0 9:199.0 10:-224.0 11:186.0 
1.0 0:393.0 1:629.0 2:-834.0 3:313.0 4:-422.0 5:203.0 6:-339.0 7:157.0 8:-248.0 9:103.0 10:-119.0 11:154.0 
1.0 0:34.0 1:510.0 2:-680.0 3:254.0 4:-353.0 5:169.0 6:-264.0 7:121.0 8:-196.0 9:88.0 10:-81.0 11:132.0 
0.8999183921523751 0:1743.0 1:997.0 2:-1452.0 3:570.0 4:-897.0 5:364.0 6:-543.0 7:261.0 8:-431.0 9:171.0 10:-216.0 11:212.0 
0.7966059909694985 0:1742.0 1:997.0 2:-1452.0 3:569.0 4:-897.0 5:363.0 6:-542.0 7:261.0 8:-431.0 9:171.0 10:-216.0 11:212.0 
1.0 0:1738.0 1:997.0 2:-1450.0 3:566.0 4:-895.0 5:362.0 6:-542.0 7:261.0 8:-430.0 9:171.0 10:-216.0 11:213.0 
1.0 0:1024.0 1:702.0 2:-1033.0 3:695.0 4:-670.0 5:302.0 6:-344.0 7:132.0 8:-421.0 9:149.0 10:-128.0 11:69.0 
0.7951796584876598 0:1738.0 1:859.0 2:-1372.0 3:839.0 4:-951.0 5:367.0 6:-462.0 7:153.0 8:-545.0 9:172.0 10:-186.0 11:69.0 
1.0 0:742.0 1:636.0 2:-907.0 3:616.0 4:-600.0 5:272.0 6:-299.0 7:111.0 8:-368.0 9:122.0 10:-119.0 11:65.0 
0.39458378679406825 0:1738.0 1:859.0 2:-1372.0 3:839.0 4:-951.0 5:366.0 6:-462.0 7:153.0 8:-545.0 9:172.0 10:-186.0 11:70.0 
1.0 0:1736.0 1:859.0 2:-1371.0 3:837.0 4:-950.0 5:366.0 6:-462.0 7:153.0 8:-545.0 9:172.0 10:-186.0 11:70.0 
1.0 0:1727.0 1:861.0 2:-1366.0 3:830.0 4:-944.0 5:364.0 6:-462.0 7:154.0 8:-545.0 9:172.0 10:-187.0 11:71.0 
0.06845751592137994 0:1677.0 1:820.0 2:-1344.0 3:847.0 4:-1010.0 5:354.0 6:-459.0 7:115.0 8:-521.0 9:148.0 10:-189.0 11:63.0 
1.0 0:754.0 1:617.0 2:-926.0 3:641.0 4:-602.0 5:286.0 6:-301.0 7:101.0 8:-367.0 9:132.0 10:-111.0 11:68.0 
1.0 0:1677.0 1:820.0 2:-1344.0 3:847.0 4:-1010.0 5:354.0 6:-459.0 7:115.0 8:-521.0 9:148.0 10:-189.0 11:63.0 
1.0 0:522.0 1:561.0 2:-825.0 3:582.0 4:-543.0 5:251.0 6:-262.0 7:96.0 8:-321.0 9:105.0 10:-106.0 11:63.0 
0.14850484291436516 0:1677.0 1:820.0 2:-1344.0 3:847.0 4:-1009.0 5:354.0 6:-459.0 7:115.0 8:-521.0 9:148.0 10:-189.0 11:63.0 
1.0 0:1675.0 1:820.0 2:-1343.0 3:845.0 4:-1008.0 5:354.0 6:-459.0 7:116.0 8:-521.0 9:148.0 10:-189.0 11:64.0 
1.0 0:1667.0 1:822.0 2:-1338.0 3:838.0 4:-1002.0 5:351.0 6:-459.0 7:117.0 8:-522.0 9:148.0 10:-189.0 11:65.0 
1.0 0:512.0 1:563.0 2:-860.0 3:517.0 4:-574.0 5:227.0 6:-308.0 7:77.0 8:-327.0 9:120.0 10:-107.0 11:78.0 
0.9846242683280522 0:1622.0 1:799.0 2:-1390.0 3:770.0 4:-1051.0 5:303.0 6:-499.0 7:108.0 8:-518.0 9:149.0 10:-203.0 11:79.0 
1.0 0:242.0 1:497.0 2:-737.0 3:456.0 4:-487.0 5:192.0 6:-259.0 7:73.0 8:-277.0 9:95.0 10:-96.0 11:69.0 
0.9840792594297182 0:1621.0 1:799.0 2:-1390.0 3:768.0 4:-1050.0 5:302.0 6:-499.0 7:108.0 8:-518.0 9:149.0 10:-203.0 11:80.0 
1.0 0:1614.0 1:801.0 2:-1386.0 3:763.0 4:-1045.0 5:300.0 6:-499.0 7:109.0 8:-518.0 9:149.0 10:-203.0 11:81.0 
1.0 0:325.0 1:530.0 2:-821.0 3:407.0 4:-541.0 5:168.0 6:-333.0 7:56.0 8:-303.0 9:106.0 10:-97.0 11:113.0 
1.0 0:7.0 1:452.0 2:-672.0 3:336.0 4:-432.0 5:137.0 6:-279.0 7:48.0 8:-235.0 9:77.0 10:-81.0 11:104.0 
0.849707941269012 0:1546.0 1:794.0 2:-1413.0 3:680.0 4:-1075.0 5:254.0 6:-542.0 7:92.0 8:-512.0 9:134.0 10:-207.0 11:119.0 
0.7915334129317892 0:1546.0 1:794.0 2:-1412.0 3:680.0 4:-1074.0 5:254.0 6:-543.0 7:92.0 8:-512.0 9:134.0 10:-207.0 11:119.0 
1.0 0:1542.0 1:794.0 2:-1410.0 3:676.0 4:-1072.0 5:253.0 6:-543.0 7:93.0 8:-512.0 9:134.0 10:-207.0 11:119.0 
1.0 0:176.0 1:444.0 2:-809.0 3:394.0 4:-512.0 5:158.0 6:-308.0 7:63.0 8:-272.0 9:94.0 10:-77.0 11:119.0 
0.7742014045070567 0:1463.0 1:709.0 2:-1456.0 3:673.0 4:-1104.0 5:256.0 6:-526.0 7:92.0 8:-498.0 9:112.0 10:-202.0 11:128.0 
1.0 0:-91.0 1:385.0 2:-674.0 3:331.0 4:-422.0 5:131.0 6:-256.0 7:55.0 8:-218.0 9:73.0 10:-65.0 11:110.0 
0.1431459199629191 0:1463.0 1:709.0 2:-1455.0 3:673.0 4:-1104.0 5:256.0 6:-526.0 7:92.0 8:-498.0 9:112.0 10:-202.0 11:128.0 
0.7909422858739268 0:1462.0 1:710.0 2:-1455.0 3:673.0 4:-1104.0 5:255.0 6:-526.0 7:92.0 8:-498.0 9:112.0 10:-202.0 11:128.0 
1.0 0:1459.0 1:710.0 2:-1453.0 3:669.0 4:-1101.0 5:254.0 6:-527.0 7:93.0 8:-498.0 9:112.0 10:-202.0 11:129.0 
0.007094591182514015 0:1476.0 1:822.0 2:-1369.0 3:638.0 4:-959.0 5:371.0 6:-480.0 7:171.0 8:-314.0 9:171.0 10:-215.0 11:99.0 
1.0 0:623.0 1:638.0 2:-926.0 3:486.0 4:-526.0 5:247.0 6:-343.0 7:157.0 8:-262.0 9:149.0 10:-153.0 11:83.0 
1.0 0:1476.0 1:822.0 2:-1369.0 3:638.0 4:-959.0 5:371.0 6:-480.0 7:171.0 8:-314.0 9:171.0 10:-215.0 11:99.0 
1.0 0:458.0 1:586.0 2:-848.0 3:445.0 4:-492.0 5:235.0 6:-309.0 7:137.0 8:-235.0 9:143.0 10:-133.0 11:78.0 
0.6590235817181072 0:1475.0 1:823.0 2:-1368.0 3:637.0 4:-959.0 5:371.0 6:-480.0 7:171.0 8:-315.0 9:171.0 10:-215.0 11:99.0 
1.0 0:1472.0 1:823.0 2:-1367.0 3:635.0 4:-957.0 5:370.0 6:-480.0 7:171.0 8:-315.0 9:171.0 10:-216.0 11:99.0 
1.0 0:1455.0 1:826.0 2:-1357.0 3:621.0 4:-946.0 5:365.0 6:-480.0 7:173.0 8:-316.0 9:172.0 10:-216.0 11:100.0 
1.0 0:282.0 1:533.0 2:-780.0 3:421.0 4:-544.0 5:184.0 6:-270.0 7:139.0 8:-221.0 9:116.0 10:-125.0 11:60.0 
0.8996125808306451 0:1300.0 1:763.0 2:-1312.0 3:592.0 4:-1053.0 5:333.0 6:-440.0 7:165.0 8:-291.0 9:165.0 10:-201.0 11:75.0 
1.0 0:86.0 1:472.0 2:-685.0 3:382.0 4:-500.0 5:166.0 6:-229.0 7:116.0 8:-192.0 9:100.0 10:-103.0 11:54.0 
0.6813530009621562 0:1300.0 1:763.0 2:-1311.0 3:591.0 4:-1053.0 5:333.0 6:-440.0 7:165.0 8:-292.0 9:165.0 10:-201.0 11:75.0 
1.0 0:1297.0 1:764.0 2:-1310.0 3:589.0 4:-1050.0 5:332.0 6:-440.0 7:165.0 8:-292.0 9:165.0 10:-201.0 11:76.0 
1.0 0:1283.0 1:767.0 2:-1303.0 3:577.0 4:-1040.0 5:327.0 6:-440.0 7:168.0 8:-294.0 9:166.0 10:-202.0 11:77.0 
0.7625203255675415 0:1282.0 1:706.0 2:-1394.0 3:553.0 4:-1090.0 5:326.0 6:-428.0 7:205.0 8:-263.0 9:169.0 10:-193.0 11:79.0 
1.0 0:198.0 1:480.0 2:-825.0 3:350.0 4:-550.0 5:162.0 6:-252.0 7:178.0 8:-189.0 9:120.0 10:-115.0 11:64.0 
